/* The genome for asteroids */
genomestart 1
trait 1 0.1 0 0 0 0 0 0 0
trait 2 0.2 0 0 0 0 0 0 0
trait 3 0.3 0 0 0 0 0 0 0
trait 4 0.4 0 0 0 0 0 0 0
/* node <id> <trait_id> <wat> <node_type> */
/* <node_type> HiddenNeuron 0 , InputNeuron 1 , OutputNeuron 2, BiasNeuron 3*/
/* BIAS */
node 1 0 1 3
/* outputs
node 2 0 0 2
node 3 0 0 2
node 4 0 0 2
node 5 0 0 2
/* inputs
/* Inputs track 8 Whiskers distances */
node 6 0 1 1
node 7 0 1 1
node 8 0 1 1
node 9 0 1 1
node 10 0 1 1
node 11 0 1 1
node 12 0 1 1
node 13 0 1 1
/* gene <trait_id> <in_node_id> <out_node_id> <weight> <recurrent> <inov_num> <mut_num> <enable>
/* i1
gene 1 1 2 0.0 1 1 0 1
gene 2 1 3 0.0 1 2 0 1
gene 3 1 4 0.0 1 3 0 1
gene 4 1 5 0.0 1 4 0 1
/* i6
gene 1 6 2 0.0 1 1 0 1
gene 2 6 3 0.0 1 2 0 1
gene 3 6 4 0.0 1 3 0 1
gene 4 6 5 0.0 1 4 0 1
/* i7
gene 1 7 2 0.0 1 1 0 1
gene 2 7 3 0.0 1 2 0 1
gene 3 7 4 0.0 1 3 0 1
gene 4 7 5 0.0 1 4 0 1
/* i8
gene 1 8 2 0.0 1 1 0 1
gene 2 8 3 0.0 1 2 0 1
gene 3 8 4 0.0 1 3 0 1
gene 4 8 5 0.0 1 4 0 1
/* i9
gene 1 9 2 0.0 1 1 0 1
gene 2 9 3 0.0 1 2 0 1
gene 3 9 4 0.0 1 3 0 1
gene 4 9 5 0.0 1 4 0 1
/* i10
gene 1 10 2 0.0 1 1 0 1
gene 2 10 3 0.0 1 2 0 1
gene 3 10 4 0.0 1 3 0 1
gene 4 10 5 0.0 1 4 0 1
/* i11
gene 1 11 2 0.0 1 1 0 1
gene 2 11 3 0.0 1 2 0 1
gene 3 11 4 0.0 1 3 0 1
gene 4 11 5 0.0 1 4 0 1
/* i12
gene 1 12 2 0.0 1 1 0 1
gene 2 12 3 0.0 1 2 0 1
gene 3 12 4 0.0 1 3 0 1
gene 4 12 5 0.0 1 4 0 1
/* i13
gene 1 13 2 0.0 1 1 0 1
gene 2 13 3 0.0 1 2 0 1
gene 3 13 4 0.0 1 3 0 1
gene 4 13 5 0.0 1 4 0 1
genomeend 1