/* Organism #332 Fitness: 0.109 Error: 0.891 */
genomestart 332
trait 1 0.05 0 0 0.1199775191520332 0 0 0.10697483240978914 0.8751842315686127
trait 2 0.2 0 0 0 0.015244226482277154 0.1355271363378809 0.4270987084077768 0
trait 3 0.4028099385391565 0.35496068372629797 0.0029907388423572674 0 0.28030839052115186 0 0.14737019676947855 0.4377034200978533
trait 4 0.4 0 0 0 0 0 0 0
node 1 1 1 3 SigmoidSteepenedActivation
node 2 1 0 2 SigmoidSteepenedActivation
node 3 1 0 2 SigmoidSteepenedActivation
node 4 1 0 2 SigmoidSteepenedActivation
node 5 1 0 2 SigmoidSteepenedActivation
node 6 1 1 1 SigmoidSteepenedActivation
node 7 1 1 1 SigmoidSteepenedActivation
node 8 1 1 1 SigmoidSteepenedActivation
node 9 1 1 1 SigmoidSteepenedActivation
node 10 1 1 1 SigmoidSteepenedActivation
node 11 1 1 1 SigmoidSteepenedActivation
node 12 3 1 1 SigmoidSteepenedActivation
node 13 1 1 1 SigmoidSteepenedActivation
node 53 1 0 0 SigmoidSteepenedActivation
node 158 1 0 0 SigmoidSteepenedActivation
node 199 1 0 0 SigmoidSteepenedActivation
node 458 1 0 0 SigmoidSteepenedActivation
node 1462 1 0 0 SigmoidSteepenedActivation
node 1472 1 0 0 SigmoidSteepenedActivation
node 1561 1 0 0 SigmoidSteepenedActivation
node 1563 1 0 0 SigmoidSteepenedActivation
node 1639 1 0 0 SigmoidSteepenedActivation
node 2013 1 0 0 SigmoidSteepenedActivation
node 2423 1 0 0 SigmoidSteepenedActivation
node 2981 1 0 0 SigmoidSteepenedActivation
node 3225 1 0 0 SigmoidSteepenedActivation
node 3397 1 0 0 SigmoidSteepenedActivation
node 3581 1 0 0 SigmoidSteepenedActivation
node 3665 1 0 0 SigmoidSteepenedActivation
node 4116 1 0 0 SigmoidSteepenedActivation
node 4211 1 0 0 SigmoidSteepenedActivation
node 4555 1 0 0 SigmoidSteepenedActivation
node 4745 1 0 0 SigmoidSteepenedActivation
node 4945 1 0 0 SigmoidSteepenedActivation
node 5228 1 0 0 SigmoidSteepenedActivation
node 5337 1 0 0 SigmoidSteepenedActivation
node 5710 1 0 0 SigmoidSteepenedActivation
node 5879 1 0 0 SigmoidSteepenedActivation
node 6494 1 0 0 SigmoidSteepenedActivation
node 6584 1 0 0 SigmoidSteepenedActivation
node 6661 1 0 0 SigmoidSteepenedActivation
node 6722 1 0 0 SigmoidSteepenedActivation
node 6776 1 0 0 SigmoidSteepenedActivation
node 7163 1 0 0 SigmoidSteepenedActivation
node 7452 1 0 0 SigmoidSteepenedActivation
node 7512 1 0 0 SigmoidSteepenedActivation
node 7659 1 0 0 SigmoidSteepenedActivation
node 7727 1 0 0 SigmoidSteepenedActivation
node 8012 1 0 0 SigmoidSteepenedActivation
node 8023 1 0 0 SigmoidSteepenedActivation
node 8118 1 0 0 SigmoidSteepenedActivation
node 8344 1 0 0 SigmoidSteepenedActivation
node 8452 1 0 0 SigmoidSteepenedActivation
node 8544 3 0 0 SigmoidSteepenedActivation
node 8629 1 0 0 SigmoidSteepenedActivation
node 8716 1 0 0 SigmoidSteepenedActivation
node 8763 1 0 0 SigmoidSteepenedActivation
node 9112 1 0 0 SigmoidSteepenedActivation
node 9165 1 0 0 SigmoidSteepenedActivation
node 9504 1 0 0 SigmoidSteepenedActivation
node 10461 1 0 0 SigmoidSteepenedActivation
node 10537 1 0 0 SigmoidSteepenedActivation
node 10786 1 0 0 SigmoidSteepenedActivation
node 10795 1 0 0 SigmoidSteepenedActivation
node 10885 1 0 0 SigmoidSteepenedActivation
node 11016 1 0 0 SigmoidSteepenedActivation
node 11084 1 0 0 SigmoidSteepenedActivation
node 11158 1 0 0 SigmoidSteepenedActivation
node 11206 1 0 0 SigmoidSteepenedActivation
node 11566 1 0 0 SigmoidSteepenedActivation
node 11679 1 0 0 SigmoidSteepenedActivation
node 11913 1 0 0 SigmoidSteepenedActivation
node 11981 1 0 0 SigmoidSteepenedActivation
node 12136 1 0 0 SigmoidSteepenedActivation
node 12265 1 0 0 SigmoidSteepenedActivation
node 12417 1 0 0 SigmoidSteepenedActivation
node 12518 1 0 0 SigmoidSteepenedActivation
node 12732 1 0 0 SigmoidSteepenedActivation
node 13055 1 0 0 SigmoidSteepenedActivation
node 13351 1 0 0 SigmoidSteepenedActivation
node 13580 1 0 0 SigmoidSteepenedActivation
node 13928 1 0 0 SigmoidSteepenedActivation
node 14086 1 0 0 SigmoidSteepenedActivation
node 14287 1 0 0 SigmoidSteepenedActivation
node 14680 1 0 0 SigmoidSteepenedActivation
node 14939 1 0 0 SigmoidSteepenedActivation
node 15184 1 0 0 SigmoidSteepenedActivation
node 15288 1 0 0 SigmoidSteepenedActivation
node 15348 1 0 0 SigmoidSteepenedActivation
node 15713 1 0 0 SigmoidSteepenedActivation
node 16091 1 0 0 SigmoidSteepenedActivation
node 16162 1 0 0 SigmoidSteepenedActivation
node 16260 1 0 0 SigmoidSteepenedActivation
node 16324 1 0 0 SigmoidSteepenedActivation
node 16437 1 0 0 SigmoidSteepenedActivation
node 16505 1 0 0 SigmoidSteepenedActivation
gene 1 1 2 0.34177757507751405 true 1 0.34177757507751405 true
gene 2 1 3 -1.2724630275173006 true 2 -1.2724630275173006 true
gene 2 1 4 -1.9091033769912502 true 3 -1.9091033769912502 true
gene 4 1 5 -1.4270493816929217 true 4 -1.4270493816929217 true
gene 1 6 2 -3.5004037665143555 true 1 -3.5004037665143555 true
gene 2 6 3 0.3363728882059854 true 2 0.3363728882059854 true
gene 3 6 4 -0.8990348914027013 true 3 -0.8990348914027013 true
gene 4 6 5 0.07412829905938499 true 4 0.07412829905938499 true
gene 1 7 2 1.6213405075833798 true 1 1.6213405075833798 true
gene 2 7 3 0.804812741465587 true 2 0.804812741465587 true
gene 3 7 4 1.914781762718512 true 3 1.914781762718512 true
gene 4 7 5 1.3993004520774934 true 4 1.3993004520774934 true
gene 1 8 2 -1.231918707604656 true 1 -1.231918707604656 true
gene 2 8 3 1.1484161114331397 true 2 1.1484161114331397 true
gene 3 8 4 0.055749483322141025 true 3 0.055749483322141025 true
gene 4 8 5 0.9748082656727364 true 4 0.9748082656727364 true
gene 1 9 2 3.7740674161376617 true 1 3.7740674161376617 true
gene 2 9 3 2.3039738952292845 true 2 2.3039738952292845 true
gene 3 9 4 2.5795626879776608 true 3 2.5795626879776608 true
gene 4 9 5 3.925774812402407 true 4 3.925774812402407 true
gene 1 10 2 -3.2447273306900613 true 1 -3.2447273306900613 true
gene 2 10 3 2.2850042038693794 true 2 2.2850042038693794 true
gene 3 10 4 4.690515343877307 true 3 4.690515343877307 true
gene 4 10 5 -2.2252547340533155 true 4 -2.2252547340533155 true
gene 1 11 2 1.423752150816704 true 1 1.423752150816704 true
gene 2 11 3 -0.638686848663083 true 2 -0.638686848663083 true
gene 3 11 4 2.746430531949441 true 3 2.746430531949441 true
gene 4 11 5 3.0624600574875633 true 4 3.0624600574875633 true
gene 1 12 2 4.809822896672892 true 1 4.809822896672892 true
gene 2 12 3 0.19408893956438023 true 2 0.19408893956438023 true
gene 3 12 4 -0.45280412396049574 true 3 -0.45280412396049574 true
gene 4 12 5 0.5988992039182444 true 4 0.5988992039182444 true
gene 1 13 2 0.11823636844956992 true 1 0.11823636844956992 true
gene 2 13 3 1.602580358882697 true 2 1.602580358882697 true
gene 3 13 4 3.599759446027946 true 3 3.599759446027946 true
gene 4 13 5 -0.47936622431271336 true 4 -0.47936622431271336 true
gene 2 2 2 0.2632095910121391 true 11 0.2632095910121391 true
gene 1 9 53 3.1907270020295915 true 156 3.1907270020295915 true
gene 1 53 2 0.3509418561184682 false 157 0.3509418561184682 true
gene 1 3 3 -0.7317494475824197 true 247 -0.7317494475824197 true
gene 1 6 158 2.9643722638857617 true 613 2.9643722638857617 true
gene 3 158 4 1.5382382579124907 false 614 1.5382382579124907 true
gene 2 158 158 -1.2243975684858603 true 965 -1.2243975684858603 true
gene 1 6 4 -4.8479960840257394 false 1147 -4.8479960840257394 true
gene 1 2 4 1.905102048497957 false 1329 1.905102048497957 true
gene 4 13 53 -0.6653205122972619 false 1735 -0.6653205122972619 true
gene 2 5 53 -2.1966587394606854 false 2980 -2.1966587394606854 true
gene 3 5 5 0.24033533146131944 true 3058 0.24033533146131944 true
gene 4 4 4 -7.243283324475233 true 3339 -7.243283324475233 true
gene 2 2 53 -2.90446405369716 true 4245 -2.90446405369716 true
gene 3 8 3 2.934157489885944 false 5051 2.934157489885944 true
gene 3 53 53 -0.3320921662895797 true 5057 -0.3320921662895797 true
gene 1 9 199 2.702085670707141 true 5211 2.702085670707141 true
gene 1 199 2 -0.7923951192829818 false 5212 -0.7923951192829818 true
gene 3 10 199 1.2432977844362303 false 5443 1.2432977844362303 true
gene 2 4 158 1.6879812652778563 true 5852 1.6879812652778563 true
gene 3 10 458 0.29686120103524666 false 6436 0.29686120103524666 true
gene 3 458 199 3.383273164735334 false 6437 3.383273164735334 true
gene 1 4 53 0.44774560299193483 true 6508 0.44774560299193483 true
gene 3 458 458 -0.5744325477716274 true 6868 -0.5744325477716274 true
gene 2 4 458 2.795851067512136 true 7367 2.795851067512136 true
gene 4 199 458 -5.893076347008751 true 7848 -5.893076347008751 true
gene 2 458 2 -2.0473140696344343 false 8095 -2.0473140696344343 true
gene 3 199 5 -3.413006092493738 false 10371 -3.413006092493738 true
gene 2 199 199 0.6314327618942849 true 10711 0.6314327618942849 true
gene 1 13 158 1.5781524087069205 false 11328 1.5781524087069205 true
gene 1 5 199 3.142905619277805 true 11990 3.142905619277805 true
gene 2 6 1462 1.602993796996945 true 12148 1.602993796996945 true
gene 2 1462 3 -1.0049212515562393 false 12149 -1.0049212515562393 true
gene 2 158 1472 0.4798838481052076 true 12184 0.4798838481052076 true
gene 2 1472 158 2.2027172427313095 false 12185 2.2027172427313095 true
gene 4 4 1561 -0.5932484164853874 true 12557 -0.5932484164853874 true
gene 4 1561 4 2.873298501660611 false 12558 2.873298501660611 true
gene 3 12 3 1.560099080683216 false 12931 1.560099080683216 true
gene 2 458 1563 3.906587179282581 false 12936 3.906587179282581 true
gene 2 1563 2 0.14214233206956076 false 12937 0.14214233206956076 true
gene 4 1472 1472 3.461181409866455 true 14570 3.461181409866455 true
gene 2 6 1561 -5.205502885298044 false 14623 -5.205502885298044 true
gene 1 8 1639 2.6004287649309035 true 14926 2.6004287649309035 true
gene 1 1639 2 1.0916997857367892 false 14927 1.0916997857367892 true
gene 4 2 3 0.46580840078014685 false 15370 0.46580840078014685 true
gene 4 5 1563 8.351343887118098 false 15671 8.351343887118098 true
gene 3 458 2013 2.4508705396041237 false 16879 2.4508705396041237 true
gene 3 2013 199 -1.235188478607302 false 16880 -1.235188478607302 true
gene 2 2013 2013 -2.1939976246388886 true 17118 -2.1939976246388886 true
gene 4 199 3 -0.847556136566169 false 17415 -0.847556136566169 true
gene 3 5 4 -0.7532468145536759 false 18003 -0.7532468145536759 true
gene 4 1462 1462 1.0395790592476348 true 18233 1.0395790592476348 true
gene 3 7 1563 3.453501665742298 false 19160 3.453501665742298 true
gene 1 7 2423 -3.6625548098669554 true 19247 -3.6625548098669554 true
gene 1 2423 2 -0.8449565765517689 false 19248 -0.8449565765517689 true
gene 2 1561 53 0.858288260580224 false 19812 0.858288260580224 true
gene 1 1563 1563 -0.3585331257176364 true 19887 -0.3585331257176364 true
gene 4 8 458 -1.8844488395999401 false 20786 -1.8844488395999401 true
gene 3 1563 199 -0.4648091044718509 true 20827 -0.4648091044718509 true
gene 3 8 2423 -0.5592495568319682 false 20988 -0.5592495568319682 true
gene 3 1639 458 -0.07664536936188965 false 21465 -0.07664536936188965 true
gene 3 1472 2 -1.5106055522071558 false 22482 -1.5106055522071558 true
gene 1 11 158 -0.31555621739115697 false 23203 -0.31555621739115697 true
gene 3 1 458 -0.5735838421140225 false 23572 -0.5735838421140225 true
gene 3 10 2981 -0.8750725515728156 true 23963 -0.8750725515728156 true
gene 3 2981 4 -0.8727537416162383 false 23964 -0.8727537416162383 true
gene 2 3 1563 0.6020273112195835 true 24671 0.6020273112195835 true
gene 3 12 3225 2.8828478907050794 false 25322 2.8828478907050794 true
gene 3 3225 3 3.9645255774695127 false 25323 3.9645255774695127 true
gene 1 3225 3225 1.5265977974114548 true 25862 1.5265977974114548 true
gene 1 5 2 -3.0613682198825316 false 26141 -3.0613682198825316 true
gene 2 2 3397 -2.881566079371491 true 26325 -2.881566079371491 true
gene 2 3397 2 1.6862353934017318 false 26326 1.6862353934017318 true
gene 4 2013 1563 0.20056682874064977 false 26967 0.20056682874064977 true
gene 1 3397 3397 2.429303017811262 true 26991 2.429303017811262 true
gene 4 5 3581 -0.5174467030856138 false 27965 -0.5174467030856138 true
gene 4 3581 1563 -2.8882756630134887 false 27966 -2.8882756630134887 true
gene 2 158 3665 -1.2948800176736408 true 28470 -1.2948800176736408 true
gene 2 3665 1472 -0.8818939962299851 false 28471 -0.8818939962299851 true
gene 4 1563 3225 -7.700714959784163 false 28950 -7.700714959784163 true
gene 3 1639 1639 -1.43958419329918 true 29073 -1.43958419329918 true
gene 1 1561 1561 -6.918255729577131 true 29441 -6.918255729577131 true
gene 4 4 3 -0.7331888435383312 false 29836 -0.7331888435383312 true
gene 2 3665 3665 -2.4529413029939526 true 30194 -2.4529413029939526 true
gene 3 2013 1472 2.166471102123075 false 30637 2.166471102123075 true
gene 3 12 4116 1.5428711512049553 false 31047 1.5428711512049553 true
gene 3 4116 3225 2.058925378384833 false 31048 2.058925378384833 true
gene 1 199 4211 2.4106170881058326 false 31671 2.4106170881058326 true
gene 1 4211 2 3.034610423125474 false 31672 3.034610423125474 true
gene 4 4211 4211 2.1436912149584275 true 32118 2.1436912149584275 true
gene 2 12 1639 -0.5137398664471977 false 33097 -0.5137398664471977 true
gene 3 3581 3581 -0.4234635833382902 true 33444 -0.4234635833382902 true
gene 3 2981 2981 -0.643642606441144 true 33795 -0.643642606441144 true
gene 2 12 4555 0.9949785234984642 true 34024 0.9949785234984642 true
gene 2 4555 3 2.5160369467286205 false 34025 2.5160369467286205 true
gene 1 9 53 1.6111448716785124 false 34489 1.6111448716785124 true
gene 3 2013 4745 -3.0287013769559077 false 35106 -3.0287013769559077 true
gene 3 4745 1472 1.1149809900312528 false 35107 1.1149809900312528 true
gene 3 2981 4555 -3.8225404048977514 false 35720 -3.8225404048977514 true
gene 3 12 4945 1.7950104312149422 false 36308 1.7950104312149422 true
gene 3 4945 3225 1.2964775229214722 false 36309 1.2964775229214722 true
gene 3 4555 199 -0.852956850291728 false 37312 -0.852956850291728 true
gene 2 12 5228 1.527506423032301 true 38057 1.527506423032301 true
gene 2 5228 3 -1.7665385327634593 false 38058 -1.7665385327634593 true
gene 1 199 5337 1.4993619717192677 false 38691 1.4993619717192677 true
gene 1 5337 2 0.9579130191748172 false 38692 0.9579130191748172 true
gene 4 4555 4555 1.2990047967122205 true 39012 1.2990047967122205 true
gene 1 4745 4745 -0.4267118026352293 true 39552 -0.4267118026352293 true
gene 1 4555 3225 -0.30578247160549826 false 39741 -0.30578247160549826 true
gene 3 6 199 -10.051938495706194 false 39852 -10.051938495706194 true
gene 2 7 5710 -0.3627054764019573 true 41008 -0.3627054764019573 true
gene 2 5710 3 4.322204287367956 false 41009 4.322204287367956 true
gene 4 11 5 4.607358156950099 false 41468 4.607358156950099 true
gene 3 5 5879 2.960599015692874 true 41968 2.960599015692874 true
gene 3 5879 5 1.995740296631521 false 41969 1.995740296631521 true
gene 4 5337 5337 -0.48094114873526017 true 42225 -0.48094114873526017 true
gene 3 4116 4116 -1.4491696713205686 true 42617 -1.4491696713205686 true
gene 1 8 4 1.606686397017774 false 43136 1.606686397017774 true
gene 2 4555 5 -1.2672081510888247 false 43537 -1.2672081510888247 true
gene 1 3225 3397 1.883797002195379 false 43891 1.883797002195379 true
gene 3 2 2423 -1.480116236995746 true 44542 -1.480116236995746 true
gene 1 13 4 2.474379180835541 false 45660 2.474379180835541 true
gene 2 12 6494 -0.5503695114179777 true 45886 -0.5503695114179777 true
gene 2 6494 4555 2.1822372121982108 false 45887 2.1822372121982108 true
gene 3 6 6584 -0.2868628997280117 false 46419 -0.2868628997280117 true
gene 3 6584 199 -4.001723077770202 false 46420 -4.001723077770202 true
gene 4 9 6661 4.366283894082153 true 46966 4.366283894082153 true
gene 4 6661 5 0.22749090197136376 false 46967 0.22749090197136376 true
gene 2 13 6722 1.3630696117454613 true 47362 1.3630696117454613 true
gene 2 6722 3 -2.0853162457631713 false 47363 -2.0853162457631713 true
gene 3 6 6776 -2.138812453922276 false 47745 -2.138812453922276 true
gene 3 6776 6584 0.027393347614332125 false 47746 0.027393347614332125 true
gene 4 4945 6494 -0.35890664898219343 false 48167 -0.35890664898219343 true
gene 3 1563 2013 3.3147205958498893 true 48402 3.3147205958498893 true
gene 1 6722 6722 -5.241167602787988 true 49260 -5.241167602787988 true
gene 1 5710 5710 3.7281234425073864 true 49430 3.7281234425073864 true
gene 4 5 7163 0.3426568506020631 false 49974 0.3426568506020631 true
gene 4 7163 3581 -1.4680060429772452 false 49975 -1.4680060429772452 true
gene 2 5228 5228 0.09422207389747637 true 50301 0.09422207389747637 true
gene 3 6584 6584 0.24244104244794484 true 50741 0.24244104244794484 true
gene 1 1462 6494 2.549533724652523 false 51469 2.549533724652523 true
gene 3 1561 199 -0.19842927327806925 false 51660 -0.19842927327806925 true
gene 3 12 7452 -3.895001726234437 false 51973 -3.895001726234437 true
gene 3 7452 4116 1.015007178467485 false 51974 1.015007178467485 true
gene 4 9 7512 0.526728255866318 true 52335 0.526728255866318 true
gene 4 7512 6661 -0.9897594756088883 false 52336 -0.9897594756088883 true
gene 1 3225 7659 1.613780379814611 true 53228 1.613780379814611 true
gene 1 7659 3225 0.9733985482406382 false 53229 0.9733985482406382 true
gene 3 458 7727 2.875658073899465 false 53627 2.875658073899465 true
gene 3 7727 199 -2.2910798118505022 false 53628 -2.2910798118505022 true
gene 4 2 7512 3.5810655411681416 true 54292 3.5810655411681416 true
gene 1 7452 7452 -7.042587230879999 true 54572 -7.042587230879999 true
gene 4 7163 6722 1.2383683563747017 false 54931 1.2383683563747017 true
gene 2 1561 8012 0.3191722168113661 false 55309 0.3191722168113661 true
gene 2 8012 53 1.7243728787661279 false 55310 1.7243728787661279 true
gene 2 5337 5879 2.2999538913194444 false 55959 2.2999538913194444 true
gene 1 2423 1639 -0.8668328073756184 false 56671 -0.8668328073756184 true
gene 2 3581 5228 0.4889711648399877 false 57081 0.4889711648399877 true
gene 1 4945 4945 0.10352523772290936 true 57182 0.10352523772290936 true
gene 1 5337 8023 0.9226665258481672 false 57245 0.9226665258481672 true
gene 1 8023 2 -1.1851959213574341 false 57246 -1.1851959213574341 true
gene 1 9 8118 2.742757316277377 true 57768 2.742757316277377 true
gene 1 8118 53 5.754407698722165 false 57769 5.754407698722165 true
gene 4 1462 7727 -2.753586364509034 false 58288 -2.753586364509034 true
gene 3 6661 6661 1.4382961962483103 true 58517 1.4382961962483103 true
gene 4 11 8344 0.7059953091659054 true 59094 0.7059953091659054 true
gene 4 8344 5 -1.5087805591138275 false 59095 -1.5087805591138275 true
gene 1 9 8452 0.4727892298298715 true 59720 0.4727892298298715 true
gene 1 8452 2 -2.9725178589075396 false 59721 -2.9725178589075396 true
gene 1 9 8544 -1.2526474629447362 true 60236 -1.2526474629447362 true
gene 1 8544 2 -0.40260889717537196 false 60237 -0.40260889717537196 true
gene 2 12 8629 0.05923144790772952 true 60747 0.05923144790772952 true
gene 2 8629 6494 -1.3908099623603392 false 60748 -1.3908099623603392 true
gene 2 3 8716 2.0548594754735 true 61245 2.0548594754735 true
gene 2 8716 1563 -7.425865720465389 false 61246 -7.425865720465389 true
gene 2 5 8763 2.0184509734164626 false 61493 2.0184509734164626 true
gene 2 8763 53 -0.08875959614531381 false 61494 -0.08875959614531381 true
gene 4 8023 8023 -1.2630120448544704 true 61856 -1.2630120448544704 true
gene 3 5 9112 2.0034027355209734 true 63622 2.0034027355209734 true
gene 3 9112 5 -10.367584748732368 false 63623 -10.367584748732368 true
gene 2 7163 7163 -2.6143155206607025 true 64059 -2.6143155206607025 true
gene 4 4555 9165 -1.5614891799934938 true 64374 -1.5614891799934938 true
gene 4 9165 4555 0.6166200086952507 false 64375 0.6166200086952507 true
gene 3 5879 7512 0.12402088152335475 false 64911 0.12402088152335475 true
gene 4 8452 8452 -11.11664755571266 true 65927 -11.11664755571266 true
gene 4 7163 9504 -0.7233822980383189 false 66373 -0.7233822980383189 true
gene 4 9504 6722 -6.716462285198936 false 66374 -6.716462285198936 true
gene 4 8716 8716 1.7086206145817302 true 66861 1.7086206145817302 true
gene 4 8344 8344 -0.47116998897080425 true 67283 -0.47116998897080425 true
gene 3 6 7659 -3.90621444392793 false 68066 -3.90621444392793 true
gene 1 1472 3 -0.7383908965525392 false 69577 -0.7383908965525392 true
gene 3 7727 1472 -1.0545338680852052 false 70010 -1.0545338680852052 true
gene 4 6494 5710 -0.6729732982002433 false 70572 -0.6729732982002433 true
gene 2 9165 9165 -1.3368564668806715 true 70990 -1.3368564668806715 true
gene 1 4 10461 1.9793531579126344 true 71958 1.9793531579126344 true
gene 1 10461 53 -0.05857136358215426 false 71959 -0.05857136358215426 true
gene 2 2013 10537 -0.37209598406594363 true 72481 -0.37209598406594363 true
gene 2 10537 2013 -2.011140826846628 false 72482 -2.011140826846628 true
gene 3 2423 2423 -0.35180800778085575 true 72902 -0.35180800778085575 true
gene 2 4211 7163 -0.08470753343871906 false 73379 -0.08470753343871906 true
gene 1 6 10786 2.7497980439021625 true 73984 2.7497980439021625 true
gene 1 10786 2 -3.367421969746022 false 73985 -3.367421969746022 true
gene 2 3 9504 1.0097224380335323 false 74454 1.0097224380335323 true
gene 2 7 10795 1.9309251229615638 true 74499 1.9309251229615638 true
gene 2 10795 3 -0.4370915904120059 false 74500 -0.4370915904120059 true
gene 4 1462 10885 -1.4979171838651095 false 75056 -1.4979171838651095 true
gene 4 10885 7727 -0.3114773358959383 false 75057 -0.3114773358959383 true
gene 1 9 11016 -1.3789651188795542 true 75882 -1.3789651188795542 true
gene 1 11016 8118 2.9214918974130475 false 75883 2.9214918974130475 true
gene 1 8118 199 -1.0192156663344034 false 76881 -1.0192156663344034 true
gene 1 7659 11084 2.1100602982898087 false 77280 2.1100602982898087 true
gene 1 11084 3225 -0.05939017539071634 false 77281 -0.05939017539071634 true
gene 4 11 11158 1.8836848378808613 true 77728 1.8836848378808613 true
gene 4 11158 8344 -0.6369157849941242 false 77729 -0.6369157849941242 true
gene 3 10 11206 0.5341938002135411 true 77973 0.5341938002135411 true
gene 3 11206 2981 -1.02833974945752 false 77974 -1.02833974945752 true
gene 4 5 3 0.9974229560807917 false 78687 0.9974229560807917 true
gene 3 3581 6722 -7.612865347447708 false 79276 -7.612865347447708 true
gene 4 8012 8012 -1.8075650400936887 true 79611 -1.8075650400936887 true
gene 4 10 11566 1.027637967757685 true 80058 1.027637967757685 true
gene 4 11566 5 -1.174175523803151 false 80059 -1.174175523803151 true
gene 2 6722 11679 1.2440687838722129 false 80706 1.2440687838722129 true
gene 2 11679 3 -2.4223126474355596 false 80707 -2.4223126474355596 true
gene 2 3 8012 -1.0709112893204795 true 81075 -1.0709112893204795 true
gene 3 9 8118 1.2443781867867643 false 81984 1.2443781867867643 true
gene 3 4 1639 0.5284112396665102 true 82413 0.5284112396665102 true
gene 3 6776 6776 0.07071644160950497 true 82853 0.07071644160950497 true
gene 4 9 11913 1.1896479487885583 true 84322 1.1896479487885583 true
gene 4 11913 7512 1.732058860248312 false 84323 1.732058860248312 true
gene 2 7 11981 0.7088729492725788 true 84723 0.7088729492725788 true
gene 2 11981 3 -0.03043344967618708 false 84724 -0.03043344967618708 true
gene 2 9 12136 0.15784875729481257 true 85709 0.15784875729481257 true
gene 2 12136 3 0.43615917430157736 false 85710 0.43615917430157736 true
gene 3 12 12265 -0.08357280760940142 false 86545 -0.08357280760940142 true
gene 3 12265 4116 1.6381597060536826 false 86546 1.6381597060536826 true
gene 3 4945 12417 0.7593570484328362 false 87474 0.7593570484328362 true
gene 3 12417 3225 1.6739522285334858 false 87475 1.6739522285334858 true
gene 4 11158 12518 0.16728983839659936 false 88181 0.16728983839659936 true
gene 4 12518 8344 0.44390879889107104 false 88182 0.44390879889107104 true
gene 2 6494 12732 1.3704594498190548 false 89379 1.3704594498190548 true
gene 2 12732 4555 -0.2529887968748735 false 89380 -0.2529887968748735 true
gene 4 8452 3397 -0.030102835865868982 false 90319 -0.030102835865868982 true
gene 1 12518 12518 2.170546834874832 true 90524 2.170546834874832 true
gene 3 1639 13055 -1.1586530055689739 true 91404 -1.1586530055689739 true
gene 3 13055 1639 -1.2743260828578422 false 91405 -1.2743260828578422 true
gene 1 11 13351 0.18621030680279743 false 93190 0.18621030680279743 true
gene 1 13351 158 -0.6264820532666346 false 93191 -0.6264820532666346 true
gene 4 11 13580 -2.0325426788606133 true 94468 -2.0325426788606133 true
gene 4 13580 8344 1.8072435402606577 false 94469 1.8072435402606577 true
gene 2 53 2013 -5.836998264485446 true 95329 -5.836998264485446 true
gene 1 3397 2013 -2.4275055198273634 true 95776 -2.4275055198273634 true
gene 3 7452 13928 -0.2337466918172072 false 96621 -0.2337466918172072 true
gene 3 13928 4116 -0.8139661328936776 false 96622 -0.8139661328936776 true
gene 3 8 14086 -0.444402340433931 true 97577 -0.444402340433931 true
gene 3 14086 4 -1.322824487327917 false 97578 -1.322824487327917 true
gene 3 12 14287 -1.2933247104796164 false 98775 -1.2933247104796164 true
gene 3 14287 4945 -0.9732055761557916 false 98776 -0.9732055761557916 true
gene 2 12 6584 -0.1948491192100249 false 99653 -0.1948491192100249 true
gene 1 12732 12732 -0.6600514484172978 true 100065 -0.6600514484172978 true
gene 3 2013 14680 -0.18795227578761542 false 101208 -0.18795227578761542 true
gene 3 14680 1472 -0.27374267223810933 false 101209 -0.27374267223810933 true
gene 2 13 1563 0.4123900091912063 false 101926 0.4123900091912063 true
gene 2 14287 14287 0.6556642697464772 true 102393 0.6556642697464772 true
gene 3 1639 9165 1.5406503712801338 false 102835 1.5406503712801338 true
gene 4 9 14939 0.8503289367602589 true 103441 0.8503289367602589 true
gene 4 14939 7512 -0.5006141673192901 false 103442 -0.5006141673192901 true
gene 1 8629 10885 -1.3500209500883074 false 104052 -1.3500209500883074 true
gene 1 2423 15184 2.370998312853808 false 104820 2.370998312853808 true
gene 1 15184 1639 -1.7209228927241091 false 104821 -1.7209228927241091 true
gene 2 9 15288 1.0378523635027257 true 105414 1.0378523635027257 true
gene 2 15288 3 0.549220851797283 false 105415 0.549220851797283 true
gene 4 8344 15348 1.2851085796782513 true 105790 1.2851085796782513 true
gene 4 15348 8344 0.1820320250128981 false 105791 0.1820320250128981 true
gene 4 11981 11981 0.913830612217486 true 106051 0.913830612217486 true
gene 2 5710 14287 -0.23885648167429327 true 106731 -0.23885648167429327 true
gene 2 7 15713 0.7338803592915994 true 108007 0.7338803592915994 true
gene 2 15713 11981 0.9909622153435724 false 108008 0.9909622153435724 true
gene 1 15288 15288 8.513885339066556 true 109820 8.513885339066556 true
gene 2 9 16091 0.7836654275821033 true 110259 0.7836654275821033 true
gene 2 16091 3 0.09545446544628289 false 110260 0.09545446544628289 true
gene 2 6776 1563 0.04156204042052418 false 110931 0.04156204042052418 true
gene 3 14086 16162 0.7323486077567751 false 111284 0.7323486077567751 true
gene 3 16162 4 -0.8320512515551747 false 111285 -0.8320512515551747 true
gene 3 10 16260 0.0006126907696155648 false 111880 0.0006126907696155648 true
gene 3 16260 199 0.23857609861438156 false 111881 0.23857609861438156 true
gene 4 5228 15184 -1.6911754031613713 true 112353 -1.6911754031613713 true
gene 1 8544 16324 0.5557869587607895 false 112765 0.5557869587607895 true
gene 1 16324 2 0.4065284434941255 false 112766 0.4065284434941255 true
gene 1 11913 11913 -1.654952821275792 true 112953 -1.654952821275792 true
gene 1 13 2981 5.062648245950769 false 113153 5.062648245950769 true
gene 1 4945 16437 1 true 113599 0 true
gene 1 16437 4945 0.10352523772290936 false 113600 0 true
gene 3 5879 16505 1 false 113971 0 true
gene 3 16505 5 1.995740296631521 false 113972 0 true
gene 2 1 1472 -4.315159423714855 false 114623 -4.315159423714855 true
genomeend 332
