/* Organism #299 Fitness: 0.419 Error: 0.581 */
genomestart 299
trait 1 0.05 0 0 0.1199775191520332 0 0 0.10697483240978914 0.8751842315686127
trait 2 0.5536765900446647 0 0.05791039810295628 0 0.015244226482277154 0.1355271363378809 0.22643950118804834 0
trait 3 0.0961787402078357 0.6044387889022205 0.0029907388423572674 0 0.2670973069885749 0 0.04691668373715821 1.0028215146184183
trait 4 0.38422644304532555 0.15862671443260323 0 0 0 0 0.1404914287112318 0.4381819052430307
node 1 1 1 3 SigmoidSteepenedActivation
node 2 1 0 2 SigmoidSteepenedActivation
node 3 1 0 2 SigmoidSteepenedActivation
node 4 1 0 2 SigmoidSteepenedActivation
node 5 1 0 2 SigmoidSteepenedActivation
node 6 1 1 1 SigmoidSteepenedActivation
node 7 1 1 1 SigmoidSteepenedActivation
node 8 1 1 1 SigmoidSteepenedActivation
node 9 1 1 1 SigmoidSteepenedActivation
node 10 1 1 1 SigmoidSteepenedActivation
node 11 1 1 1 SigmoidSteepenedActivation
node 12 3 1 1 SigmoidSteepenedActivation
node 13 1 1 1 SigmoidSteepenedActivation
node 53 1 0 0 SigmoidSteepenedActivation
node 158 1 0 0 SigmoidSteepenedActivation
node 199 1 0 0 SigmoidSteepenedActivation
node 458 1 0 0 SigmoidSteepenedActivation
node 1462 1 0 0 SigmoidSteepenedActivation
node 1472 1 0 0 SigmoidSteepenedActivation
node 1561 1 0 0 SigmoidSteepenedActivation
node 1563 1 0 0 SigmoidSteepenedActivation
node 1639 1 0 0 SigmoidSteepenedActivation
node 2013 1 0 0 SigmoidSteepenedActivation
node 2423 1 0 0 SigmoidSteepenedActivation
node 2981 1 0 0 SigmoidSteepenedActivation
node 3225 1 0 0 SigmoidSteepenedActivation
node 3397 1 0 0 SigmoidSteepenedActivation
node 3581 1 0 0 SigmoidSteepenedActivation
node 3665 1 0 0 SigmoidSteepenedActivation
node 4116 1 0 0 SigmoidSteepenedActivation
node 4211 1 0 0 SigmoidSteepenedActivation
node 4555 1 0 0 SigmoidSteepenedActivation
node 4745 1 0 0 SigmoidSteepenedActivation
node 4945 1 0 0 SigmoidSteepenedActivation
node 5228 1 0 0 SigmoidSteepenedActivation
node 5337 1 0 0 SigmoidSteepenedActivation
node 5710 1 0 0 SigmoidSteepenedActivation
node 5879 1 0 0 SigmoidSteepenedActivation
node 6494 1 0 0 SigmoidSteepenedActivation
node 6584 1 0 0 SigmoidSteepenedActivation
node 6661 1 0 0 SigmoidSteepenedActivation
node 6722 1 0 0 SigmoidSteepenedActivation
node 6776 1 0 0 SigmoidSteepenedActivation
node 7163 1 0 0 SigmoidSteepenedActivation
node 7452 1 0 0 SigmoidSteepenedActivation
node 7512 1 0 0 SigmoidSteepenedActivation
node 7659 1 0 0 SigmoidSteepenedActivation
node 7727 1 0 0 SigmoidSteepenedActivation
node 8012 1 0 0 SigmoidSteepenedActivation
node 8023 1 0 0 SigmoidSteepenedActivation
node 8118 1 0 0 SigmoidSteepenedActivation
node 8344 1 0 0 SigmoidSteepenedActivation
node 8452 1 0 0 SigmoidSteepenedActivation
node 8544 1 0 0 SigmoidSteepenedActivation
node 8629 1 0 0 SigmoidSteepenedActivation
node 8716 1 0 0 SigmoidSteepenedActivation
node 8763 1 0 0 SigmoidSteepenedActivation
node 9112 1 0 0 SigmoidSteepenedActivation
node 9165 1 0 0 SigmoidSteepenedActivation
node 9504 1 0 0 SigmoidSteepenedActivation
node 10461 1 0 0 SigmoidSteepenedActivation
node 10537 1 0 0 SigmoidSteepenedActivation
node 10786 1 0 0 SigmoidSteepenedActivation
node 10795 1 0 0 SigmoidSteepenedActivation
node 10885 1 0 0 SigmoidSteepenedActivation
node 11016 1 0 0 SigmoidSteepenedActivation
node 11084 1 0 0 SigmoidSteepenedActivation
node 11158 1 0 0 SigmoidSteepenedActivation
node 11206 1 0 0 SigmoidSteepenedActivation
node 11566 1 0 0 SigmoidSteepenedActivation
node 11679 1 0 0 SigmoidSteepenedActivation
node 11913 1 0 0 SigmoidSteepenedActivation
node 11981 1 0 0 SigmoidSteepenedActivation
node 12136 1 0 0 SigmoidSteepenedActivation
node 12265 1 0 0 SigmoidSteepenedActivation
node 12417 1 0 0 SigmoidSteepenedActivation
node 12518 1 0 0 SigmoidSteepenedActivation
node 12732 1 0 0 SigmoidSteepenedActivation
node 13055 1 0 0 SigmoidSteepenedActivation
node 13351 1 0 0 SigmoidSteepenedActivation
node 13580 1 0 0 SigmoidSteepenedActivation
node 13928 1 0 0 SigmoidSteepenedActivation
node 14086 1 0 0 SigmoidSteepenedActivation
node 14287 1 0 0 SigmoidSteepenedActivation
node 14680 1 0 0 SigmoidSteepenedActivation
node 14939 1 0 0 SigmoidSteepenedActivation
node 16126 1 0 0 SigmoidSteepenedActivation
node 17241 1 0 0 SigmoidSteepenedActivation
node 17923 1 0 0 SigmoidSteepenedActivation
node 18177 1 0 0 SigmoidSteepenedActivation
node 19170 1 0 0 SigmoidSteepenedActivation
node 19343 1 0 0 SigmoidSteepenedActivation
gene 1 1 2 0.2469634419954186 true 1 0.2469634419954186 true
gene 2 1 3 -0.6290765634599063 true 2 -0.6290765634599063 true
gene 2 1 4 -2.1119747989341002 true 3 -2.1119747989341002 true
gene 4 1 5 -0.12200813210270534 true 4 -0.12200813210270534 true
gene 1 6 2 -4.376970128697433 true 1 -4.376970128697433 true
gene 2 6 3 -0.9167338828796896 true 2 -0.9167338828796896 true
gene 3 6 4 0.7711317729990799 true 3 0.7711317729990799 true
gene 4 6 5 -1.4209168027928238 true 4 -1.4209168027928238 true
gene 1 7 2 1.3876784367192627 true 1 1.3876784367192627 true
gene 2 7 3 2.8819025493927617 true 2 2.8819025493927617 true
gene 3 7 4 2.0375822925837435 true 3 2.0375822925837435 true
gene 4 7 5 1.1867485249579683 true 4 1.1867485249579683 true
gene 1 8 2 -0.4915870607149175 true 1 -0.4915870607149175 true
gene 2 8 3 1.6693618943156552 true 2 1.6693618943156552 true
gene 3 8 4 -0.8430958572435513 true 3 -0.8430958572435513 true
gene 4 8 5 2.5249629342764437 true 4 2.5249629342764437 true
gene 1 9 2 2.730841809199895 true 1 2.730841809199895 true
gene 2 9 3 0.3077358077864876 true 2 0.3077358077864876 true
gene 3 9 4 1.5620676781670277 true 3 1.5620676781670277 true
gene 4 9 5 3.813971144502802 true 4 3.813971144502802 true
gene 1 10 2 -3.8824063131856024 true 1 -3.8824063131856024 true
gene 2 10 3 3.1980956450723417 true 2 3.1980956450723417 true
gene 3 10 4 5.236083757844934 true 3 5.236083757844934 true
gene 4 10 5 -2.741601715062737 true 4 -2.741601715062737 true
gene 1 11 2 1.3476923108850962 true 1 1.3476923108850962 true
gene 2 11 3 0.8342617287822254 true 2 0.8342617287822254 true
gene 3 11 4 1.3917564449993147 true 3 1.3917564449993147 true
gene 4 11 5 0.6012070918616159 true 4 0.6012070918616159 true
gene 1 12 2 3.377150107052559 true 1 3.377150107052559 true
gene 2 12 3 -0.2542677469553287 true 2 -0.2542677469553287 true
gene 3 12 4 -1.9139159596935655 true 3 -1.9139159596935655 true
gene 4 12 5 0.839257146556082 true 4 0.839257146556082 true
gene 1 13 2 -0.71244422594947 true 1 -0.71244422594947 true
gene 2 13 3 -0.16680764998581876 true 2 -0.16680764998581876 true
gene 3 13 4 4.588117076044599 true 3 4.588117076044599 true
gene 4 13 5 -0.1393349121465267 true 4 -0.1393349121465267 true
gene 2 2 2 0.16970369651982803 true 11 0.16970369651982803 true
gene 1 9 53 2.3689670564308334 true 156 2.3689670564308334 true
gene 1 53 2 -1.0921198096127709 false 157 -1.0921198096127709 true
gene 1 3 3 0.13710296144069795 true 247 0.13710296144069795 true
gene 1 6 158 3.790439279734345 true 613 3.790439279734345 true
gene 3 158 4 2.191449113337302 false 614 2.191449113337302 true
gene 2 158 158 0.1384443727624261 true 965 0.1384443727624261 true
gene 1 6 4 -4.4457444181270995 false 1147 -4.4457444181270995 true
gene 1 2 4 2.208167627014471 false 1329 2.208167627014471 true
gene 4 13 53 0.05493736298170089 false 1735 0.05493736298170089 true
gene 2 5 53 -0.10807345121494154 false 2980 -0.10807345121494154 true
gene 3 5 5 -0.28222818127619614 true 3058 -0.28222818127619614 true
gene 4 4 4 -3.3490325899733207 true 3339 -3.3490325899733207 true
gene 2 2 53 -2.035218604840924 true 4245 -2.035218604840924 true
gene 3 8 3 1.6538333499493343 false 5051 1.6538333499493343 true
gene 3 53 53 0.45290177852957864 true 5057 0.45290177852957864 true
gene 1 9 199 2.7861833100445454 true 5211 2.7861833100445454 true
gene 1 199 2 -0.2744092705952761 false 5212 -0.2744092705952761 true
gene 3 10 199 0.0748676089143917 false 5443 0.0748676089143917 true
gene 2 4 158 0.9965564334555203 true 5852 0.9965564334555203 true
gene 3 10 458 -0.6456828646829746 false 6436 -0.6456828646829746 true
gene 3 458 199 2.2413777312032526 false 6437 2.2413777312032526 true
gene 1 4 53 -0.5495409813279803 true 6508 -0.5495409813279803 true
gene 3 458 458 -0.8198696779658071 true 6868 -0.8198696779658071 true
gene 2 4 458 0.2438625579642666 true 7367 0.2438625579642666 true
gene 4 199 458 -3.0835574167202515 true 7848 -3.0835574167202515 true
gene 2 458 2 -3.019370491298698 false 8095 -3.019370491298698 true
gene 3 199 5 -2.912981658774444 false 10371 -2.912981658774444 true
gene 2 199 199 1.652044918139329 true 10711 1.652044918139329 true
gene 1 13 158 2.8296409443843697 false 11328 2.8296409443843697 true
gene 1 5 199 2.269032215819893 true 11990 2.269032215819893 true
gene 2 6 1462 2.095547771230527 true 12148 2.095547771230527 true
gene 2 1462 3 -2.748357002370732 false 12149 -2.748357002370732 true
gene 2 158 1472 -0.07342220946722988 true 12184 -0.07342220946722988 true
gene 2 1472 158 1.6070101404186865 false 12185 1.6070101404186865 true
gene 4 4 1561 0.08877981157907194 true 12557 0.08877981157907194 true
gene 4 1561 4 2.058312767106722 false 12558 2.058312767106722 true
gene 3 12 3 1.8576980329217712 false 12931 1.8576980329217712 true
gene 2 458 1563 2.439244724828022 false 12936 2.439244724828022 true
gene 2 1563 2 -0.9383308104518971 false 12937 -0.9383308104518971 true
gene 4 1472 1472 1.5591054551967392 true 14570 1.5591054551967392 true
gene 2 6 1561 -6.9763508598995205 false 14623 -6.9763508598995205 true
gene 1 8 1639 4.127154112100896 true 14926 4.127154112100896 true
gene 1 1639 2 1.1145727528377103 false 14927 1.1145727528377103 true
gene 4 2 3 -0.44240972250087535 false 15370 -0.44240972250087535 true
gene 4 5 1563 7.144598933341818 false 15671 7.144598933341818 true
gene 3 458 2013 2.2374539701938296 false 16879 2.2374539701938296 true
gene 3 2013 199 -1.0118069238425418 false 16880 -1.0118069238425418 true
gene 2 2013 2013 -2.09842969374829 true 17118 -2.09842969374829 true
gene 4 199 3 -0.40676983765551433 false 17415 -0.40676983765551433 true
gene 3 5 4 -1.9828375010279147 false 18003 -1.9828375010279147 true
gene 4 1462 1462 1.8614065339340446 true 18233 1.8614065339340446 true
gene 3 7 1563 2.9600923220207385 false 19160 2.9600923220207385 true
gene 1 7 2423 -2.283906378096804 true 19247 -2.283906378096804 true
gene 1 2423 2 0.5813760134701211 false 19248 0.5813760134701211 true
gene 2 1561 53 0.8454436660921358 false 19812 0.8454436660921358 true
gene 1 1563 1563 0.041217211434795106 true 19887 0.041217211434795106 true
gene 4 8 458 -1.386945722387098 false 20786 -1.386945722387098 true
gene 3 1563 199 -1.2169934012710955 true 20827 -1.2169934012710955 true
gene 3 8 2423 -1.3317039855213624 false 20988 -1.3317039855213624 true
gene 3 1639 458 0.7254823421033103 false 21465 0.7254823421033103 true
gene 3 1472 2 -0.7516519074012591 false 22482 -0.7516519074012591 true
gene 1 11 158 -1.0342865756100115 false 23203 -1.0342865756100115 true
gene 3 1 458 -1.5949639520847796 false 23572 -1.5949639520847796 true
gene 3 10 2981 -1.8893669292001751 true 23963 -1.8893669292001751 true
gene 3 2981 4 -1.502502725395396 false 23964 -1.502502725395396 true
gene 2 3 1563 0.8996847406187268 true 24671 0.8996847406187268 true
gene 3 12 3225 1.5171923549942605 false 25322 1.5171923549942605 true
gene 3 3225 3 3.780065753851272 false 25323 3.780065753851272 true
gene 1 3225 3225 0.46137453992019206 true 25862 0.46137453992019206 true
gene 1 5 2 0.29558617036367907 false 26141 0.29558617036367907 true
gene 2 2 3397 -2.623787100879163 true 26325 -2.623787100879163 true
gene 2 3397 2 -0.6827734807065726 false 26326 -0.6827734807065726 true
gene 4 2013 1563 -0.23284818049329267 false 26967 -0.23284818049329267 true
gene 1 3397 3397 1.4250562591453377 true 26991 1.4250562591453377 true
gene 4 5 3581 0.1509074370019055 false 27965 0.1509074370019055 true
gene 4 3581 1563 -1.9048182103085933 false 27966 -1.9048182103085933 true
gene 2 158 3665 -1.8621173118111376 true 28470 -1.8621173118111376 true
gene 2 3665 1472 -1.175152623470391 false 28471 -1.175152623470391 true
gene 4 1563 3225 -8.615550752303086 false 28950 -8.615550752303086 true
gene 3 1639 1639 -0.17371156907786078 true 29073 -0.17371156907786078 true
gene 1 1561 1561 -6.021890143299901 true 29441 -6.021890143299901 true
gene 4 4 3 0.8870371472974972 false 29836 0.8870371472974972 true
gene 2 3665 3665 -0.8125708470965537 true 30194 -0.8125708470965537 true
gene 3 2013 1472 3.4587265435188965 false 30637 3.4587265435188965 true
gene 3 12 4116 0.4739609958399918 false 31047 0.4739609958399918 true
gene 3 4116 3225 0.6419511614071756 false 31048 0.6419511614071756 true
gene 1 199 4211 1.0023414407903046 false 31671 1.0023414407903046 true
gene 1 4211 2 1.631233946254162 false 31672 1.631233946254162 true
gene 4 4211 4211 3.9080752413818702 true 32118 3.9080752413818702 true
gene 2 12 1639 -0.6547086403075165 false 33097 -0.6547086403075165 true
gene 3 3581 3581 -0.65010816336319 true 33444 -0.65010816336319 true
gene 3 2981 2981 -0.9526652867977738 true 33795 -0.9526652867977738 true
gene 2 12 4555 3.4400474599373916 true 34024 3.4400474599373916 true
gene 2 4555 3 1.2694485241989713 false 34025 1.2694485241989713 true
gene 1 9 53 1.6166780869101234 false 34489 1.6166780869101234 true
gene 3 2013 4745 -2.1824449148982477 false 35106 -2.1824449148982477 true
gene 3 4745 1472 0.4723396730022263 false 35107 0.4723396730022263 true
gene 3 2981 4555 -6.020171080307409 false 35720 -6.020171080307409 true
gene 3 12 4945 1.4884216603808773 false 36308 1.4884216603808773 true
gene 3 4945 3225 1.4986286365034946 false 36309 1.4986286365034946 true
gene 3 4555 199 0.07338254954533373 false 37312 0.07338254954533373 true
gene 2 12 5228 0.1476227277947499 true 38057 0.1476227277947499 true
gene 2 5228 3 -1.085341673504519 false 38058 -1.085341673504519 true
gene 1 199 5337 0.44427135723089684 false 38691 0.44427135723089684 true
gene 1 5337 2 0.4844070960332352 false 38692 0.4844070960332352 true
gene 4 4555 4555 0.13490858239394363 true 39012 0.13490858239394363 true
gene 1 4745 4745 0.04294387549373799 true 39552 0.04294387549373799 true
gene 1 4555 3225 -0.47047377611750113 false 39741 -0.47047377611750113 true
gene 3 6 199 -5.42082044946101 false 39852 -5.42082044946101 true
gene 2 7 5710 -0.6302434446873613 true 41008 -0.6302434446873613 true
gene 2 5710 3 3.3356154605856583 false 41009 3.3356154605856583 true
gene 4 11 5 2.970103544706188 false 41468 2.970103544706188 true
gene 3 5 5879 0.8511938431301671 true 41968 0.8511938431301671 true
gene 3 5879 5 2.43402117045034 false 41969 2.43402117045034 true
gene 4 5337 5337 -0.32327504900406606 true 42225 -0.32327504900406606 true
gene 3 4116 4116 -1.585119490684555 true 42617 -1.585119490684555 true
gene 1 8 4 2.134259984125168 false 43136 2.134259984125168 true
gene 2 4555 5 -1.9820148951142476 false 43537 -1.9820148951142476 true
gene 1 3225 3397 2.213250223382222 false 43891 2.213250223382222 true
gene 3 2 2423 -0.7386696209850235 true 44542 -0.7386696209850235 true
gene 1 13 4 2.754350875471318 false 45660 2.754350875471318 true
gene 2 12 6494 -2.4572039691943495 true 45886 -2.4572039691943495 true
gene 2 6494 4555 2.1210099631646053 false 45887 2.1210099631646053 true
gene 3 6 6584 0.4711098846984717 false 46419 0.4711098846984717 true
gene 3 6584 199 -2.883960134801998 false 46420 -2.883960134801998 true
gene 4 9 6661 3.038787636022672 true 46966 3.038787636022672 true
gene 4 6661 5 0.8629925778838696 false 46967 0.8629925778838696 true
gene 2 13 6722 0.3191961100102078 true 47362 0.3191961100102078 true
gene 2 6722 3 -1.993221216986252 false 47363 -1.993221216986252 true
gene 3 6 6776 -2.417424926476742 false 47745 -2.417424926476742 true
gene 3 6776 6584 0.1687971105132903 false 47746 0.1687971105132903 true
gene 4 4945 6494 0.6756086850595919 false 48167 0.6756086850595919 true
gene 3 1563 2013 2.823602724596509 true 48402 2.823602724596509 true
gene 1 6722 6722 -3.2946812658877884 true 49260 -3.2946812658877884 true
gene 1 5710 5710 3.174004573580845 true 49430 3.174004573580845 true
gene 4 5 7163 0.39476422174956965 false 49974 0.39476422174956965 true
gene 4 7163 3581 -0.6535110295532172 false 49975 -0.6535110295532172 true
gene 2 5228 5228 0.8812559411694076 true 50301 0.8812559411694076 true
gene 3 6584 6584 -0.8414823799344594 true 50741 -0.8414823799344594 true
gene 1 1462 6494 1.3896315255759326 false 51469 1.3896315255759326 true
gene 3 1561 199 -0.8728947146003649 false 51660 -0.8728947146003649 true
gene 3 12 7452 -2.901537747242393 false 51973 -2.901537747242393 true
gene 3 7452 4116 1.8236320632753502 false 51974 1.8236320632753502 true
gene 4 9 7512 0.519264144167753 true 52335 0.519264144167753 true
gene 4 7512 6661 -0.3503377224278949 false 52336 -0.3503377224278949 true
gene 1 3225 7659 0.42287906689588634 true 53228 0.42287906689588634 true
gene 1 7659 3225 0.7708118917619579 false 53229 0.7708118917619579 true
gene 3 458 7727 1.600503861033372 false 53627 1.600503861033372 true
gene 3 7727 199 -1.1107728741597187 false 53628 -1.1107728741597187 true
gene 4 2 7512 4.4968934472677 true 54292 4.4968934472677 true
gene 1 7452 7452 -7.6590394038403 true 54572 -7.6590394038403 true
gene 4 7163 6722 0.5959968557132083 false 54931 0.5959968557132083 true
gene 2 1561 8012 0.09233120496584507 false 55309 0.09233120496584507 true
gene 2 8012 53 1.3818823134239395 false 55310 1.3818823134239395 true
gene 2 5337 5879 1.906301828013523 false 55959 1.906301828013523 true
gene 1 2423 1639 -2.4468372080155847 false 56671 -2.4468372080155847 true
gene 2 3581 5228 0.208132449241468 false 57081 0.208132449241468 true
gene 1 4945 4945 -1.572063896387323 true 57182 -1.572063896387323 true
gene 1 5337 8023 1.5496589056536783 false 57245 1.5496589056536783 true
gene 1 8023 2 -0.054799919287922605 false 57246 -0.054799919287922605 true
gene 1 9 8118 2.5421422112476177 true 57768 2.5421422112476177 true
gene 1 8118 53 6.4860956080641134 false 57769 6.4860956080641134 true
gene 4 1462 7727 -2.0651301270594438 false 58288 -2.0651301270594438 true
gene 3 6661 6661 1.0932001080268599 true 58517 1.0932001080268599 true
gene 4 11 8344 0.5432863903278393 true 59094 0.5432863903278393 true
gene 4 8344 5 -1.2960051728868875 false 59095 -1.2960051728868875 true
gene 1 9 8452 0.5802867375473156 true 59720 0.5802867375473156 true
gene 1 8452 2 -1.8699608393471612 false 59721 -1.8699608393471612 true
gene 1 9 8544 -1.6475228954562542 true 60236 -1.6475228954562542 true
gene 1 8544 2 -0.35464433397162753 false 60237 -0.35464433397162753 true
gene 2 12 8629 0.570981355694762 true 60747 0.570981355694762 true
gene 2 8629 6494 -1.1975844523423809 false 60748 -1.1975844523423809 true
gene 2 3 8716 1.2220272268678607 true 61245 1.2220272268678607 true
gene 2 8716 1563 -7.932316892102724 false 61246 -7.932316892102724 true
gene 2 5 8763 0.5195470886183658 false 61493 0.5195470886183658 true
gene 2 8763 53 0.508907998322685 false 61494 0.508907998322685 true
gene 4 8023 8023 0.20528249843208096 true 61856 0.20528249843208096 true
gene 3 5 9112 0.05945142779736412 true 63622 0.05945142779736412 true
gene 3 9112 5 -9.976157243160031 false 63623 -9.976157243160031 true
gene 2 7163 7163 -2.3780495052694666 true 64059 -2.3780495052694666 true
gene 4 4555 9165 -0.2594874961703405 true 64374 -0.2594874961703405 true
gene 4 9165 4555 1.251950153728573 false 64375 1.251950153728573 true
gene 3 5879 7512 0.41831420518470824 false 64911 0.41831420518470824 true
gene 4 8452 8452 -10.370226838258063 true 65927 -10.370226838258063 true
gene 4 7163 9504 -1.0794707690054914 false 66373 -1.0794707690054914 true
gene 4 9504 6722 -5.065043428325168 false 66374 -5.065043428325168 true
gene 4 8716 8716 0.9821668882733359 true 66861 0.9821668882733359 true
gene 4 8344 8344 -0.05389573531346716 true 67283 -0.05389573531346716 true
gene 3 6 7659 -3.9621566877462264 false 68066 -3.9621566877462264 true
gene 1 1472 3 -0.1272171836275951 false 69577 -0.1272171836275951 true
gene 3 7727 1472 -0.32333146673890323 false 70010 -0.32333146673890323 true
gene 4 6494 5710 -0.20892755686425868 false 70572 -0.20892755686425868 true
gene 2 9165 9165 -0.30439461380159993 true 70990 -0.30439461380159993 true
gene 1 4 10461 1.2764988052178297 true 71958 1.2764988052178297 true
gene 1 10461 53 -0.9758575972630288 false 71959 -0.9758575972630288 true
gene 2 2013 10537 -0.7565453334986368 true 72481 -0.7565453334986368 true
gene 2 10537 2013 -2.389543635283703 false 72482 -2.389543635283703 true
gene 3 2423 2423 -0.14544963297085206 true 72902 -0.14544963297085206 true
gene 2 4211 7163 0.10689285916929236 false 73379 0.10689285916929236 true
gene 1 6 10786 0.9117779614990753 true 73984 0.9117779614990753 true
gene 1 10786 2 -3.401120510862249 false 73985 -3.401120510862249 true
gene 2 3 9504 -1.0621028228184137 false 74454 -1.0621028228184137 true
gene 2 7 10795 1.379658735493479 true 74499 1.379658735493479 true
gene 2 10795 3 0.25650285618349833 false 74500 0.25650285618349833 true
gene 4 1462 10885 -1.1860079079307386 false 75056 -1.1860079079307386 true
gene 4 10885 7727 -0.028394099688433094 false 75057 -0.028394099688433094 true
gene 1 9 11016 -0.40099944172536844 true 75882 -0.40099944172536844 true
gene 1 11016 8118 0.756327371975044 false 75883 0.756327371975044 true
gene 1 8118 199 -0.4330904724646767 false 76881 -0.4330904724646767 true
gene 1 7659 11084 1.0662199839810134 false 77280 1.0662199839810134 true
gene 1 11084 3225 1.3665038041612472 false 77281 1.3665038041612472 true
gene 4 11 11158 1.963914822947142 true 77728 1.963914822947142 true
gene 4 11158 8344 -0.23867811512148082 false 77729 -0.23867811512148082 true
gene 3 10 11206 0.07131355182678763 true 77973 0.07131355182678763 true
gene 3 11206 2981 -2.8081583496434854 false 77974 -2.8081583496434854 true
gene 4 5 3 0.316117087682155 false 78687 0.316117087682155 true
gene 3 3581 6722 -3.6258920026231443 false 79276 -3.6258920026231443 true
gene 4 8012 8012 -0.4203316780212767 true 79611 -0.4203316780212767 true
gene 4 10 11566 0.23094904665768637 true 80058 0.23094904665768637 true
gene 4 11566 5 -0.4507312489455228 false 80059 -0.4507312489455228 true
gene 2 6722 11679 0.05768170394605823 false 80706 0.05768170394605823 true
gene 2 11679 3 -2.5007238096452884 false 80707 -2.5007238096452884 true
gene 2 3 8012 -0.18207157632105098 true 81075 -0.18207157632105098 true
gene 3 9 8118 -0.9517205445968355 false 81984 -0.9517205445968355 true
gene 3 4 1639 -3.2128956753902944 true 82413 -3.2128956753902944 true
gene 3 6776 6776 8.747525357023402 true 82853 8.747525357023402 true
gene 4 9 11913 0.8781662244931274 true 84322 0.8781662244931274 true
gene 4 11913 7512 0.24485684834344393 false 84323 0.24485684834344393 true
gene 2 7 11981 -0.24971636594503535 true 84723 -0.24971636594503535 true
gene 2 11981 3 1.2513179659803515 false 84724 1.2513179659803515 true
gene 2 9 12136 -1.6650625351830661 true 85709 -1.6650625351830661 true
gene 2 12136 3 0.8928827825851243 false 85710 0.8928827825851243 true
gene 3 12 12265 -0.5704912467723524 false 86545 -0.5704912467723524 true
gene 3 12265 4116 0.06527225619132515 false 86546 0.06527225619132515 true
gene 3 4945 12417 1.7615092323047747 false 87474 1.7615092323047747 true
gene 3 12417 3225 0.35709156681952625 false 87475 0.35709156681952625 true
gene 4 11158 12518 -1.7475216141920515 false 88181 -1.7475216141920515 true
gene 4 12518 8344 -0.05589433785412702 false 88182 -0.05589433785412702 true
gene 2 6494 12732 -0.48193275457169327 false 89379 -0.48193275457169327 true
gene 2 12732 4555 0.25617550223719904 false 89380 0.25617550223719904 true
gene 4 8452 3397 -0.4458226960947621 false 90319 -0.4458226960947621 true
gene 1 12518 12518 1.389817150405822 true 90524 1.389817150405822 true
gene 3 1639 13055 -1.1376273679526205 true 91404 -1.1376273679526205 true
gene 3 13055 1639 -0.3313009587478962 false 91405 -0.3313009587478962 true
gene 1 11 13351 1.3032723102576371 false 93190 1.3032723102576371 true
gene 1 13351 158 -0.6600083357940281 false 93191 -0.6600083357940281 true
gene 4 11 13580 -1.0366535263170236 true 94468 -1.0366535263170236 true
gene 4 13580 8344 0.6406693116002842 false 94469 0.6406693116002842 true
gene 2 53 2013 -5.052733423119477 true 95329 -5.052733423119477 true
gene 1 3397 2013 -1.255783598811486 true 95776 -1.255783598811486 true
gene 3 7452 13928 1.4059923107411456 false 96621 1.4059923107411456 true
gene 3 13928 4116 0.5745683500911638 false 96622 0.5745683500911638 true
gene 3 8 14086 0.6277699640350752 true 97577 0.6277699640350752 true
gene 3 14086 4 -0.8937778760904809 false 97578 -0.8937778760904809 true
gene 3 12 14287 0.04286813657842515 false 98775 0.04286813657842515 true
gene 3 14287 4945 -0.21467160787360795 false 98776 -0.21467160787360795 true
gene 2 12 6584 -0.23644580479551264 false 99653 -0.23644580479551264 true
gene 1 12732 12732 -0.1514721693690676 true 100065 -0.1514721693690676 true
gene 3 2013 14680 -0.5039506990000477 false 101208 -0.5039506990000477 true
gene 3 14680 1472 0.3138130738464243 false 101209 0.3138130738464243 true
gene 2 13 1563 -2.0397215508708206 false 101926 -2.0397215508708206 true
gene 2 14287 14287 -6.128286422269774 true 102393 -6.128286422269774 true
gene 3 1639 9165 3.5772764712462415 false 102835 3.5772764712462415 true
gene 4 9 14939 0.092751982918303 true 103441 0.092751982918303 true
gene 4 14939 7512 0.43840315263402885 false 103442 0.43840315263402885 true
gene 1 8629 10885 -1.7354350575321345 false 104052 -1.7354350575321345 true
gene 3 10795 9112 1.0587697260182245 false 104822 1.0587697260182245 true
gene 2 9112 3397 6.348242184071884 false 106048 6.348242184071884 true
gene 1 9112 11981 4.094417017529844 false 106514 4.094417017529844 true
gene 1 3225 12265 -7.945504350966206 true 106955 -7.945504350966206 true
gene 3 14680 8763 6.035407524132882 false 107714 6.035407524132882 true
gene 3 11981 11566 4.311333861152967 false 108038 4.311333861152967 true
gene 4 8763 8763 -0.4708364263700659 true 108811 -0.4708364263700659 true
gene 1 9112 9112 8.857393446669768 true 109302 8.857393446669768 true
gene 1 1462 7659 -1.5495713503674677 false 109738 -1.5495713503674677 true
gene 3 5 16126 0.6790924189192424 true 110476 0.6790924189192424 true
gene 3 16126 9112 0.5414014742134566 false 110477 0.5414014742134566 true
gene 4 16126 10786 -4.136945151542944 false 111040 -4.136945151542944 true
gene 3 7163 7659 2.531603478856838 false 111288 2.531603478856838 true
gene 1 7727 14086 6.043547255148183 false 112014 6.043547255148183 true
gene 3 11158 11158 8.981690811033985 true 112339 3.8276373928977407 true
gene 3 14680 7659 8.109934640308275 false 113221 8.109934640308275 true
gene 1 6584 4745 2.5911886079619912 false 114793 2.5911886079619912 true
gene 3 11981 11981 -7.582010093378541 true 114943 -1.3046588291851255 true
gene 2 14680 14680 3.5718791172122186 true 115434 1.5900246236682574 true
gene 4 10461 10461 -4.090698032193728 true 115781 -1.0891343598515864 true
gene 1 2 9112 -5.995538625176172 true 116404 -5.995538625176172 true
gene 1 3 10537 -5.8041621083706385 true 116767 -5.8041621083706385 true
gene 3 7452 17241 0.7427489154132252 false 117405 0.18024891541322516 true
gene 3 17241 13928 0.8043983920226613 false 117406 0.18899072012424548 true
gene 4 10795 10795 -9.24631336879264 true 117562 -3.827942022379535 true
gene 3 9112 10795 3.159948948122548 true 118607 3.159948948122548 true
gene 1 8629 158 3.9977954481378952 false 120272 3.9977954481378952 true
gene 4 11084 11084 8.454660152355288 true 120612 2.2345409622198624 true
gene 1 7659 17923 1.430187412363138 false 121389 0.680187412363138 true
gene 1 17923 11084 1.1494106641906154 false 121390 0.710896139935672 true
gene 3 9112 7163 -1.1119823033965734 false 122220 -1.1119823033965734 true
gene 1 4745 18177 0.2049670391718296 true 122960 -0.0762829608281704 true
gene 1 18177 4745 0.2770946975042864 false 122961 0.1060316431744635 true
gene 1 3397 6584 -7.2867897806544475 true 123199 -7.2867897806544475 true
gene 1 11084 10885 -5.339963047901373 true 123383 -5.339963047901373 true
gene 2 13928 13928 -6.0222701745672245 true 123830 -6.0222701745672245 true
gene 4 8763 5228 -8.483134634888048 false 124419 -8.483134634888048 true
gene 3 14086 13351 -2.180856548257515 false 124718 -2.180856548257515 true
gene 3 1563 17923 -5.525774224108604 false 125454 -5.525774224108604 true
gene 2 11566 11566 2.8020238418375767 true 125596 0 true
gene 1 7659 7659 -1.019284950422862 true 127060 0 true
gene 3 7512 7512 2.0340929409661084 true 127447 0.5085232352415271 true
gene 2 11679 11679 -5.29995996154936 true 127856 0 true
gene 1 5228 8763 -3.8251888132084475 true 128344 -3.8251888132084475 true
gene 4 4555 19170 1 true 128797 0 true
gene 4 19170 4555 0.13490858239394363 false 128798 0.03372714559848591 true
gene 2 4555 17923 -8.607044113637802 false 129649 -8.607044113637802 true
gene 4 11 19343 1 true 129910 0 true
gene 4 19343 13580 -0.43133446920419233 false 129911 0 true
gene 4 1 12136 7.691996418839791 false 130324 7.691996418839791 true
gene 1 5 5337 7.823792849831953 true 130849 7.823792849831953 true
gene 4 8629 4945 -8.148368707910667 false 131466 -8.148368707910667 true
gene 3 19170 10795 3.5702620959588782 false 131698 3.5702620959588782 true
genomeend 299