/* Organism #57 Fitness: 0.364 Error: 0.636 */
genomestart 57
trait 1 0.05 0 0 0.1199775191520332 0 0 0.10697483240978914 0.8751842315686127
trait 2 0.5536765900446647 0 0.05791039810295628 0 0.015244226482277154 0.1355271363378809 0.22643950118804834 0
trait 3 0.0961787402078357 0.6044387889022205 0.0029907388423572674 0 0.2670973069885749 0 0.04691668373715821 1.0028215146184183
trait 4 0.38422644304532555 0.15862671443260323 0 0 0 0 0.1404914287112318 0.4381819052430307
node 1 1 1 3 SigmoidSteepenedActivation
node 2 1 0 2 SigmoidSteepenedActivation
node 3 1 0 2 SigmoidSteepenedActivation
node 4 1 0 2 SigmoidSteepenedActivation
node 5 1 0 2 SigmoidSteepenedActivation
node 6 1 1 1 SigmoidSteepenedActivation
node 7 1 1 1 SigmoidSteepenedActivation
node 8 1 1 1 SigmoidSteepenedActivation
node 9 1 1 1 SigmoidSteepenedActivation
node 10 1 1 1 SigmoidSteepenedActivation
node 11 1 1 1 SigmoidSteepenedActivation
node 12 3 1 1 SigmoidSteepenedActivation
node 13 1 1 1 SigmoidSteepenedActivation
node 53 1 0 0 SigmoidSteepenedActivation
node 158 1 0 0 SigmoidSteepenedActivation
node 199 1 0 0 SigmoidSteepenedActivation
node 458 1 0 0 SigmoidSteepenedActivation
node 1462 1 0 0 SigmoidSteepenedActivation
node 1472 1 0 0 SigmoidSteepenedActivation
node 1561 1 0 0 SigmoidSteepenedActivation
node 1563 1 0 0 SigmoidSteepenedActivation
node 1639 3 0 0 SigmoidSteepenedActivation
node 2013 1 0 0 SigmoidSteepenedActivation
node 2423 1 0 0 SigmoidSteepenedActivation
node 2981 1 0 0 SigmoidSteepenedActivation
node 3225 1 0 0 SigmoidSteepenedActivation
node 3397 1 0 0 SigmoidSteepenedActivation
node 3581 1 0 0 SigmoidSteepenedActivation
node 3665 1 0 0 SigmoidSteepenedActivation
node 4116 1 0 0 SigmoidSteepenedActivation
node 4211 1 0 0 SigmoidSteepenedActivation
node 4555 1 0 0 SigmoidSteepenedActivation
node 4745 1 0 0 SigmoidSteepenedActivation
node 4945 1 0 0 SigmoidSteepenedActivation
node 5228 1 0 0 SigmoidSteepenedActivation
node 5337 1 0 0 SigmoidSteepenedActivation
node 5710 1 0 0 SigmoidSteepenedActivation
node 5879 1 0 0 SigmoidSteepenedActivation
node 6494 1 0 0 SigmoidSteepenedActivation
node 6584 1 0 0 SigmoidSteepenedActivation
node 6661 1 0 0 SigmoidSteepenedActivation
node 6722 1 0 0 SigmoidSteepenedActivation
node 6776 1 0 0 SigmoidSteepenedActivation
node 7163 1 0 0 SigmoidSteepenedActivation
node 7452 1 0 0 SigmoidSteepenedActivation
node 7512 1 0 0 SigmoidSteepenedActivation
node 7659 1 0 0 SigmoidSteepenedActivation
node 7727 1 0 0 SigmoidSteepenedActivation
node 8012 1 0 0 SigmoidSteepenedActivation
node 8023 1 0 0 SigmoidSteepenedActivation
node 8118 1 0 0 SigmoidSteepenedActivation
node 8344 1 0 0 SigmoidSteepenedActivation
node 8452 1 0 0 SigmoidSteepenedActivation
node 8544 1 0 0 SigmoidSteepenedActivation
node 8629 1 0 0 SigmoidSteepenedActivation
node 8716 1 0 0 SigmoidSteepenedActivation
node 8763 1 0 0 SigmoidSteepenedActivation
node 9112 1 0 0 SigmoidSteepenedActivation
node 9165 1 0 0 SigmoidSteepenedActivation
node 9504 1 0 0 SigmoidSteepenedActivation
node 10461 1 0 0 SigmoidSteepenedActivation
node 10537 1 0 0 SigmoidSteepenedActivation
node 10786 1 0 0 SigmoidSteepenedActivation
node 10795 1 0 0 SigmoidSteepenedActivation
node 10885 1 0 0 SigmoidSteepenedActivation
node 11016 1 0 0 SigmoidSteepenedActivation
node 11084 1 0 0 SigmoidSteepenedActivation
node 11158 1 0 0 SigmoidSteepenedActivation
node 11206 1 0 0 SigmoidSteepenedActivation
node 11566 1 0 0 SigmoidSteepenedActivation
node 11679 1 0 0 SigmoidSteepenedActivation
node 11913 1 0 0 SigmoidSteepenedActivation
node 11981 1 0 0 SigmoidSteepenedActivation
node 12136 1 0 0 SigmoidSteepenedActivation
node 12265 1 0 0 SigmoidSteepenedActivation
node 12417 1 0 0 SigmoidSteepenedActivation
node 12518 1 0 0 SigmoidSteepenedActivation
node 12732 1 0 0 SigmoidSteepenedActivation
node 13055 1 0 0 SigmoidSteepenedActivation
node 13351 1 0 0 SigmoidSteepenedActivation
node 13580 1 0 0 SigmoidSteepenedActivation
node 13928 1 0 0 SigmoidSteepenedActivation
node 14086 1 0 0 SigmoidSteepenedActivation
node 14287 1 0 0 SigmoidSteepenedActivation
node 14680 1 0 0 SigmoidSteepenedActivation
node 14939 1 0 0 SigmoidSteepenedActivation
node 16126 1 0 0 SigmoidSteepenedActivation
node 17241 1 0 0 SigmoidSteepenedActivation
node 17923 1 0 0 SigmoidSteepenedActivation
node 18177 1 0 0 SigmoidSteepenedActivation
node 19170 1 0 0 SigmoidSteepenedActivation
gene 1 1 2 -0.14859726683699578 true 1 -0.14859726683699578 true
gene 2 1 3 -0.6290765634599063 true 2 -0.6290765634599063 true
gene 2 1 4 -2.1119747989341002 true 3 -2.1119747989341002 true
gene 4 1 5 -0.6657213862072668 true 4 -0.6657213862072668 true
gene 1 6 2 -4.376970128697433 true 1 -4.376970128697433 true
gene 2 6 3 -0.9340375763519746 true 2 -0.9340375763519746 true
gene 3 6 4 0.73719856932171 true 3 0.73719856932171 true
gene 4 6 5 -0.8771191334068225 true 4 -0.8771191334068225 true
gene 1 7 2 1.3876784367192627 true 1 1.3876784367192627 true
gene 2 7 3 2.8819025493927617 true 2 2.8819025493927617 true
gene 3 7 4 2.0375822925837435 true 3 2.0375822925837435 true
gene 4 7 5 1.1867485249579683 true 4 1.1867485249579683 true
gene 1 8 2 -0.4915870607149175 true 1 -0.4915870607149175 true
gene 2 8 3 1.9221588135832126 true 2 1.9221588135832126 true
gene 3 8 4 -0.6845099497939453 true 3 -0.6845099497939453 true
gene 4 8 5 2.5249629342764437 true 4 2.5249629342764437 true
gene 1 9 2 2.730841809199895 true 1 2.730841809199895 true
gene 2 9 3 0.07095287105839654 true 2 0.07095287105839654 true
gene 3 9 4 1.373792011191913 true 3 1.373792011191913 true
gene 4 9 5 3.4867642943551784 true 4 3.4867642943551784 true
gene 1 10 2 -4.149068132686773 true 1 -4.149068132686773 true
gene 2 10 3 2.4429448285345616 true 2 2.4429448285345616 true
gene 3 10 4 5.236083757844934 true 3 5.236083757844934 true
gene 4 10 5 -1.990463117428664 true 4 -1.990463117428664 true
gene 1 11 2 1.3476923108850962 true 1 1.3476923108850962 true
gene 2 11 3 0.8342617287822254 true 2 0.8342617287822254 true
gene 3 11 4 1.3917564449993147 true 3 1.3917564449993147 true
gene 4 11 5 0.6198837040588148 true 4 0.6198837040588148 true
gene 1 12 2 3.377150107052559 true 1 3.377150107052559 true
gene 2 12 3 -0.8754655538977577 true 2 -0.8754655538977577 true
gene 3 12 4 -1.8148855989435304 true 3 -1.8148855989435304 true
gene 4 12 5 0.40169528232227253 true 4 0.40169528232227253 true
gene 1 13 2 -0.4413871909614974 true 1 -0.4413871909614974 true
gene 2 13 3 0.25580266886533565 true 2 0.25580266886533565 true
gene 3 13 4 4.9706888781926075 true 3 4.9706888781926075 true
gene 4 13 5 -0.1393349121465267 true 4 -0.1393349121465267 true
gene 2 2 2 0.4639739611855142 true 11 0.4639739611855142 true
gene 1 9 53 1.8630352370383136 true 156 1.8630352370383136 true
gene 1 53 2 -1.0921198096127709 false 157 -1.0921198096127709 true
gene 1 3 3 0.5771573909858716 true 247 0.5771573909858716 true
gene 1 6 158 3.4775667932732 true 613 3.4775667932732 true
gene 3 158 4 2.549489107877985 false 614 2.549489107877985 true
gene 2 158 158 0.12486775631595178 true 965 0.12486775631595178 true
gene 1 6 4 -4.040952432908904 false 1147 -4.040952432908904 true
gene 1 2 4 2.5671876619995873 false 1329 2.5671876619995873 true
gene 4 13 53 0.2752635850171066 false 1735 0.2752635850171066 true
gene 2 5 53 -0.053031120452134234 false 2980 -0.053031120452134234 true
gene 3 5 5 0.09629540339928755 true 3058 0.09629540339928755 true
gene 4 4 4 -3.5042519964118473 true 3339 -3.5042519964118473 true
gene 2 2 53 -1.854883989493925 true 4245 -1.854883989493925 true
gene 3 8 3 1.9164067626518597 false 5051 1.9164067626518597 true
gene 3 53 53 0.45290177852957864 true 5057 0.45290177852957864 true
gene 1 9 199 2.7861833100445454 true 5211 2.7861833100445454 true
gene 1 199 2 -0.2744092705952761 false 5212 -0.2744092705952761 true
gene 3 10 199 0.30605362452317286 false 5443 0.30605362452317286 true
gene 2 4 158 0.5983401631801765 true 5852 0.5983401631801765 true
gene 3 10 458 -0.6456828646829746 false 6436 -0.6456828646829746 true
gene 3 458 199 2.2413777312032526 false 6437 2.2413777312032526 true
gene 1 4 53 -0.5495409813279803 true 6508 -0.5495409813279803 true
gene 3 458 458 -1.3450656840240134 true 6868 -1.3450656840240134 true
gene 2 4 458 0.7711895998700913 true 7367 0.7711895998700913 true
gene 4 199 458 -3.527071002578945 true 7848 -3.527071002578945 true
gene 2 458 2 -3.019370491298698 false 8095 -3.019370491298698 true
gene 3 199 5 -2.912981658774444 false 10371 -2.912981658774444 true
gene 2 199 199 1.8212325422636542 true 10711 1.8212325422636542 true
gene 1 13 158 2.8296409443843697 false 11328 2.8296409443843697 true
gene 1 5 199 2.269032215819893 true 11990 2.269032215819893 true
gene 2 6 1462 2.095547771230527 true 12148 2.095547771230527 true
gene 2 1462 3 -2.748357002370732 false 12149 -2.748357002370732 true
gene 2 158 1472 0.06544593951173218 true 12184 0.06544593951173218 true
gene 2 1472 158 1.6070101404186865 false 12185 1.6070101404186865 true
gene 4 4 1561 0.20966616264471735 true 12557 0.20966616264471735 true
gene 4 1561 4 2.25859776723534 false 12558 2.25859776723534 true
gene 3 12 3 2.176151815874272 false 12931 2.176151815874272 true
gene 2 458 1563 2.681345409092419 false 12936 2.681345409092419 true
gene 2 1563 2 -0.9383308104518971 false 12937 -0.9383308104518971 true
gene 4 1472 1472 1.0448848231983796 true 14570 1.0448848231983796 true
gene 2 6 1561 -6.848525055131778 false 14623 -6.848525055131778 true
gene 1 8 1639 3.558732515530947 true 14926 3.558732515530947 true
gene 1 1639 2 1.6998850708172328 false 14927 1.6998850708172328 true
gene 4 2 3 -0.12964263654288083 false 15370 -0.12964263654288083 true
gene 4 5 1563 7.144598933341818 false 15671 7.144598933341818 true
gene 3 458 2013 2.1964712366326866 false 16879 2.1964712366326866 true
gene 3 2013 199 -0.6154232206990704 false 16880 -0.6154232206990704 true
gene 2 2013 2013 -2.027665569435508 true 17118 -2.027665569435508 true
gene 4 199 3 -0.40676983765551433 false 17415 -0.40676983765551433 true
gene 3 5 4 -1.9828375010279147 false 18003 -1.9828375010279147 true
gene 4 1462 1462 1.8590057746350368 true 18233 1.8590057746350368 true
gene 3 7 1563 2.9600923220207385 false 19160 2.9600923220207385 true
gene 1 7 2423 -2.283906378096804 true 19247 -2.283906378096804 true
gene 1 2423 2 0.3846666677823066 false 19248 0.3846666677823066 true
gene 2 1561 53 0.8454436660921358 false 19812 0.8454436660921358 true
gene 1 1563 1563 0.041217211434795106 true 19887 0.041217211434795106 true
gene 4 8 458 -1.386945722387098 false 20786 -1.386945722387098 true
gene 3 1563 199 -1.2169934012710955 true 20827 -1.2169934012710955 true
gene 3 8 2423 -0.7790854914630252 false 20988 -0.7790854914630252 true
gene 3 1639 458 0.7254823421033103 false 21465 0.7254823421033103 true
gene 3 1472 2 -0.7516519074012591 false 22482 -0.7516519074012591 true
gene 1 11 158 -0.5503063379019133 false 23203 -0.5503063379019133 true
gene 3 1 458 -1.6510596608633972 false 23572 -1.6510596608633972 true
gene 3 10 2981 -1.8893669292001751 true 23963 -1.8893669292001751 true
gene 3 2981 4 -1.502502725395396 false 23964 -1.502502725395396 true
gene 2 3 1563 0.5061238304636766 true 24671 0.5061238304636766 true
gene 3 12 3225 1.5812124446665408 false 25322 1.5812124446665408 true
gene 3 3225 3 4.187801605221278 false 25323 4.187801605221278 true
gene 1 3225 3225 0.6243001539186337 true 25862 0.6243001539186337 true
gene 1 5 2 0.15409423392092275 false 26141 0.15409423392092275 true
gene 2 2 3397 -3.1891173385046065 true 26325 -3.1891173385046065 true
gene 2 3397 2 -1.1382882959194618 false 26326 -1.1382882959194618 true
gene 4 2013 1563 -0.21801853043829256 false 26967 -0.21801853043829256 true
gene 1 3397 3397 1.4250562591453377 true 26991 1.4250562591453377 true
gene 4 5 3581 0.1509074370019055 false 27965 0.1509074370019055 true
gene 4 3581 1563 -1.9048182103085933 false 27966 -1.9048182103085933 true
gene 2 158 3665 -1.8621173118111376 true 28470 -1.8621173118111376 true
gene 2 3665 1472 -0.8962478728210113 false 28471 -0.8962478728210113 true
gene 4 1563 3225 -8.964371484622905 false 28950 -8.964371484622905 true
gene 3 1639 1639 -0.6568533224166093 true 29073 -0.6568533224166093 true
gene 1 1561 1561 -5.872563702493363 true 29441 -5.872563702493363 true
gene 4 4 3 0.8870371472974972 false 29836 0.8870371472974972 true
gene 2 3665 3665 -0.7698292533523414 true 30194 -0.7698292533523414 true
gene 3 2013 1472 3.636365299263251 false 30637 3.636365299263251 true
gene 3 12 4116 0.4739609958399918 false 31047 0.4739609958399918 true
gene 3 4116 3225 0.28173285704231676 false 31048 0.28173285704231676 true
gene 1 199 4211 1.0023414407903046 false 31671 1.0023414407903046 true
gene 1 4211 2 1.9108628485947636 false 31672 1.9108628485947636 true
gene 4 4211 4211 3.346693523319803 true 32118 3.346693523319803 true
gene 2 12 1639 -1.026123368645882 false 33097 -1.026123368645882 true
gene 3 3581 3581 -0.47494727203634013 true 33444 -0.47494727203634013 true
gene 3 2981 2981 -0.9526652867977738 true 33795 -0.9526652867977738 true
gene 2 12 4555 3.4400474599373916 true 34024 3.4400474599373916 true
gene 2 4555 3 1.8305703159831959 false 34025 1.8305703159831959 true
gene 1 9 53 1.6166780869101234 false 34489 1.6166780869101234 true
gene 3 2013 4745 -2.650120500293192 false 35106 -2.650120500293192 true
gene 3 4745 1472 0.4723396730022263 false 35107 0.4723396730022263 true
gene 3 2981 4555 -6.15150043695405 false 35720 -6.15150043695405 true
gene 3 12 4945 1.4827110542281425 false 36308 1.4827110542281425 true
gene 3 4945 3225 0.9105542410827557 false 36309 0.9105542410827557 true
gene 3 4555 199 0.07338254954533373 false 37312 0.07338254954533373 true
gene 2 12 5228 1.0869086489353488 true 38057 1.0869086489353488 true
gene 2 5228 3 -1.3111438724229116 false 38058 -1.3111438724229116 true
gene 1 199 5337 0.320957520856266 false 38691 0.320957520856266 true
gene 1 5337 2 0.8749977918701155 false 38692 0.8749977918701155 true
gene 4 4555 4555 0.13490858239394363 true 39012 0.13490858239394363 true
gene 1 4745 4745 -0.4463382039946081 true 39552 -0.4463382039946081 true
gene 1 4555 3225 -0.7324353391297608 false 39741 -0.7324353391297608 true
gene 3 6 199 -5.42082044946101 false 39852 -5.42082044946101 true
gene 2 7 5710 -0.5378570412991434 true 41008 -0.5378570412991434 true
gene 2 5710 3 3.3356154605856583 false 41009 3.3356154605856583 true
gene 4 11 5 2.970103544706188 false 41468 2.970103544706188 true
gene 3 5 5879 0.8511938431301671 true 41968 0.8511938431301671 true
gene 3 5879 5 3.326313976478748 false 41969 3.326313976478748 true
gene 4 5337 5337 -0.32327504900406606 true 42225 -0.32327504900406606 true
gene 3 4116 4116 -1.585119490684555 true 42617 -1.585119490684555 true
gene 1 8 4 2.134259984125168 false 43136 2.134259984125168 true
gene 2 4555 5 -1.9544172587129218 false 43537 -1.9544172587129218 true
gene 1 3225 3397 2.0629318659420273 false 43891 2.0629318659420273 true
gene 3 2 2423 -0.7386696209850235 true 44542 -0.7386696209850235 true
gene 1 13 4 2.754350875471318 false 45660 2.754350875471318 true
gene 2 12 6494 -2.4572039691943495 true 45886 -2.4572039691943495 true
gene 2 6494 4555 1.530502783606167 false 45887 1.530502783606167 true
gene 3 6 6584 0.4711098846984717 false 46419 0.4711098846984717 true
gene 3 6584 199 -2.2247831939513247 false 46420 -2.2247831939513247 true
gene 4 9 6661 3.038787636022672 true 46966 3.038787636022672 true
gene 4 6661 5 1.0323533805535887 false 46967 1.0323533805535887 true
gene 2 13 6722 0.3191961100102078 true 47362 0.3191961100102078 true
gene 2 6722 3 -1.993221216986252 false 47363 -1.993221216986252 true
gene 3 6 6776 -2.4401953897480078 false 47745 -2.4401953897480078 true
gene 3 6776 6584 0.32104649255091033 false 47746 0.32104649255091033 true
gene 4 4945 6494 0.6756086850595919 false 48167 0.6756086850595919 true
gene 3 1563 2013 2.823602724596509 true 48402 2.823602724596509 true
gene 1 6722 6722 -3.2562051913437964 true 49260 -3.2562051913437964 true
gene 1 5710 5710 2.7200347710546344 true 49430 2.7200347710546344 true
gene 4 5 7163 0.39476422174956965 false 49974 0.39476422174956965 true
gene 4 7163 3581 -1.4423242520888127 false 49975 -1.4423242520888127 true
gene 2 5228 5228 0.8530066297415988 true 50301 0.8530066297415988 true
gene 3 6584 6584 -1.0333188260770358 true 50741 -1.0333188260770358 true
gene 1 1462 6494 1.8326919783549278 false 51469 1.8326919783549278 true
gene 3 1561 199 -0.8728947146003649 false 51660 -0.8728947146003649 true
gene 3 12 7452 -3.1057160389427922 false 51973 -3.1057160389427922 true
gene 3 7452 4116 1.6425228424893399 false 51974 1.6425228424893399 true
gene 4 9 7512 0.519264144167753 true 52335 0.519264144167753 true
gene 4 7512 6661 -0.6445826103075507 false 52336 -0.6445826103075507 true
gene 1 3225 7659 0.09073773635433177 true 53228 0.09073773635433177 true
gene 1 7659 3225 0.28498487177726645 false 53229 0.28498487177726645 true
gene 3 458 7727 1.6627715190198775 false 53627 1.6627715190198775 true
gene 3 7727 199 -1.3354377470599386 false 53628 -1.3354377470599386 true
gene 4 2 7512 3.816079643320144 true 54292 3.816079643320144 true
gene 1 7452 7452 -7.7815074711289896 true 54572 -7.7815074711289896 true
gene 4 7163 6722 0.8606011611277093 false 54931 0.8606011611277093 true
gene 2 1561 8012 0.33045451041820506 false 55309 0.33045451041820506 true
gene 2 8012 53 1.6115062709137367 false 55310 1.6115062709137367 true
gene 2 5337 5879 2.290328087299496 false 55959 2.290328087299496 true
gene 1 2423 1639 -2.4468372080155847 false 56671 -2.4468372080155847 true
gene 2 3581 5228 0.208132449241468 false 57081 0.208132449241468 true
gene 1 4945 4945 -1.4066051684942962 true 57182 -1.4066051684942962 true
gene 1 5337 8023 1.708304106261873 false 57245 1.708304106261873 true
gene 1 8023 2 -0.13271731817761512 false 57246 -0.13271731817761512 true
gene 1 9 8118 2.562210463307477 true 57768 2.562210463307477 true
gene 1 8118 53 6.551561967117976 false 57769 6.551561967117976 true
gene 4 1462 7727 -2.0651301270594438 false 58288 -2.0651301270594438 true
gene 3 6661 6661 0.6153926433572965 true 58517 0.6153926433572965 true
gene 4 11 8344 0.5432863903278393 true 59094 0.5432863903278393 true
gene 4 8344 5 -1.2960051728868875 false 59095 -1.2960051728868875 true
gene 1 9 8452 0.5802867375473156 true 59720 0.5802867375473156 true
gene 1 8452 2 -0.9405389567280287 false 59721 -0.9405389567280287 true
gene 1 9 8544 -1.3598877141730346 true 60236 -1.3598877141730346 true
gene 1 8544 2 -0.35464433397162753 false 60237 -0.35464433397162753 true
gene 2 12 8629 -0.034859607855358354 true 60747 -0.034859607855358354 true
gene 2 8629 6494 -1.5450843589353456 false 60748 -1.5450843589353456 true
gene 2 3 8716 1.8236711914456425 true 61245 1.8236711914456425 true
gene 2 8716 1563 -8.233853982118083 false 61246 -8.233853982118083 true
gene 2 5 8763 0.8233694667708515 false 61493 0.8233694667708515 true
gene 2 8763 53 -0.06207539540933604 false 61494 -0.06207539540933604 true
gene 4 8023 8023 0.20528249843208096 true 61856 0.20528249843208096 true
gene 3 5 9112 0.05945142779736412 true 63622 0.05945142779736412 true
gene 3 9112 5 -9.919911734707307 false 63623 -9.919911734707307 true
gene 2 7163 7163 -2.3780495052694666 true 64059 -2.3780495052694666 true
gene 4 4555 9165 -0.2594874961703405 true 64374 -0.2594874961703405 true
gene 4 9165 4555 1.3641856094197444 false 64375 1.3641856094197444 true
gene 3 5879 7512 0.41831420518470824 false 64911 0.41831420518470824 true
gene 4 8452 8452 -9.921722331881558 true 65927 -9.921722331881558 true
gene 4 7163 9504 -1.4137775869677818 false 66373 -1.4137775869677818 true
gene 4 9504 6722 -5.065043428325168 false 66374 -5.065043428325168 true
gene 4 8716 8716 0.15560525571302578 true 66861 0.15560525571302578 true
gene 4 8344 8344 -0.08483026718575137 true 67283 -0.08483026718575137 true
gene 3 6 7659 -3.7206928086328883 false 68066 -3.7206928086328883 true
gene 1 1472 3 -0.1272171836275951 false 69577 -0.1272171836275951 true
gene 3 7727 1472 -0.8361086670612208 false 70010 -0.8361086670612208 true
gene 4 6494 5710 0.28972371114931805 false 70572 0.28972371114931805 true
gene 2 9165 9165 -0.2979917121996887 true 70990 -0.2979917121996887 true
gene 1 4 10461 1.2764988052178297 true 71958 1.2764988052178297 true
gene 1 10461 53 -0.8822182700099698 false 71959 -0.8822182700099698 true
gene 2 2013 10537 -0.7565453334986368 true 72481 -0.7565453334986368 true
gene 2 10537 2013 -1.8838840560227956 false 72482 -1.8838840560227956 true
gene 3 2423 2423 0.33591192329122344 true 72902 0.33591192329122344 true
gene 2 4211 7163 0.40113696574425506 false 73379 0.40113696574425506 true
gene 1 6 10786 1.229615488448129 true 73984 1.229615488448129 true
gene 1 10786 2 -3.401120510862249 false 73985 -3.401120510862249 true
gene 2 3 9504 -1.0621028228184137 false 74454 -1.0621028228184137 true
gene 2 7 10795 0.9792388836524715 true 74499 0.9792388836524715 true
gene 2 10795 3 0.25650285618349833 false 74500 0.25650285618349833 true
gene 4 1462 10885 -0.6192320675849304 false 75056 -0.6192320675849304 true
gene 4 10885 7727 0.13106866572496578 false 75057 0.13106866572496578 true
gene 1 9 11016 -0.14965778330511803 true 75882 -0.14965778330511803 true
gene 1 11016 8118 0.756327371975044 false 75883 0.756327371975044 true
gene 1 8118 199 -0.4330904724646767 false 76881 -0.4330904724646767 true
gene 1 7659 11084 1.1181585468954702 false 77280 1.1181585468954702 true
gene 1 11084 3225 1.3665038041612472 false 77281 1.3665038041612472 true
gene 4 11 11158 1.963914822947142 true 77728 1.963914822947142 true
gene 4 11158 8344 -0.23867811512148082 false 77729 -0.23867811512148082 true
gene 3 10 11206 0.07131355182678763 true 77973 0.07131355182678763 true
gene 3 11206 2981 -2.6991142955934366 false 77974 -2.6991142955934366 true
gene 4 5 3 0.316117087682155 false 78687 0.316117087682155 true
gene 3 3581 6722 -3.7348744906658613 false 79276 -3.7348744906658613 true
gene 4 8012 8012 -0.4203316780212767 true 79611 -0.4203316780212767 true
gene 4 10 11566 0.469986194266919 true 80058 0.469986194266919 true
gene 4 11566 5 -0.13272411818015226 false 80059 -0.13272411818015226 true
gene 2 6722 11679 0.7771842080201056 false 80706 0.7771842080201056 true
gene 2 11679 3 -2.1747564024851123 false 80707 -2.1747564024851123 true
gene 2 3 8012 -0.42806550366772966 true 81075 -0.42806550366772966 true
gene 3 9 8118 -0.9517205445968355 false 81984 -0.9517205445968355 true
gene 3 4 1639 -3.5795458640749613 true 82413 -3.5795458640749613 true
gene 3 6776 6776 8.871568825959603 true 82853 8.871568825959603 true
gene 4 9 11913 0.8781662244931274 true 84322 0.8781662244931274 true
gene 4 11913 7512 0.48884342936605857 false 84323 0.48884342936605857 true
gene 2 7 11981 -0.24971636594503535 true 84723 -0.24971636594503535 true
gene 2 11981 3 1.2513179659803515 false 84724 1.2513179659803515 true
gene 2 9 12136 -1.6650625351830661 true 85709 -1.6650625351830661 true
gene 2 12136 3 0.8928827825851243 false 85710 0.8928827825851243 true
gene 3 12 12265 -0.5320409484171267 false 86545 -0.5320409484171267 true
gene 3 12265 4116 0.665464770479048 false 86546 0.665464770479048 true
gene 3 4945 12417 1.7179328969057968 false 87474 1.7179328969057968 true
gene 3 12417 3225 0.7560672004518227 false 87475 0.7560672004518227 true
gene 4 11158 12518 -1.8451289673846585 false 88181 -1.8451289673846585 true
gene 4 12518 8344 -0.08902668314575034 false 88182 -0.08902668314575034 true
gene 2 6494 12732 -0.10650120615103746 false 89379 -0.10650120615103746 true
gene 2 12732 4555 0.6598352987035871 false 89380 0.6598352987035871 true
gene 4 8452 3397 -1.1632522816447883 false 90319 -1.1632522816447883 true
gene 1 12518 12518 1.389817150405822 true 90524 1.389817150405822 true
gene 3 1639 13055 -1.1376273679526205 true 91404 -1.1376273679526205 true
gene 3 13055 1639 -1.1895726495098695 false 91405 -1.1895726495098695 true
gene 1 11 13351 1.3032723102576371 false 93190 1.3032723102576371 true
gene 1 13351 158 -0.7870316989327365 false 93191 -0.7870316989327365 true
gene 4 11 13580 -0.43133446920419233 true 94468 -0.43133446920419233 true
gene 4 13580 8344 0.6239736518828505 false 94469 0.6239736518828505 true
gene 2 53 2013 -4.9953616131764 true 95329 -4.9953616131764 true
gene 1 3397 2013 -1.8462232215230316 true 95776 -1.8462232215230316 true
gene 3 7452 13928 1.1269515498277807 false 96621 1.1269515498277807 true
gene 3 13928 4116 1.2347400779133382 false 96622 1.2347400779133382 true
gene 3 8 14086 0.6277699640350752 true 97577 0.6277699640350752 true
gene 3 14086 4 -0.8937778760904809 false 97578 -0.8937778760904809 true
gene 3 12 14287 0.2002392008808351 false 98775 0.2002392008808351 true
gene 3 14287 4945 -0.21467160787360795 false 98776 -0.21467160787360795 true
gene 2 12 6584 -0.8170031911994519 false 99653 -0.8170031911994519 true
gene 1 12732 12732 -0.1514721693690676 true 100065 -0.1514721693690676 true
gene 3 2013 14680 -0.5039506990000477 false 101208 -0.5039506990000477 true
gene 3 14680 1472 0.3138130738464243 false 101209 0.3138130738464243 true
gene 2 13 1563 -2.0397215508708206 false 101926 -2.0397215508708206 true
gene 2 14287 14287 -6.128286422269774 true 102393 -6.128286422269774 true
gene 3 1639 9165 3.5772764712462415 false 102835 3.5772764712462415 true
gene 4 9 14939 0.407206287950751 true 103441 0.407206287950751 true
gene 4 14939 7512 0.62040614176715 false 103442 0.62040614176715 true
gene 1 8629 10885 -1.3702809049014446 false 104052 -1.3702809049014446 true
gene 3 10795 9112 1.4233673275089778 false 104822 1.4233673275089778 true
gene 2 9112 3397 8.167112040150496 false 106048 8.167112040150496 true
gene 1 9112 11981 4.094417017529844 false 106514 4.094417017529844 true
gene 1 3225 12265 -7.945504350966206 true 106955 -7.945504350966206 true
gene 3 14680 8763 6.035407524132882 false 107714 6.035407524132882 true
gene 3 11981 11566 3.8551399240540722 false 108038 3.8551399240540722 true
gene 4 8763 8763 -0.4708364263700659 true 108811 -0.4708364263700659 true
gene 1 9112 9112 8.857393446669768 true 109302 8.857393446669768 true
gene 1 1462 7659 -1.5495713503674677 false 109738 -1.5495713503674677 true
gene 3 5 16126 0.6790924189192424 true 110476 0.6790924189192424 true
gene 3 16126 9112 0.08583795832765462 false 110477 0.08583795832765462 true
gene 4 16126 10786 -3.7795416033919045 false 111040 -3.7795416033919045 true
gene 3 7163 7659 2.596833331993408 false 111288 2.596833331993408 true
gene 1 7727 14086 6.043547255148183 false 112014 6.043547255148183 true
gene 3 11158 11158 7.538258737195092 true 112339 1.7399486417918184 true
gene 3 14680 7659 8.109934640308275 false 113221 8.109934640308275 true
gene 1 6584 4745 2.5911886079619912 false 114793 2.5911886079619912 true
gene 3 11981 11981 -7.582010093378541 true 114943 -1.3046588291851255 true
gene 2 14680 14680 3.5718791172122186 true 115434 0.9294064591536038 true
gene 4 10461 10461 -4.602597208958649 true 115781 -2.914217643266194 true
gene 1 2 9112 -5.995538625176172 true 116404 -5.995538625176172 true
gene 1 3 10537 -5.8041621083706385 true 116767 -5.8041621083706385 true
gene 3 7452 17241 0.717039872804335 false 117405 -0.032960127195664934 true
gene 3 17241 13928 1.2085101223771413 false 117406 0.3879665598459202 true
gene 4 10795 10795 -9.24631336879264 true 117562 -2.0218182402418337 true
gene 3 9112 10795 3.159948948122548 true 118607 3.159948948122548 true
gene 1 8629 158 3.9977954481378952 false 120272 3.9977954481378952 true
gene 4 11084 11084 8.454660152355288 true 120612 2.2345409622198624 true
gene 1 7659 17923 1.430187412363138 false 121389 0.680187412363138 true
gene 1 17923 11084 0.785756173965291 false 121390 0.2010701416253664 true
gene 3 9112 7163 -1.1582297621139732 false 122220 -1.1582297621139732 true
gene 1 4745 18177 0.04386644426235886 true 122960 -0.33113355573764114 true
gene 1 18177 4745 0.2770946975042864 false 122961 0.04901062506452253 true
gene 1 3397 6584 -7.456455787785698 true 123199 -7.456455787785698 true
gene 1 11084 10885 -5.216579397172875 true 123383 -5.216579397172875 true
gene 2 13928 13928 -6.0222701745672245 true 123830 -6.0222701745672245 true
gene 4 8763 5228 -8.483134634888048 false 124419 -8.483134634888048 true
gene 3 14086 13351 -2.1142282575335942 false 124718 -2.1142282575335942 true
gene 3 1563 17923 -6.9724860292088655 false 125454 -6.9724860292088655 true
gene 2 11566 11566 2.8020238418375767 true 125596 0 true
gene 1 7659 7659 -1.019284950422862 true 127060 0 true
gene 3 7512 7512 1.6084287403562891 true 127447 0.08285903463170774 true
gene 2 11679 11679 -5.29995996154936 true 127856 0 true
gene 1 5228 8763 -5.880154560284195 true 128344 -5.880154560284195 true
gene 4 4555 19170 1 true 128797 0.21875 true
gene 4 19170 4555 -0.6910921942850987 false 128798 -0.7585464854820705 true
gene 1 12136 10537 -7.737614023389191 false 129658 -7.737614023389191 true
gene 4 10795 17923 3.7663543785736167 false 131079 3.7663543785736167 true
gene 4 12136 12136 7.586674460833921 true 131986 0 true
gene 4 6722 8118 -1.4108491171727209 true 133020 -1.4108491171727209 true
gene 3 2 7727 -7.542929129457869 true 133461 -7.542929129457869 true
gene 2 5879 5879 4.560799042562705 true 133841 4.560799042562705 true
gene 4 13580 13580 3.0420154904021164 true 134278 3.0420154904021164 true
gene 1 3225 11566 3.2146489211901974 true 134705 3.2146489211901974 true
gene 4 7727 14939 5.344548395186671 false 135139 5.344548395186671 true
gene 2 17241 17241 5.909540153167111 true 135490 0 true
gene 1 8716 14287 5.929812030051176 false 135986 5.929812030051176 true
genomeend 57