/* Species #9205 : (Size 1) (AF 0.744) (Age 1)  */
/* Organism #892 Fitness: 0.744 Error: 0.256 */
genomestart 892
trait 1 0.05 0 0 0.1199775191520332 0 0 0.10697483240978914 0.8751842315686127
trait 2 0.2 0 0 0 0.015244226482277154 0.1355271363378809 0.4270987084077768 0
trait 3 0.2943481387923482 0.6139800951132568 0.0029907388423572674 0 0.28030839052115186 0 0.07368509838473927 0.4377034200978533
trait 4 0.4 0 0 0 0 0 0 0
node 1 1 1 3 SigmoidSteepenedActivation
node 2 1 0 2 SigmoidSteepenedActivation
node 3 1 0 2 SigmoidSteepenedActivation
node 4 1 0 2 SigmoidSteepenedActivation
node 5 1 0 2 SigmoidSteepenedActivation
node 6 1 1 1 SigmoidSteepenedActivation
node 7 1 1 1 SigmoidSteepenedActivation
node 8 1 1 1 SigmoidSteepenedActivation
node 9 1 1 1 SigmoidSteepenedActivation
node 10 1 1 1 SigmoidSteepenedActivation
node 11 1 1 1 SigmoidSteepenedActivation
node 12 3 1 1 SigmoidSteepenedActivation
node 13 1 1 1 SigmoidSteepenedActivation
node 53 1 0 0 SigmoidSteepenedActivation
node 158 1 0 0 SigmoidSteepenedActivation
node 199 1 0 0 SigmoidSteepenedActivation
node 458 1 0 0 SigmoidSteepenedActivation
node 1462 1 0 0 SigmoidSteepenedActivation
node 1472 1 0 0 SigmoidSteepenedActivation
node 1561 1 0 0 SigmoidSteepenedActivation
node 1563 1 0 0 SigmoidSteepenedActivation
node 1639 1 0 0 SigmoidSteepenedActivation
node 2013 1 0 0 SigmoidSteepenedActivation
node 2423 1 0 0 SigmoidSteepenedActivation
node 2981 1 0 0 SigmoidSteepenedActivation
node 3225 1 0 0 SigmoidSteepenedActivation
node 3397 1 0 0 SigmoidSteepenedActivation
node 3581 1 0 0 SigmoidSteepenedActivation
node 3665 1 0 0 SigmoidSteepenedActivation
node 4116 1 0 0 SigmoidSteepenedActivation
node 4211 1 0 0 SigmoidSteepenedActivation
node 4555 1 0 0 SigmoidSteepenedActivation
node 4745 1 0 0 SigmoidSteepenedActivation
node 4945 1 0 0 SigmoidSteepenedActivation
node 5228 1 0 0 SigmoidSteepenedActivation
node 5337 1 0 0 SigmoidSteepenedActivation
node 5710 1 0 0 SigmoidSteepenedActivation
node 5879 1 0 0 SigmoidSteepenedActivation
node 6494 1 0 0 SigmoidSteepenedActivation
node 6584 1 0 0 SigmoidSteepenedActivation
node 6661 1 0 0 SigmoidSteepenedActivation
node 6722 1 0 0 SigmoidSteepenedActivation
node 6776 1 0 0 SigmoidSteepenedActivation
node 7163 1 0 0 SigmoidSteepenedActivation
node 7452 1 0 0 SigmoidSteepenedActivation
node 7512 1 0 0 SigmoidSteepenedActivation
node 7659 1 0 0 SigmoidSteepenedActivation
node 7727 1 0 0 SigmoidSteepenedActivation
node 8012 1 0 0 SigmoidSteepenedActivation
node 8023 1 0 0 SigmoidSteepenedActivation
node 8118 1 0 0 SigmoidSteepenedActivation
node 8344 1 0 0 SigmoidSteepenedActivation
node 8452 1 0 0 SigmoidSteepenedActivation
node 8544 1 0 0 SigmoidSteepenedActivation
node 8629 1 0 0 SigmoidSteepenedActivation
node 8716 1 0 0 SigmoidSteepenedActivation
node 8763 1 0 0 SigmoidSteepenedActivation
node 9112 1 0 0 SigmoidSteepenedActivation
node 9165 1 0 0 SigmoidSteepenedActivation
node 9504 1 0 0 SigmoidSteepenedActivation
node 10461 1 0 0 SigmoidSteepenedActivation
node 10537 1 0 0 SigmoidSteepenedActivation
node 10786 1 0 0 SigmoidSteepenedActivation
node 10795 1 0 0 SigmoidSteepenedActivation
node 10885 1 0 0 SigmoidSteepenedActivation
node 11016 1 0 0 SigmoidSteepenedActivation
node 11084 1 0 0 SigmoidSteepenedActivation
node 11158 1 0 0 SigmoidSteepenedActivation
node 11206 1 0 0 SigmoidSteepenedActivation
node 11566 1 0 0 SigmoidSteepenedActivation
node 11679 1 0 0 SigmoidSteepenedActivation
node 11913 1 0 0 SigmoidSteepenedActivation
node 11981 1 0 0 SigmoidSteepenedActivation
node 12136 1 0 0 SigmoidSteepenedActivation
node 12265 1 0 0 SigmoidSteepenedActivation
node 12417 1 0 0 SigmoidSteepenedActivation
node 12518 1 0 0 SigmoidSteepenedActivation
node 12732 1 0 0 SigmoidSteepenedActivation
node 13055 1 0 0 SigmoidSteepenedActivation
node 13351 1 0 0 SigmoidSteepenedActivation
node 13580 1 0 0 SigmoidSteepenedActivation
node 13928 1 0 0 SigmoidSteepenedActivation
node 14086 1 0 0 SigmoidSteepenedActivation
node 14287 1 0 0 SigmoidSteepenedActivation
node 14680 1 0 0 SigmoidSteepenedActivation
node 14861 1 0 0 SigmoidSteepenedActivation
node 15877 1 0 0 SigmoidSteepenedActivation
node 16107 1 0 0 SigmoidSteepenedActivation
node 16209 1 0 0 SigmoidSteepenedActivation
gene 1 1 2 0.7839803531586899 true 1 0.7839803531586899 true
gene 2 1 3 -0.13967070375076474 true 2 -0.13967070375076474 true
gene 2 1 4 -2.4440128324029615 true 3 -2.4440128324029615 true
gene 4 1 5 -1.4288531105526499 true 4 -1.4288531105526499 true
gene 1 6 2 -3.775690614869417 true 1 -3.775690614869417 true
gene 2 6 3 -0.85703789817187 true 2 -0.85703789817187 true
gene 3 6 4 0.3417372979550587 true 3 0.3417372979550587 true
gene 4 6 5 -0.049817941115509745 true 4 -0.049817941115509745 true
gene 1 7 2 1.0973971679955241 true 1 1.0973971679955241 true
gene 2 7 3 2.71499066267835 true 2 2.71499066267835 true
gene 3 7 4 1.9971972169471504 true 3 1.9971972169471504 true
gene 4 7 5 0.4659809918929017 true 4 0.4659809918929017 true
gene 1 8 2 -0.256146369160013 true 1 -0.256146369160013 true
gene 2 8 3 2.1071287236868157 true 2 2.1071287236868157 true
gene 3 8 4 -0.40797781654702947 true 3 -0.40797781654702947 true
gene 4 8 5 2.5333488590895334 true 4 2.5333488590895334 true
gene 1 9 2 3.2426720385906553 true 1 3.2426720385906553 true
gene 2 9 3 0.3379879265779083 true 2 0.3379879265779083 true
gene 3 9 4 2.269406143915738 true 3 2.269406143915738 true
gene 4 9 5 3.200782309727484 true 4 3.200782309727484 true
gene 1 10 2 -3.167895511938224 true 1 -3.167895511938224 true
gene 2 10 3 2.772268503232144 true 2 2.772268503232144 true
gene 3 10 4 4.561514221477424 true 3 4.561514221477424 true
gene 4 10 5 -2.6992154853274313 true 4 -2.6992154853274313 true
gene 1 11 2 0.5202580600058797 true 1 0.5202580600058797 true
gene 2 11 3 0.7936990783818214 true 2 0.7936990783818214 true
gene 3 11 4 1.5801590065802475 true 3 1.5801590065802475 true
gene 4 11 5 0.8852583256108378 true 4 0.8852583256108378 true
gene 1 12 2 4.151059127009012 true 1 4.151059127009012 true
gene 2 12 3 -0.3410177536288951 true 2 -0.3410177536288951 true
gene 3 12 4 -2.0867963537368706 true 3 -2.0867963537368706 true
gene 4 12 5 0.3577435797687145 true 4 0.3577435797687145 true
gene 1 13 2 -0.9867900122284371 true 1 -0.9867900122284371 true
gene 2 13 3 0.04567035887264975 true 2 0.04567035887264975 true
gene 3 13 4 3.232774650541095 true 3 3.232774650541095 true
gene 4 13 5 -0.7969436565592252 true 4 -0.7969436565592252 false
gene 2 2 2 0.9168477742961372 true 11 0.9168477742961372 true
gene 1 9 53 3.262121893553003 true 156 3.262121893553003 true
gene 1 53 2 -0.887791503728996 false 157 -0.887791503728996 true
gene 1 3 3 0.13569897167737865 true 247 0.13569897167737865 true
gene 1 6 158 2.821806110880239 true 613 2.821806110880239 true
gene 3 158 4 2.321637992383374 false 614 2.321637992383374 true
gene 2 158 158 -0.2889694618160274 true 965 -0.2889694618160274 true
gene 1 6 4 -5.2591301131651855 false 1147 -5.2591301131651855 true
gene 1 2 4 2.207442243290735 false 1329 2.207442243290735 true
gene 4 13 53 -0.09568564533165191 false 1735 -0.09568564533165191 true
gene 2 5 53 -1.1894943786115573 false 2980 -1.1894943786115573 true
gene 3 5 5 -1.9190611788675682 true 3058 -1.9190611788675682 true
gene 4 4 4 -4.982572471017289 true 3339 -4.982572471017289 true
gene 2 2 53 -2.2169985806777306 true 4245 -2.2169985806777306 true
gene 3 8 3 2.0043643072825565 false 5051 2.0043643072825565 true
gene 3 53 53 0.3467270936959248 true 5057 0.3467270936959248 true
gene 1 9 199 1.581297507205193 true 5211 1.581297507205193 true
gene 1 199 2 -0.8520780311949646 false 5212 -0.8520780311949646 true
gene 3 10 199 1.2374726353298517 false 5443 1.2374726353298517 true
gene 2 4 158 1.7276457646664292 true 5852 1.7276457646664292 true
gene 3 10 458 -0.3039694463475637 false 6436 -0.3039694463475637 true
gene 3 458 199 2.8384419650669837 false 6437 2.8384419650669837 true
gene 1 4 53 0.06295943104641133 true 6508 0.06295943104641133 true
gene 3 458 458 -0.8814572884152827 true 6868 -0.8814572884152827 true
gene 2 4 458 1.839696157995092 true 7367 1.839696157995092 true
gene 4 199 458 -3.8310000468010927 true 7848 -3.8310000468010927 true
gene 2 458 2 -2.573411086128582 false 8095 -2.573411086128582 true
gene 3 199 5 -3.1429051641994965 false 10371 -3.1429051641994965 true
gene 2 199 199 1.2710858709924713 true 10711 1.2710858709924713 true
gene 1 13 158 2.391079237142645 false 11328 2.391079237142645 true
gene 1 5 199 1.3462936033684807 true 11990 1.3462936033684807 true
gene 2 6 1462 1.206250898802884 true 12148 1.206250898802884 true
gene 2 1462 3 -2.686495420869764 false 12149 -2.686495420869764 true
gene 2 158 1472 0.2882594398742083 true 12184 0.2882594398742083 true
gene 2 1472 158 2.4836184067814084 false 12185 2.4836184067814084 true
gene 4 4 1561 0.16465424878927948 true 12557 0.16465424878927948 true
gene 4 1561 4 1.7014881483141622 false 12558 1.7014881483141622 true
gene 3 12 3 1.8833454484532606 false 12931 1.8833454484532606 true
gene 2 458 1563 3.7330644329915277 false 12936 3.7330644329915277 true
gene 2 1563 2 -0.2896026113866291 false 12937 -0.2896026113866291 true
gene 4 1472 1472 1.712156573939168 true 14570 1.712156573939168 true
gene 2 6 1561 -6.704275328874602 false 14623 -6.704275328874602 true
gene 1 8 1639 3.394286081707096 true 14926 3.394286081707096 true
gene 1 1639 2 0.8922087720203341 false 14927 0.8922087720203341 true
gene 4 2 3 -0.4192866534252716 false 15370 -0.4192866534252716 true
gene 4 5 1563 7.749330847220009 false 15671 7.749330847220009 true
gene 3 458 2013 1.7055006957966992 false 16879 1.7055006957966992 true
gene 3 2013 199 0.18458523692202777 false 16880 0.18458523692202777 true
gene 2 2013 2013 -2.123797778669335 true 17118 -2.123797778669335 true
gene 4 199 3 -0.15414886334471845 false 17415 -0.15414886334471845 true
gene 3 5 4 -0.918589435050446 false 18003 -0.918589435050446 true
gene 4 1462 1462 1.3731398927640517 true 18233 1.3731398927640517 true
gene 3 7 1563 3.5205736369834284 false 19160 3.5205736369834284 true
gene 1 7 2423 -2.527696960580843 true 19247 -2.527696960580843 true
gene 1 2423 2 0.3897581111290459 false 19248 0.3897581111290459 true
gene 2 1561 53 1.257575282842899 false 19812 1.257575282842899 true
gene 1 1563 1563 0.5402818945968105 true 19887 0.5402818945968105 true
gene 4 8 458 -1.1411197360510061 false 20786 -1.1411197360510061 true
gene 3 1563 199 -1.3821966410956215 true 20827 -1.3821966410956215 true
gene 3 8 2423 -0.09330011180500808 false 20988 -0.09330011180500808 true
gene 3 1639 458 0.7685537150786175 false 21465 0.7685537150786175 true
gene 3 1472 2 -0.5309027425248376 false 22482 -0.5309027425248376 true
gene 1 11 158 -1.3339472367883032 false 23203 -1.3339472367883032 true
gene 3 1 458 -0.5962170159103506 false 23572 -0.5962170159103506 true
gene 3 10 2981 -1.8334421321791727 true 23963 -1.8334421321791727 true
gene 3 2981 4 -1.789021288504799 false 23964 -1.789021288504799 true
gene 2 3 1563 0.7164310973088475 true 24671 0.7164310973088475 true
gene 3 12 3225 1.6766545661404848 false 25322 1.6766545661404848 true
gene 3 3225 3 4.862427794609702 false 25323 4.862427794609702 true
gene 1 3225 3225 0.9478053915804813 true 25862 0.9478053915804813 true
gene 1 5 2 -1.067557199005991 false 26141 -1.067557199005991 true
gene 2 2 3397 -3.001182218532518 true 26325 -3.001182218532518 true
gene 2 3397 2 0.16744408753323825 false 26326 0.16744408753323825 true
gene 4 2013 1563 0.05878531802925563 false 26967 0.05878531802925563 true
gene 1 3397 3397 0.9808493078237521 true 26991 0.9808493078237521 true
gene 4 5 3581 0.17588636343276826 false 27965 0.17588636343276826 true
gene 4 3581 1563 -2.3489068209298605 false 27966 -2.3489068209298605 true
gene 2 158 3665 -1.5567184273653007 true 28470 -1.5567184273653007 true
gene 2 3665 1472 -0.33404445910731195 false 28471 -0.33404445910731195 true
gene 4 1563 3225 -9.472287146751572 false 28950 -9.472287146751572 true
gene 3 1639 1639 -0.7673802784559852 true 29073 -0.7673802784559852 true
gene 1 1561 1561 -5.512329921636597 true 29441 -5.512329921636597 true
gene 4 4 3 0.6703641232810766 false 29836 0.6703641232810766 true
gene 2 3665 3665 -0.7228870400386609 true 30194 -0.7228870400386609 true
gene 3 2013 1472 3.2948307157585344 false 30637 3.2948307157585344 true
gene 3 12 4116 0.8318114103575546 false 31047 0.8318114103575546 true
gene 3 4116 3225 -0.10529849467903218 false 31048 -0.10529849467903218 true
gene 1 199 4211 1.1374079936820554 false 31671 1.1374079936820554 true
gene 1 4211 2 2.32168075432009 false 31672 2.32168075432009 true
gene 4 4211 4211 2.625322322190882 true 32118 2.625322322190882 true
gene 2 12 1639 -0.11831280791705362 false 33097 -0.11831280791705362 true
gene 3 3581 3581 -1.1637441316736052 true 33444 -1.1637441316736052 true
gene 3 2981 2981 -1.1358618122844952 true 33795 -1.1358618122844952 true
gene 2 12 4555 3.053440345522325 true 34024 3.053440345522325 true
gene 2 4555 3 3.001281217868685 false 34025 3.001281217868685 true
gene 1 9 53 1.5078338016513775 false 34489 1.5078338016513775 true
gene 3 2013 4745 -1.998745991720272 false 35106 -1.998745991720272 true
gene 3 4745 1472 0.7231001537479324 false 35107 0.7231001537479324 true
gene 3 2981 4555 -5.777036579048613 false 35720 -5.777036579048613 true
gene 3 12 4945 1.314649140521015 false 36308 1.314649140521015 true
gene 3 4945 3225 0.85963428179336 false 36309 0.85963428179336 true
gene 3 4555 199 0.5190791636797686 false 37312 0.5190791636797686 true
gene 2 12 5228 0.6450001334030175 true 38057 0.6450001334030175 true
gene 2 5228 3 -1.6791539279221173 false 38058 -1.6791539279221173 true
gene 1 199 5337 1.1075820801674545 false 38691 1.1075820801674545 true
gene 1 5337 2 0.156302703729843 false 38692 0.156302703729843 true
gene 4 4555 4555 0.1805251606007649 true 39012 0.1805251606007649 true
gene 1 4745 4745 0.01733765220409865 true 39552 0.01733765220409865 true
gene 1 4555 3225 -0.12352122281477113 false 39741 -0.12352122281477113 true
gene 3 6 199 -8.40553194306074 false 39852 -8.40553194306074 true
gene 2 7 5710 -0.30065163543449247 true 41008 -0.30065163543449247 true
gene 2 5710 3 3.539830728142457 false 41009 3.539830728142457 true
gene 4 11 5 3.5456020774404156 false 41468 3.5456020774404156 true
gene 3 5 5879 1.1817367694492713 true 41968 1.1817367694492713 true
gene 3 5879 5 1.988772162344811 false 41969 1.988772162344811 true
gene 4 5337 5337 -0.5561154621600634 true 42225 -0.5561154621600634 true
gene 3 4116 4116 -1.4818663266381662 true 42617 -1.4818663266381662 true
gene 1 8 4 2.7028826235212007 false 43136 2.7028826235212007 true
gene 2 4555 5 -1.8320337645176399 false 43537 -1.8320337645176399 true
gene 1 3225 3397 2.6042391930462707 false 43891 2.6042391930462707 true
gene 3 2 2423 -1.3228873468205393 true 44542 -1.3228873468205393 true
gene 1 13 4 2.3960620224201223 false 45660 2.3960620224201223 true
gene 2 12 6494 -1.5151374948329581 true 45886 -1.5151374948329581 true
gene 2 6494 4555 1.0038055099947876 false 45887 1.0038055099947876 true
gene 3 6 6584 1.0353540270871058 false 46419 1.0353540270871058 true
gene 3 6584 199 -3.5786186514302574 false 46420 -3.5786186514302574 true
gene 4 9 6661 3.6767613899020537 true 46966 3.6767613899020537 true
gene 4 6661 5 0.8712030478232935 false 46967 0.8712030478232935 true
gene 2 13 6722 0.7079000416124116 true 47362 0.7079000416124116 true
gene 2 6722 3 -2.8536331516714784 false 47363 -2.8536331516714784 true
gene 3 6 6776 -1.5215245381562597 false 47745 -1.5215245381562597 true
gene 3 6776 6584 0.7492198281322285 false 47746 0.7492198281322285 true
gene 4 4945 6494 0.35478858796087587 false 48167 0.35478858796087587 true
gene 3 1563 2013 3.2057692269412614 true 48402 3.2057692269412614 true
gene 1 6722 6722 -3.5903871452657885 true 49260 -3.5903871452657885 true
gene 1 5710 5710 3.485927382363493 true 49430 3.485927382363493 true
gene 4 5 7163 0.06670605588501022 false 49974 0.06670605588501022 true
gene 4 7163 3581 -0.7232953246486717 false 49975 -0.7232953246486717 true
gene 2 5228 5228 0.217688169158595 true 50301 0.217688169158595 true
gene 3 6584 6584 -1.0475940045918115 true 50741 -1.0475940045918115 true
gene 1 1462 6494 3.1761895264013984 false 51469 3.1761895264013984 true
gene 3 1561 199 -1.1380805264891627 false 51660 -1.1380805264891627 true
gene 3 12 7452 -3.580506440388685 false 51973 -3.580506440388685 true
gene 3 7452 4116 1.0278574653775 false 51974 1.0278574653775 true
gene 4 9 7512 1.349478038309286 true 52335 1.349478038309286 true
gene 4 7512 6661 -0.7970420455924432 false 52336 -0.7970420455924432 true
gene 1 3225 7659 0.9949400551822842 true 53228 0.9949400551822842 true
gene 1 7659 3225 0.42915888101600663 false 53229 0.42915888101600663 true
gene 3 458 7727 1.559882746690429 false 53627 1.559882746690429 true
gene 3 7727 199 -1.2643615604887155 false 53628 -1.2643615604887155 true
gene 4 2 7512 3.7279401757063626 true 54292 3.7279401757063626 true
gene 1 7452 7452 -7.224893134257889 true 54572 -7.224893134257889 true
gene 4 7163 6722 0.5530904609461657 false 54931 0.5530904609461657 true
gene 2 1561 8012 0.004095557967089131 false 55309 0.004095557967089131 true
gene 2 8012 53 1.1492355574805857 false 55310 1.1492355574805857 true
gene 2 5337 5879 1.4202652534598275 false 55959 1.4202652534598275 true
gene 1 2423 1639 -1.809234376778666 false 56671 -1.809234376778666 true
gene 2 3581 5228 0.8756872900914737 false 57081 0.8756872900914737 true
gene 1 4945 4945 -0.821580499255352 true 57182 -0.821580499255352 true
gene 1 5337 8023 1.590148724242878 false 57245 1.590148724242878 true
gene 1 8023 2 -0.304708459505586 false 57246 -0.304708459505586 true
gene 1 9 8118 2.9815250463407263 true 57768 2.9815250463407263 true
gene 1 8118 53 6.7988037074526835 false 57769 6.7988037074526835 true
gene 4 1462 7727 -2.0997425633332414 false 58288 -2.0997425633332414 true
gene 3 6661 6661 0.7497443375768318 true 58517 0.7497443375768318 true
gene 4 11 8344 0.9584728526550454 true 59094 0.9584728526550454 true
gene 4 8344 5 -1.4105591625874054 false 59095 -1.4105591625874054 true
gene 1 9 8452 0.6818724223502635 true 59720 0.6818724223502635 true
gene 1 8452 2 -1.4728844163428383 false 59721 -1.4728844163428383 true
gene 1 9 8544 -1.542044882889535 true 60236 -1.542044882889535 true
gene 1 8544 2 0.6389667793416973 false 60237 0.6389667793416973 true
gene 2 12 8629 -0.7055278143331806 true 60747 -0.7055278143331806 true
gene 2 8629 6494 -1.8714346261852648 false 60748 -1.8714346261852648 true
gene 2 3 8716 1.4705515816642887 true 61245 1.4705515816642887 true
gene 2 8716 1563 -8.51915076852848 false 61246 -8.51915076852848 true
gene 2 5 8763 0.47268027539550095 false 61493 0.47268027539550095 true
gene 2 8763 53 -0.4766697929386814 false 61494 -0.4766697929386814 true
gene 4 8023 8023 -0.22067830043350073 true 61856 -0.22067830043350073 true
gene 3 5 9112 0.2769512978406567 true 63622 0.2769512978406567 true
gene 3 9112 5 -9.928452483107332 false 63623 -9.928452483107332 true
gene 2 7163 7163 -2.1022114149420723 true 64059 -2.1022114149420723 true
gene 4 4555 9165 -0.029566889703908528 true 64374 -0.029566889703908528 true
gene 4 9165 4555 1.5048650052806267 false 64375 1.5048650052806267 true
gene 3 5879 7512 0.5221918592770711 false 64911 0.5221918592770711 true
gene 4 8452 8452 -10.948893115719114 true 65927 -10.948893115719114 true
gene 4 7163 9504 -1.6725321999841172 false 66373 -1.6725321999841172 true
gene 4 9504 6722 -5.667077463571801 false 66374 -5.667077463571801 true
gene 4 8716 8716 1.2453568511154474 true 66861 1.2453568511154474 true
gene 4 8344 8344 -0.8914602193553547 true 67283 -0.8914602193553547 true
gene 3 6 7659 -3.6928068084984544 false 68066 -3.6928068084984544 true
gene 1 1472 3 -0.22632708370504961 false 69577 -0.22632708370504961 true
gene 3 7727 1472 0.30130161493876295 false 70010 0.30130161493876295 true
gene 4 6494 5710 0.42140068733974345 false 70572 0.42140068733974345 true
gene 2 9165 9165 -0.6448240211966403 true 70990 -0.6448240211966403 true
gene 1 4 10461 2.3660568207234647 true 71958 2.3660568207234647 true
gene 1 10461 53 -0.3345016706116164 false 71959 -0.3345016706116164 true
gene 2 2013 10537 -0.8447920028793574 true 72481 -0.8447920028793574 true
gene 2 10537 2013 -2.443557921927406 false 72482 -2.443557921927406 true
gene 3 2423 2423 0.1431019019190063 true 72902 0.1431019019190063 true
gene 2 4211 7163 0.8437487145187509 false 73379 0.8437487145187509 true
gene 1 6 10786 0.841977215481865 true 73984 0.841977215481865 true
gene 1 10786 2 -3.62617821554844 false 73985 -3.62617821554844 true
gene 2 3 9504 -0.925037748516116 false 74454 -0.925037748516116 true
gene 2 7 10795 0.7246354450170676 true 74499 0.7246354450170676 true
gene 2 10795 3 -0.5218136684672443 false 74500 -0.5218136684672443 true
gene 4 1462 10885 -0.7765298895191804 false 75056 -0.7765298895191804 true
gene 4 10885 7727 -0.19212750015959285 false 75057 -0.19212750015959285 true
gene 1 9 11016 -1.1645742301896163 true 75882 -1.1645742301896163 true
gene 1 11016 8118 0.9574556679605458 false 75883 0.9574556679605458 true
gene 1 8118 199 0.45720054913322217 false 76881 0.45720054913322217 true
gene 1 7659 11084 1.2622603935911751 false 77280 1.2622603935911751 true
gene 1 11084 3225 0.7447056928376836 false 77281 0.7447056928376836 true
gene 4 11 11158 1.557337237827212 true 77728 1.557337237827212 true
gene 4 11158 8344 0.2957155972414959 false 77729 0.2957155972414959 true
gene 3 10 11206 0.45737943550090937 true 77973 0.45737943550090937 true
gene 3 11206 2981 -2.33296681243816 false 77974 -2.33296681243816 true
gene 4 5 3 0.8884057763382669 false 78687 0.8884057763382669 true
gene 3 3581 6722 -9.280567305716701 false 79276 -9.280567305716701 true
gene 4 8012 8012 -0.5163864140792781 true 79611 -0.5163864140792781 true
gene 4 10 11566 0.06838170935596773 true 80058 0.06838170935596773 true
gene 4 11566 5 -0.5697014927582856 false 80059 -0.5697014927582856 true
gene 2 6722 11679 0.23114399457567225 false 80706 0.23114399457567225 true
gene 2 11679 3 -2.19909390322602 false 80707 -2.19909390322602 true
gene 2 3 8012 -1.034202058254947 true 81075 -1.034202058254947 true
gene 3 9 8118 -1.8765713255654286 false 81984 -1.8765713255654286 true
gene 3 4 1639 -3.1811257250236133 true 82413 -3.1811257250236133 true
gene 3 6776 6776 9.98797158426256 true 82853 9.98797158426256 true
gene 4 9 11913 1 true 84322 1 true
gene 4 11913 7512 0.8464602876718326 false 84323 0.8464602876718326 true
gene 2 7 11981 0.236975065468513 true 84723 0.236975065468513 true
gene 2 11981 3 1.4120562122797968 false 84724 1.4120562122797968 true
gene 2 9 12136 -0.7130701132809103 true 85709 -0.7130701132809103 true
gene 2 12136 3 0.545574146179611 false 85710 0.545574146179611 true
gene 3 12 12265 0.5197173402020951 false 86545 0.5197173402020951 true
gene 3 12265 4116 0.5728701384941096 false 86546 0.5728701384941096 true
gene 3 4945 12417 1.2444082169604531 false 87474 1.2444082169604531 true
gene 3 12417 3225 1.0644095110691336 false 87475 1.0644095110691336 true
gene 4 11158 12518 -0.7916461016591844 false 88181 -0.7916461016591844 true
gene 4 12518 8344 0.2957155972414959 false 88182 0.2957155972414959 true
gene 2 6494 12732 1 false 89379 1 true
gene 2 12732 4555 0.23584699012330815 false 89380 0.23584699012330815 true
gene 4 8452 3397 0.4905496845594509 false 90319 0.4905496845594509 true
gene 1 12518 12518 1.4244656478977602 true 90524 1.4244656478977602 true
gene 3 1639 13055 -0.8594001884422825 true 91404 -0.8594001884422825 true
gene 3 13055 1639 -1.6381890919907538 false 91405 -1.6381890919907538 true
gene 1 11 13351 1.3772001331088646 false 93190 1.3772001331088646 true
gene 1 13351 158 -1.576605127498618 false 93191 -1.576605127498618 true
gene 4 11 13580 -0.5654861141822255 true 94468 -0.5654861141822255 true
gene 4 13580 8344 0.7246807938248707 false 94469 0.7246807938248707 true
gene 2 53 2013 -5.383143803902301 true 95329 -5.383143803902301 true
gene 1 3397 2013 -2.7577036166913853 true 95776 -2.7577036166913853 true
gene 3 7452 13928 0.7877725649314843 false 96621 0.7877725649314843 true
gene 3 13928 4116 1.3117625265982138 false 96622 1.3117625265982138 true
gene 3 8 14086 1.9074829374614062 true 97577 1.9074829374614062 true
gene 3 14086 4 -1.4671800057908704 false 97578 -1.4671800057908704 true
gene 3 12 14287 1 false 98775 1 true
gene 3 14287 4945 -0.5181403685423746 false 98776 -0.5181403685423746 true
gene 2 12 6584 -0.07798802282700495 false 99653 -0.07798802282700495 true
gene 1 12732 12732 0.22708610857870826 true 100065 0.22708610857870826 true
gene 3 2013 14680 -0.6042863296886363 false 101208 -0.6042863296886363 true
gene 3 14680 1472 0.8435308962693205 false 101209 0.8435308962693205 true
gene 2 13 1563 -2.62453230611394 false 101926 -2.62453230611394 true
gene 3 9112 158 -2.3080241932571464 false 101977 -2.3080241932571464 true
gene 4 7452 12417 -2.45209288061297 false 102403 -2.45209288061297 true
gene 2 6494 14861 1 false 102963 0 true
gene 2 14861 4555 1.0038055099947876 false 102964 0 true
gene 2 13055 13055 9.43177070479072 true 103311 0 true
gene 1 11913 5228 4.5266391804077974 false 104768 4.5266391804077974 true
gene 3 1472 2981 -4.510584133108232 false 105171 -4.510584133108232 true
gene 3 5337 5 0.3716996197326762 false 105600 0.3716996197326762 true
gene 2 1 7452 -0.2384866010519013 false 106025 -0.2384866010519013 true
gene 4 13580 13580 5.3741778980682655 true 106479 5.3741778980682655 true
gene 4 8544 12518 8.543638835321115 false 107668 8.543638835321115 true
gene 3 53 4116 -1.6725965287750666 false 107857 -1.6725965287750666 true
gene 3 13928 4211 6.541782168910288 false 108613 6.541782168910288 true
gene 2 4211 15877 1 false 108974 0 true
gene 2 15877 7163 0.8437487145187509 false 108975 0 true
gene 4 11679 11679 0.1765154834576501 true 109295 0 true
gene 2 6494 16107 1 false 110370 0 true
gene 2 16107 14861 1 false 110371 0 true
gene 4 13 16209 1 true 110972 0 true
gene 4 16209 5 -0.7969436565592252 false 110973 0 true
genomeend 892