/* Species #537 : (Size 444) (AF 0.054) (Age 8)  */
/* Organism #936 Fitness: 0.373 Error: 0.627 */
genomestart 936
trait 1 0.05 0 0 0.1199775191520332 0 0 0.10697483240978914 0.8751842315686127
trait 2 0.5536765900446647 0 0.05791039810295628 0 0.015244226482277154 0.1355271363378809 0.22643950118804834 0
trait 3 0.0961787402078357 0.6044387889022205 0.0029907388423572674 0 0.2670973069885749 0 0.04691668373715821 1.0028215146184183
trait 4 0.38422644304532555 0.15862671443260323 0 0 0 0 0.1404914287112318 0.4381819052430307
node 1 1 1 3 SigmoidSteepenedActivation
node 2 1 0 2 SigmoidSteepenedActivation
node 3 1 0 2 SigmoidSteepenedActivation
node 4 1 0 2 SigmoidSteepenedActivation
node 5 1 0 2 SigmoidSteepenedActivation
node 6 1 1 1 SigmoidSteepenedActivation
node 7 1 1 1 SigmoidSteepenedActivation
node 8 1 1 1 SigmoidSteepenedActivation
node 9 1 1 1 SigmoidSteepenedActivation
node 10 1 1 1 SigmoidSteepenedActivation
node 11 1 1 1 SigmoidSteepenedActivation
node 12 3 1 1 SigmoidSteepenedActivation
node 13 1 1 1 SigmoidSteepenedActivation
node 53 1 0 0 SigmoidSteepenedActivation
node 158 1 0 0 SigmoidSteepenedActivation
node 199 1 0 0 SigmoidSteepenedActivation
node 458 1 0 0 SigmoidSteepenedActivation
node 1462 1 0 0 SigmoidSteepenedActivation
node 1472 1 0 0 SigmoidSteepenedActivation
node 1561 1 0 0 SigmoidSteepenedActivation
node 1563 1 0 0 SigmoidSteepenedActivation
node 1639 1 0 0 SigmoidSteepenedActivation
node 2013 1 0 0 SigmoidSteepenedActivation
node 2423 1 0 0 SigmoidSteepenedActivation
node 2981 1 0 0 SigmoidSteepenedActivation
node 3225 1 0 0 SigmoidSteepenedActivation
node 3397 1 0 0 SigmoidSteepenedActivation
node 3581 1 0 0 SigmoidSteepenedActivation
node 3665 1 0 0 SigmoidSteepenedActivation
node 4116 1 0 0 SigmoidSteepenedActivation
node 4211 1 0 0 SigmoidSteepenedActivation
node 4555 1 0 0 SigmoidSteepenedActivation
node 4745 1 0 0 SigmoidSteepenedActivation
node 4945 1 0 0 SigmoidSteepenedActivation
node 5228 1 0 0 SigmoidSteepenedActivation
node 5337 1 0 0 SigmoidSteepenedActivation
node 5710 1 0 0 SigmoidSteepenedActivation
node 5879 1 0 0 SigmoidSteepenedActivation
node 6494 1 0 0 SigmoidSteepenedActivation
node 6584 1 0 0 SigmoidSteepenedActivation
node 6661 1 0 0 SigmoidSteepenedActivation
node 6722 1 0 0 SigmoidSteepenedActivation
node 6776 1 0 0 SigmoidSteepenedActivation
node 7163 1 0 0 SigmoidSteepenedActivation
node 7452 1 0 0 SigmoidSteepenedActivation
node 7512 1 0 0 SigmoidSteepenedActivation
node 7659 1 0 0 SigmoidSteepenedActivation
node 7727 1 0 0 SigmoidSteepenedActivation
node 8012 1 0 0 SigmoidSteepenedActivation
node 8023 1 0 0 SigmoidSteepenedActivation
node 8118 1 0 0 SigmoidSteepenedActivation
node 8344 1 0 0 SigmoidSteepenedActivation
node 8452 1 0 0 SigmoidSteepenedActivation
node 8544 1 0 0 SigmoidSteepenedActivation
node 8629 1 0 0 SigmoidSteepenedActivation
node 8716 1 0 0 SigmoidSteepenedActivation
node 8763 1 0 0 SigmoidSteepenedActivation
node 9112 1 0 0 SigmoidSteepenedActivation
node 9165 1 0 0 SigmoidSteepenedActivation
node 9504 1 0 0 SigmoidSteepenedActivation
node 10461 1 0 0 SigmoidSteepenedActivation
node 10537 1 0 0 SigmoidSteepenedActivation
node 10786 1 0 0 SigmoidSteepenedActivation
node 10795 1 0 0 SigmoidSteepenedActivation
node 10885 1 0 0 SigmoidSteepenedActivation
node 11016 1 0 0 SigmoidSteepenedActivation
node 11084 1 0 0 SigmoidSteepenedActivation
node 11158 1 0 0 SigmoidSteepenedActivation
node 11206 1 0 0 SigmoidSteepenedActivation
node 11566 1 0 0 SigmoidSteepenedActivation
node 11679 1 0 0 SigmoidSteepenedActivation
node 11913 1 0 0 SigmoidSteepenedActivation
node 11981 1 0 0 SigmoidSteepenedActivation
node 12136 1 0 0 SigmoidSteepenedActivation
node 12265 1 0 0 SigmoidSteepenedActivation
node 12417 1 0 0 SigmoidSteepenedActivation
node 12518 1 0 0 SigmoidSteepenedActivation
node 12732 1 0 0 SigmoidSteepenedActivation
node 13055 1 0 0 SigmoidSteepenedActivation
node 13351 1 0 0 SigmoidSteepenedActivation
node 13580 1 0 0 SigmoidSteepenedActivation
node 13928 1 0 0 SigmoidSteepenedActivation
node 14086 1 0 0 SigmoidSteepenedActivation
node 14287 1 0 0 SigmoidSteepenedActivation
node 14680 1 0 0 SigmoidSteepenedActivation
node 14939 1 0 0 SigmoidSteepenedActivation
node 16126 1 0 0 SigmoidSteepenedActivation
node 17241 1 0 0 SigmoidSteepenedActivation
node 17923 1 0 0 SigmoidSteepenedActivation
node 18177 1 0 0 SigmoidSteepenedActivation
node 19170 1 0 0 SigmoidSteepenedActivation
node 19904 1 0 0 SigmoidSteepenedActivation
node 20081 1 0 0 SigmoidSteepenedActivation
gene 1 1 2 -0.4502954287853921 true 1 -0.4502954287853921 true
gene 2 1 3 -0.32781394703924055 true 2 -0.32781394703924055 true
gene 2 1 4 -2.255932268518023 true 3 -2.255932268518023 true
gene 4 1 5 -0.9230254625977162 true 4 -0.9230254625977162 true
gene 1 6 2 -4.226293961538078 true 1 -4.226293961538078 true
gene 2 6 3 -0.6830064138103153 true 2 -0.6830064138103153 true
gene 3 6 4 0.46428467960018166 true 3 0.46428467960018166 true
gene 4 6 5 -0.7294429258017923 true 4 -0.7294429258017923 true
gene 1 7 2 1.4970115132480366 true 1 1.4970115132480366 true
gene 2 7 3 2.94011353886762 true 2 2.94011353886762 true
gene 3 7 4 1.9505928374176347 true 3 1.9505928374176347 true
gene 4 7 5 1.2273117404013676 true 4 1.2273117404013676 true
gene 1 8 2 -0.5123272289552672 true 1 -0.5123272289552672 true
gene 2 8 3 1.6438755522192858 true 2 1.6438755522192858 true
gene 3 8 4 -0.6255215014287275 true 3 -0.6255215014287275 true
gene 4 8 5 2.6568090072485706 true 4 2.6568090072485706 true
gene 1 9 2 2.562169297440886 true 1 2.562169297440886 true
gene 2 9 3 -0.09099303139099255 true 2 -0.09099303139099255 true
gene 3 9 4 1.1428638230453925 true 3 1.1428638230453925 true
gene 4 9 5 3.5748977501612664 true 4 3.5748977501612664 true
gene 1 10 2 -4.424828389785574 true 1 -4.424828389785574 true
gene 2 10 3 2.6981004290234214 true 2 2.6981004290234214 true
gene 3 10 4 5.493829975486939 true 3 5.493829975486939 true
gene 4 10 5 -2.192054607806532 true 4 -2.192054607806532 true
gene 1 11 2 1.6354713288473737 true 1 1.6354713288473737 true
gene 2 11 3 0.5432583931033568 true 2 0.5432583931033568 true
gene 3 11 4 1.6281401574682457 true 3 1.6281401574682457 true
gene 4 11 5 0.6164619941608958 true 4 0.6164619941608958 true
gene 1 12 2 3.2638363544535256 true 1 3.2638363544535256 true
gene 2 12 3 -0.609966257895384 true 2 -0.609966257895384 true
gene 3 12 4 -1.7764254348724444 true 3 -1.7764254348724444 true
gene 4 12 5 0.13616915913980893 true 4 0.13616915913980893 true
gene 1 13 2 -0.6446799672024768 true 1 -0.6446799672024768 true
gene 2 13 3 0.4761643262607437 true 2 0.4761643262607437 true
gene 3 13 4 4.789763728570507 true 3 4.789763728570507 true
gene 4 13 5 -0.36126062491133254 true 4 -0.36126062491133254 true
gene 2 2 2 0.47134985591718925 true 11 0.47134985591718925 true
gene 1 9 53 2.0915460736954863 true 156 2.0915460736954863 true
gene 1 53 2 -0.7914339343138022 false 157 -0.7914339343138022 true
gene 1 3 3 0.7461350148205321 true 247 0.7461350148205321 true
gene 1 6 158 3.4765599364478517 true 613 3.4765599364478517 true
gene 3 158 4 2.7877620048581333 false 614 2.7877620048581333 true
gene 2 158 158 0.19755710681410737 true 965 0.19755710681410737 true
gene 1 6 4 -4.243348425518002 false 1147 -4.243348425518002 true
gene 1 2 4 2.529130403249309 false 1329 2.529130403249309 true
gene 4 13 53 -0.1239889933870198 false 1735 -0.1239889933870198 true
gene 2 5 53 -0.014921447010665095 false 2980 -0.014921447010665095 true
gene 3 5 5 0.32890679384173543 true 3058 0.32890679384173543 true
gene 4 4 4 -3.529899964181567 true 3339 -3.529899964181567 true
gene 2 2 53 -1.9247928615097174 true 4245 -1.9247928615097174 true
gene 3 8 3 1.7851200563005971 false 5051 1.7851200563005971 true
gene 3 53 53 0.5453490900905353 true 5057 0.5453490900905353 true
gene 1 9 199 3.0983581856655382 true 5211 3.0983581856655382 true
gene 1 199 2 -0.27415609570459243 false 5212 -0.27415609570459243 true
gene 3 10 199 0.6002496990561257 false 5443 0.6002496990561257 true
gene 2 4 158 0.774048164385138 true 5852 0.774048164385138 true
gene 3 10 458 -0.49989736921993166 false 6436 -0.49989736921993166 true
gene 3 458 199 2.167503248858784 false 6437 2.167503248858784 true
gene 1 4 53 -0.8337442890387784 true 6508 -0.8337442890387784 true
gene 3 458 458 -1.1456264329933492 true 6868 -1.1456264329933492 true
gene 2 4 458 0.5002791098816854 true 7367 0.5002791098816854 true
gene 4 199 458 -3.4779655869259356 true 7848 -3.4779655869259356 true
gene 2 458 2 -2.856920157399258 false 8095 -2.856920157399258 true
gene 3 199 5 -2.811433171099082 false 10371 -2.811433171099082 true
gene 2 199 199 1.8560395274973258 true 10711 1.8560395274973258 true
gene 1 13 158 3.0380363103685406 false 11328 3.0380363103685406 true
gene 1 5 199 2.2253381612163334 true 11990 2.2253381612163334 true
gene 2 6 1462 2.0287828671550945 true 12148 2.0287828671550945 true
gene 2 1462 3 -2.4557428670023675 false 12149 -2.4557428670023675 true
gene 2 158 1472 -0.13257867100732046 true 12184 -0.13257867100732046 true
gene 2 1472 158 1.5540265326146998 false 12185 1.5540265326146998 true
gene 4 4 1561 0.15629545738291947 true 12557 0.15629545738291947 true
gene 4 1561 4 2.158455267171031 false 12558 2.158455267171031 true
gene 3 12 3 1.9486848280510571 false 12931 1.9486848280510571 true
gene 2 458 1563 2.819774195094557 false 12936 2.819774195094557 true
gene 2 1563 2 -1.1413661314473225 false 12937 -1.1413661314473225 true
gene 4 1472 1472 1.3364049664380437 true 14570 1.3364049664380437 true
gene 2 6 1561 -6.655805009878229 false 14623 -6.655805009878229 true
gene 1 8 1639 3.8280826920783464 true 14926 3.8280826920783464 true
gene 1 1639 2 1.260900832332591 false 14927 1.260900832332591 true
gene 4 2 3 -0.284923557587199 false 15370 -0.284923557587199 true
gene 4 5 1563 6.972626308371474 false 15671 6.972626308371474 true
gene 3 458 2013 2.2602957773372214 false 16879 2.2602957773372214 true
gene 3 2013 199 -0.8161023510162467 false 16880 -0.8161023510162467 true
gene 2 2013 2013 -1.5644920450412179 true 17118 -1.5644920450412179 true
gene 4 199 3 -0.7080547318800645 false 17415 -0.7080547318800645 true
gene 3 5 4 -1.817085361474759 false 18003 -1.817085361474759 true
gene 4 1462 1462 1.6094136000895736 true 18233 1.6094136000895736 true
gene 3 7 1563 3.233982453994338 false 19160 3.233982453994338 true
gene 1 7 2423 -2.3030801729075803 true 19247 -2.3030801729075803 true
gene 1 2423 2 0.4741985128492227 false 19248 0.4741985128492227 true
gene 2 1561 53 0.9247807476735146 false 19812 0.9247807476735146 true
gene 1 1563 1563 -0.11564349413075473 true 19887 -0.11564349413075473 true
gene 4 8 458 -1.4971186661661828 false 20786 -1.4971186661661828 true
gene 3 1563 199 -1.223393156802501 true 20827 -1.223393156802501 true
gene 3 8 2423 -0.8685299002162863 false 20988 -0.8685299002162863 true
gene 3 1639 458 0.9848405129837984 false 21465 0.9848405129837984 true
gene 3 1472 2 -0.8131676766234759 false 22482 -0.8131676766234759 true
gene 1 11 158 -0.3017678377347689 false 23203 -0.3017678377347689 true
gene 3 1 458 -1.3503465094335234 false 23572 -1.3503465094335234 true
gene 3 10 2981 -2.1221183989615002 true 23963 -2.1221183989615002 true
gene 3 2981 4 -1.3059297331635393 false 23964 -1.3059297331635393 true
gene 2 3 1563 0.6045946539394882 true 24671 0.6045946539394882 true
gene 3 12 3225 1.4867290107299014 false 25322 1.4867290107299014 true
gene 3 3225 3 4.244913805187674 false 25323 4.244913805187674 true
gene 1 3225 3225 0.3689845058511169 true 25862 0.3689845058511169 true
gene 1 5 2 0.4164945599302823 false 26141 0.4164945599302823 true
gene 2 2 3397 -3.3362145102042513 true 26325 -3.3362145102042513 true
gene 2 3397 2 -0.9214628419776422 false 26326 -0.9214628419776422 true
gene 4 2013 1563 -0.31987562777926115 false 26967 -0.31987562777926115 true
gene 1 3397 3397 1.3955678660047495 true 26991 1.3955678660047495 true
gene 4 5 3581 0.12277299555212752 false 27965 0.12277299555212752 true
gene 4 3581 1563 -1.9105634724887204 false 27966 -1.9105634724887204 true
gene 2 158 3665 -1.7030747851918484 true 28470 -1.7030747851918484 true
gene 2 3665 1472 -0.9611596285202054 false 28471 -0.9611596285202054 true
gene 4 1563 3225 -9.004944707222991 false 28950 -9.004944707222991 true
gene 3 1639 1639 -0.5941167894645359 true 29073 -0.5941167894645359 true
gene 1 1561 1561 -5.7919452032892345 true 29441 -5.7919452032892345 true
gene 4 4 3 0.9395226129672956 false 29836 0.9395226129672956 true
gene 2 3665 3665 -0.9694061068630262 true 30194 -0.9694061068630262 true
gene 3 2013 1472 3.547545921391074 false 30637 3.547545921391074 true
gene 3 12 4116 0.2992199988641715 false 31047 0.2992199988641715 true
gene 3 4116 3225 0.2507930645345596 false 31048 0.2507930645345596 true
gene 1 199 4211 1.0484991092457396 false 31671 1.0484991092457396 true
gene 1 4211 2 1.8461245956380976 false 31672 1.8461245956380976 true
gene 4 4211 4211 3.3588681994984437 true 32118 3.3588681994984437 true
gene 2 12 1639 -0.8032745316428627 false 33097 -0.8032745316428627 true
gene 3 3581 3581 -0.6639585844811844 true 33444 -0.6639585844811844 true
gene 3 2981 2981 -0.9932783173912701 true 33795 -0.9932783173912701 true
gene 2 12 4555 3.690098161801923 true 34024 3.690098161801923 true
gene 2 4555 3 1.526799018523032 false 34025 1.526799018523032 true
gene 1 9 53 1.842755653346649 false 34489 1.842755653346649 true
gene 3 2013 4745 -2.6417970461585867 false 35106 -2.6417970461585867 true
gene 3 4745 1472 0.6470701322118281 false 35107 0.6470701322118281 true
gene 3 2981 4555 -6.290618108894359 false 35720 -6.290618108894359 true
gene 3 12 4945 1.7142949479928822 false 36308 1.7142949479928822 true
gene 3 4945 3225 0.8036906747969852 false 36309 0.8036906747969852 true
gene 3 4555 199 -0.11999388535097785 false 37312 -0.11999388535097785 true
gene 2 12 5228 0.5050601454998351 true 38057 0.5050601454998351 true
gene 2 5228 3 -1.1207979157991033 false 38058 -1.1207979157991033 true
gene 1 199 5337 0.4134428981372391 false 38691 0.4134428981372391 true
gene 1 5337 2 0.9787234890523072 false 38692 0.9787234890523072 true
gene 4 4555 4555 0.24210247541715807 true 39012 0.24210247541715807 true
gene 1 4745 4745 -0.09685100436007517 true 39552 -0.09685100436007517 true
gene 1 4555 3225 -0.601454557623631 false 39741 -0.601454557623631 true
gene 3 6 199 -5.342601344072184 false 39852 -5.342601344072184 true
gene 2 7 5710 -0.23160141217278443 true 41008 -0.23160141217278443 true
gene 2 5710 3 3.0991187429429767 false 41009 3.0991187429429767 true
gene 4 11 5 2.7437481383041584 false 41468 2.7437481383041584 true
gene 3 5 5879 0.6989480161202364 true 41968 0.6989480161202364 true
gene 3 5879 5 2.7614348562888313 false 41969 2.7614348562888313 true
gene 4 5337 5337 -0.46625226120615726 true 42225 -0.46625226120615726 true
gene 3 4116 4116 -1.4726985928716607 true 42617 -1.4726985928716607 true
gene 1 8 4 2.015384047598009 false 43136 2.015384047598009 true
gene 2 4555 5 -2.2346453059570814 false 43537 -2.2346453059570814 true
gene 1 3225 3397 2.170047156017989 false 43891 2.170047156017989 true
gene 3 2 2423 -0.9933486146033119 true 44542 -0.9933486146033119 true
gene 1 13 4 2.6388897218353913 false 45660 2.6388897218353913 true
gene 2 12 6494 -2.671649409673556 true 45886 -2.671649409673556 true
gene 2 6494 4555 1.6899308607619399 false 45887 1.6899308607619399 true
gene 3 6 6584 0.6409876690989125 false 46419 0.6409876690989125 true
gene 3 6584 199 -2.6956238659875202 false 46420 -2.6956238659875202 true
gene 4 9 6661 2.881031717214494 true 46966 2.881031717214494 true
gene 4 6661 5 0.7985581877451757 false 46967 0.7985581877451757 true
gene 2 13 6722 0.0637223165024622 true 47362 0.0637223165024622 true
gene 2 6722 3 -2.032446066845441 false 47363 -2.032446066845441 true
gene 3 6 6776 -2.1333909901353443 false 47745 -2.1333909901353443 true
gene 3 6776 6584 0.357383174213485 false 47746 0.357383174213485 true
gene 4 4945 6494 0.9646467870436034 false 48167 0.9646467870436034 true
gene 3 1563 2013 2.7594725523490355 true 48402 2.7594725523490355 true
gene 1 6722 6722 -3.275574236961843 true 49260 -3.275574236961843 true
gene 1 5710 5710 2.600150324476048 true 49430 2.600150324476048 true
gene 4 5 7163 0.1887984798017291 false 49974 0.1887984798017291 true
gene 4 7163 3581 -0.9757840560839917 false 49975 -0.9757840560839917 true
gene 2 5228 5228 0.8741936133124555 true 50301 0.8741936133124555 true
gene 3 6584 6584 -0.9002242309684032 true 50741 -0.9002242309684032 true
gene 1 1462 6494 1.8091122065376501 false 51469 1.8091122065376501 true
gene 3 1561 199 -0.9630323301167919 false 51660 -0.9630323301167919 true
gene 3 12 7452 -3.016612324275119 false 51973 -3.016612324275119 true
gene 3 7452 4116 1.656224941638158 false 51974 1.656224941638158 true
gene 4 9 7512 0.24801939656084426 true 52335 0.24801939656084426 true
gene 4 7512 6661 -0.43434130939411564 false 52336 -0.43434130939411564 true
gene 1 3225 7659 0.29002253467926453 true 53228 0.29002253467926453 true
gene 1 7659 3225 0.5453825627497731 false 53229 0.5453825627497731 true
gene 3 458 7727 1.7869792479180888 false 53627 1.7869792479180888 true
gene 3 7727 199 -1.3844826329363453 false 53628 -1.3844826329363453 true
gene 4 2 7512 4.032068449791912 true 54292 4.032068449791912 true
gene 1 7452 7452 -7.852383361053165 true 54572 -7.852383361053165 true
gene 4 7163 6722 1.1124417960154778 false 54931 1.1124417960154778 true
gene 2 1561 8012 0.37883286009276906 false 55309 0.37883286009276906 true
gene 2 8012 53 1.632126349390566 false 55310 1.632126349390566 true
gene 2 5337 5879 2.2187098677444674 false 55959 2.2187098677444674 true
gene 1 2423 1639 -2.392847496466682 false 56671 -2.392847496466682 true
gene 2 3581 5228 0.5007485538424721 false 57081 0.5007485538424721 true
gene 1 4945 4945 -1.7105131374499891 true 57182 -1.7105131374499891 true
gene 1 5337 8023 1.667188282958863 false 57245 1.667188282958863 true
gene 1 8023 2 0.09812189288466716 false 57246 0.09812189288466716 true
gene 1 9 8118 2.5446311084102473 true 57768 2.5446311084102473 true
gene 1 8118 53 6.3202823421109455 false 57769 6.3202823421109455 true
gene 4 1462 7727 -2.3502947458457006 false 58288 -2.3502947458457006 true
gene 3 6661 6661 0.8166264306697982 true 58517 0.8166264306697982 true
gene 4 11 8344 0.5709883490099243 true 59094 0.5709883490099243 true
gene 4 8344 5 -1.346915158672575 false 59095 -1.346915158672575 true
gene 1 9 8452 0.6468465692998087 true 59720 0.6468465692998087 true
gene 1 8452 2 -1.5299218976869227 false 59721 -1.5299218976869227 true
gene 1 9 8544 -1.56534141508962 true 60236 -1.56534141508962 true
gene 1 8544 2 -0.5286812753009753 false 60237 -0.5286812753009753 true
gene 2 12 8629 0.012155747426695708 true 60747 0.012155747426695708 true
gene 2 8629 6494 -1.102005225127111 false 60748 -1.102005225127111 true
gene 2 3 8716 1.5228492091567516 true 61245 1.5228492091567516 true
gene 2 8716 1563 -7.990514103089312 false 61246 -7.990514103089312 true
gene 2 5 8763 0.7298083187356874 false 61493 0.7298083187356874 true
gene 2 8763 53 -0.24898690729662398 false 61494 -0.24898690729662398 true
gene 4 8023 8023 0.06920709029612941 true 61856 0.06920709029612941 true
gene 3 5 9112 -0.004012475677283106 true 63622 -0.004012475677283106 true
gene 3 9112 5 -9.960087097887826 false 63623 -9.960087097887826 true
gene 2 7163 7163 -2.2954354230393648 true 64059 -2.2954354230393648 true
gene 4 4555 9165 -0.1159786673015332 true 64374 -0.1159786673015332 true
gene 4 9165 4555 1.3202679951018133 false 64375 1.3202679951018133 true
gene 3 5879 7512 0.6215370806965278 false 64911 0.6215370806965278 true
gene 4 8452 8452 -9.712283065384877 true 65927 -9.712283065384877 true
gene 4 7163 9504 -1.4647220096031885 false 66373 -1.4647220096031885 true
gene 4 9504 6722 -4.846917472475558 false 66374 -4.846917472475558 true
gene 4 8716 8716 0.4124623879630124 true 66861 0.4124623879630124 true
gene 4 8344 8344 -0.30732547018748474 true 67283 -0.30732547018748474 true
gene 3 6 7659 -3.498572051181484 false 68066 -3.498572051181484 true
gene 1 1472 3 0.05918406402623917 false 69577 0.05918406402623917 true
gene 3 7727 1472 -0.8256183552939664 false 70010 -0.8256183552939664 true
gene 4 6494 5710 -0.510488311629284 false 70572 -0.510488311629284 true
gene 2 9165 9165 0.05028422106707048 true 70990 0.05028422106707048 true
gene 1 4 10461 1.4053659947245416 true 71958 1.4053659947245416 true
gene 1 10461 53 -0.8048755841404214 false 71959 -0.8048755841404214 true
gene 2 2013 10537 -0.5898951417196223 true 72481 -0.5898951417196223 true
gene 2 10537 2013 -1.6446014136575569 false 72482 -1.6446014136575569 true
gene 3 2423 2423 0.11046170610483916 true 72902 0.11046170610483916 true
gene 2 4211 7163 0.10001726428485283 false 73379 0.10001726428485283 true
gene 1 6 10786 0.9249845421801931 true 73984 0.9249845421801931 true
gene 1 10786 2 -3.499677188750593 false 73985 -3.499677188750593 true
gene 2 3 9504 -0.8445650538362631 false 74454 -0.8445650538362631 true
gene 2 7 10795 1.2676519316065398 true 74499 1.2676519316065398 true
gene 2 10795 3 0.2675219516819792 false 74500 0.2675219516819792 true
gene 4 1462 10885 -0.7068596811042329 false 75056 -0.7068596811042329 true
gene 4 10885 7727 0.1731898815926219 false 75057 0.1731898815926219 true
gene 1 9 11016 -0.17546094845149618 true 75882 -0.17546094845149618 true
gene 1 11016 8118 0.7958573904170245 false 75883 0.7958573904170245 true
gene 1 8118 199 -0.5154964559366975 false 76881 -0.5154964559366975 true
gene 1 7659 11084 1.1192037171412432 false 77280 1.1192037171412432 true
gene 1 11084 3225 1.1090311083807602 false 77281 1.1090311083807602 true
gene 4 11 11158 2.2486806557704675 true 77728 2.2486806557704675 true
gene 4 11158 8344 -0.46698524007370024 false 77729 -0.46698524007370024 true
gene 3 10 11206 0.2288344890512629 true 77973 0.2288344890512629 true
gene 3 11206 2981 -2.674468003972075 false 77974 -2.674468003972075 true
gene 4 5 3 0.40617349893109356 false 78687 0.40617349893109356 true
gene 3 3581 6722 -3.9437526958627647 false 79276 -3.9437526958627647 true
gene 4 8012 8012 -0.7133350294489896 true 79611 -0.7133350294489896 true
gene 4 10 11566 0.6450406375155856 true 80058 0.6450406375155856 true
gene 4 11566 5 -0.34784617959780245 false 80059 -0.34784617959780245 true
gene 2 6722 11679 0.6427322612681949 false 80706 0.6427322612681949 true
gene 2 11679 3 -1.8750383937810287 false 80707 -1.8750383937810287 true
gene 2 3 8012 -0.4843258786192013 true 81075 -0.4843258786192013 true
gene 3 9 8118 -0.9529194472091207 false 81984 -0.9529194472091207 true
gene 3 4 1639 -3.9593202923034148 true 82413 -3.9593202923034148 true
gene 3 6776 6776 9.004115279036899 true 82853 9.004115279036899 true
gene 4 9 11913 0.6015379393274876 true 84322 0.6015379393274876 true
gene 4 11913 7512 0.5060284398526821 false 84323 0.5060284398526821 true
gene 2 7 11981 -0.09362077733663884 true 84723 -0.09362077733663884 true
gene 2 11981 3 1.3431443228503335 false 84724 1.3431443228503335 true
gene 2 9 12136 -1.5695502273403181 true 85709 -1.5695502273403181 true
gene 2 12136 3 0.8870544709555177 false 85710 0.8870544709555177 true
gene 3 12 12265 -0.4619388363127653 false 86545 -0.4619388363127653 true
gene 3 12265 4116 0.4029082862624822 false 86546 0.4029082862624822 true
gene 3 4945 12417 1.4686642540533836 false 87474 1.4686642540533836 true
gene 3 12417 3225 0.7685776121563364 false 87475 0.7685776121563364 true
gene 4 11158 12518 -1.7404333543800021 false 88181 -1.7404333543800021 true
gene 4 12518 8344 0.17030683284323508 false 88182 0.17030683284323508 true
gene 2 6494 12732 0.08451456358652815 false 89379 0.08451456358652815 true
gene 2 12732 4555 0.5168841648338645 false 89380 0.5168841648338645 true
gene 4 8452 3397 -0.6508025776804838 false 90319 -0.6508025776804838 true
gene 1 12518 12518 1.3352117808132573 true 90524 1.3352117808132573 true
gene 3 1639 13055 -1.2457177728609699 true 91404 -1.2457177728609699 true
gene 3 13055 1639 -0.9617542605725053 false 91405 -0.9617542605725053 true
gene 1 11 13351 1.2895656014351418 false 93190 1.2895656014351418 true
gene 1 13351 158 -0.7582312228439594 false 93191 -0.7582312228439594 true
gene 4 11 13580 -0.5451389543243923 true 94468 -0.5451389543243923 true
gene 4 13580 8344 0.6065564138533392 false 94469 0.6065564138533392 true
gene 2 53 2013 -4.29647722319233 true 95329 -4.29647722319233 true
gene 1 3397 2013 -1.8462232215230316 true 95776 -1.8462232215230316 true
gene 3 7452 13928 0.951278294568835 false 96621 0.951278294568835 true
gene 3 13928 4116 1.2347400779133382 false 96622 1.2347400779133382 true
gene 3 8 14086 0.6277699640350752 true 97577 0.6277699640350752 true
gene 3 14086 4 -1.1389604076702562 false 97578 -1.1389604076702562 true
gene 3 12 14287 0.267460691491839 false 98775 0.267460691491839 true
gene 3 14287 4945 -0.0042120402938652934 false 98776 -0.0042120402938652934 true
gene 2 12 6584 -0.5077227274232489 false 99653 -0.5077227274232489 true
gene 1 12732 12732 -0.1514721693690676 true 100065 -0.1514721693690676 true
gene 3 2013 14680 -0.7154554569819931 false 101208 -0.7154554569819931 true
gene 3 14680 1472 0.039872492711364754 false 101209 0.039872492711364754 true
gene 2 13 1563 -1.7912166159920528 false 101926 -1.7912166159920528 true
gene 2 14287 14287 -6.128286422269774 true 102393 -6.128286422269774 true
gene 3 1639 9165 3.5772764712462415 false 102835 3.5772764712462415 true
gene 4 9 14939 0.407206287950751 true 103441 0.407206287950751 true
gene 4 14939 7512 0.2794244407256815 false 103442 0.2794244407256815 true
gene 1 8629 10885 -1.3702809049014446 false 104052 -1.3702809049014446 true
gene 3 10795 9112 1.1599405421016136 false 104822 1.1599405421016136 true
gene 2 9112 3397 7.942126466574665 false 106048 7.942126466574665 true
gene 1 9112 11981 4.323278374290174 false 106514 4.323278374290174 true
gene 1 3225 12265 -6.668273725365641 true 106955 -6.668273725365641 true
gene 3 14680 8763 6.3342826142976865 false 107714 6.3342826142976865 true
gene 3 11981 11566 4.0950418099676575 false 108038 4.0950418099676575 true
gene 4 8763 8763 -0.4708364263700659 true 108811 -0.4708364263700659 true
gene 1 9112 9112 8.857393446669768 true 109302 8.857393446669768 true
gene 1 1462 7659 -1.5495713503674677 false 109738 -1.5495713503674677 true
gene 3 5 16126 0.6790924189192424 true 110476 0.6790924189192424 true
gene 3 16126 9112 0.6467375283275697 false 110477 0.6467375283275697 true
gene 4 16126 10786 -3.8006391878214414 false 111040 -3.8006391878214414 true
gene 3 7163 7659 2.5740745556759634 false 111288 2.5740745556759634 true
gene 1 7727 14086 6.043547255148183 false 112014 6.043547255148183 true
gene 3 11158 11158 8.616565288831243 true 112339 2.6035029676722914 true
gene 3 14680 7659 8.120927122404426 false 113221 8.120927122404426 true
gene 1 6584 4745 2.6096124908689458 false 114793 2.6096124908689458 true
gene 3 11981 11981 -7.651626461081695 true 114943 -2.158944104912457 true
gene 2 14680 14680 3.5718791172122186 true 115434 1.2597155414109307 true
gene 4 10461 10461 -4.236954939840849 true 115781 -1.6105867265414742 true
gene 1 2 9112 -5.454946618072261 true 116404 -5.454946618072261 true
gene 1 3 10537 -5.8041621083706385 true 116767 -5.8041621083706385 true
gene 3 7452 17241 0.6224666921249804 false 117405 -0.03378330787501948 true
gene 3 17241 13928 1.2085101223771413 false 117406 0.49053450516232283 true
gene 4 10795 10795 -9.345427325710151 true 117562 -3.0239940882281955 true
gene 3 9112 10795 3.159948948122548 true 118607 3.159948948122548 true
gene 1 8629 158 4.17575578267269 false 120272 4.17575578267269 true
gene 4 11084 11084 8.454660152355288 true 120612 3.0120558609867905 true
gene 1 7659 17923 1.269441717555408 false 121389 0.613191717555408 true
gene 1 17923 11084 0.6894695033233025 false 121390 0.17786922502586844 true
gene 3 9112 7163 -0.899176815531598 false 122220 -0.899176815531598 true
gene 1 4745 18177 0.1515060521586054 true 122960 -0.1766189478413946 true
gene 1 18177 4745 0.5061458888017392 false 122961 0.3065723254169457 true
gene 1 3397 6584 -7.456455787785698 true 123199 -7.456455787785698 true
gene 1 11084 10885 -5.290609587609974 true 123383 -5.290609587609974 true
gene 2 13928 13928 -6.027394883107071 true 123830 -6.027394883107071 true
gene 4 8763 5228 -8.246500437404961 false 124419 -8.246500437404961 true
gene 3 14086 13351 -1.6096488315448203 false 124718 -1.6096488315448203 true
gene 3 1563 17923 -6.9724860292088655 false 125454 -6.9724860292088655 true
gene 2 11566 11566 2.561954543602016 true 125596 0.11018368199413656 true
gene 1 7659 7659 -1.019284950422862 true 127060 -0.12741061880285776 true
gene 3 7512 7512 1.8956162125890572 true 127447 0.11578488924371239 true
gene 2 11679 11679 -5.3405541896098265 true 127856 -0.7030892232541363 true
gene 1 5228 8763 -5.301889432871555 true 128344 -5.301889432871555 true
gene 4 4555 19170 1.0839154967421494 true 128797 0.20891549674214926 true
gene 4 19170 4555 -0.07159161177581695 false 128798 -0.18963662137051762 true
gene 3 458 2423 -8.50152921229553 true 129621 -8.50152921229553 true
gene 3 10786 10786 -2.2097384215595546 true 129775 0 true
gene 1 19170 19170 -7.116445708925051 true 130329 0 true
gene 3 11679 6776 8.357697154678362 true 131166 8.357697154678362 true
gene 4 6661 1563 2.329811812078329 false 132065 2.329811812078329 true
gene 2 8763 11158 -3.1074073509989035 true 132828 -3.1074073509989035 true
gene 2 11679 19904 1 false 133231 0 true
gene 2 19904 3 -1.8750383937810287 false 133232 0 true
gene 2 8544 8544 5.827021252222756 true 133322 0 true
gene 1 12732 19904 1.8642524887403824 false 134150 1.8642524887403824 true
gene 3 2981 20081 1 true 134299 0 true
gene 3 20081 2981 -0.9932783173912701 false 134300 0 true
gene 3 11981 10885 -2.6376492061276844 false 134970 -2.6376492061276844 true
gene 3 19904 19904 9.208653607970152 true 135341 9.208653607970152 true
gene 4 5337 7452 -2.25299254790623 false 136052 -2.25299254790623 true
genomeend 936