/* Species #12344 : (Size 3) (AF 0.449) (Age 5)  */
/* Organism #156 Fitness: 0.627 Error: 0.373 */
genomestart 156
trait 1 0.05 0 0 0.1199775191520332 0 0 0.10697483240978914 0.8751842315686127
trait 2 0.2 0 0 0 0.015244226482277154 0.1355271363378809 0.4270987084077768 0
trait 3 0.4028099385391565 0.35496068372629797 0.0029907388423572674 0 0.28030839052115186 0 0.14737019676947855 0.4377034200978533
trait 4 0.4 0 0 0 0 0 0 0
node 1 1 1 3 SigmoidSteepenedActivation
node 2 1 0 2 SigmoidSteepenedActivation
node 3 1 0 2 SigmoidSteepenedActivation
node 4 1 0 2 SigmoidSteepenedActivation
node 5 1 0 2 SigmoidSteepenedActivation
node 6 1 1 1 SigmoidSteepenedActivation
node 7 1 1 1 SigmoidSteepenedActivation
node 8 1 1 1 SigmoidSteepenedActivation
node 9 1 1 1 SigmoidSteepenedActivation
node 10 1 1 1 SigmoidSteepenedActivation
node 11 1 1 1 SigmoidSteepenedActivation
node 12 3 1 1 SigmoidSteepenedActivation
node 13 1 1 1 SigmoidSteepenedActivation
node 53 1 0 0 SigmoidSteepenedActivation
node 158 1 0 0 SigmoidSteepenedActivation
node 199 1 0 0 SigmoidSteepenedActivation
node 458 1 0 0 SigmoidSteepenedActivation
node 1462 1 0 0 SigmoidSteepenedActivation
node 1472 1 0 0 SigmoidSteepenedActivation
node 1561 1 0 0 SigmoidSteepenedActivation
node 1563 1 0 0 SigmoidSteepenedActivation
node 1639 1 0 0 SigmoidSteepenedActivation
node 2013 1 0 0 SigmoidSteepenedActivation
node 2423 1 0 0 SigmoidSteepenedActivation
node 2981 1 0 0 SigmoidSteepenedActivation
node 3225 1 0 0 SigmoidSteepenedActivation
node 3397 1 0 0 SigmoidSteepenedActivation
node 3581 1 0 0 SigmoidSteepenedActivation
node 3665 1 0 0 SigmoidSteepenedActivation
node 4116 1 0 0 SigmoidSteepenedActivation
node 4211 1 0 0 SigmoidSteepenedActivation
node 4555 1 0 0 SigmoidSteepenedActivation
node 4745 1 0 0 SigmoidSteepenedActivation
node 4945 1 0 0 SigmoidSteepenedActivation
node 5228 1 0 0 SigmoidSteepenedActivation
node 5337 1 0 0 SigmoidSteepenedActivation
node 5710 1 0 0 SigmoidSteepenedActivation
node 5879 1 0 0 SigmoidSteepenedActivation
node 6494 1 0 0 SigmoidSteepenedActivation
node 6584 1 0 0 SigmoidSteepenedActivation
node 6661 2 0 0 SigmoidSteepenedActivation
node 6722 1 0 0 SigmoidSteepenedActivation
node 6776 1 0 0 SigmoidSteepenedActivation
node 7163 1 0 0 SigmoidSteepenedActivation
node 7452 1 0 0 SigmoidSteepenedActivation
node 7512 1 0 0 SigmoidSteepenedActivation
node 7659 1 0 0 SigmoidSteepenedActivation
node 7727 1 0 0 SigmoidSteepenedActivation
node 8012 1 0 0 SigmoidSteepenedActivation
node 8023 1 0 0 SigmoidSteepenedActivation
node 8118 1 0 0 SigmoidSteepenedActivation
node 8344 1 0 0 SigmoidSteepenedActivation
node 8452 1 0 0 SigmoidSteepenedActivation
node 8544 3 0 0 SigmoidSteepenedActivation
node 8629 1 0 0 SigmoidSteepenedActivation
node 8716 1 0 0 SigmoidSteepenedActivation
node 8763 1 0 0 SigmoidSteepenedActivation
node 9112 1 0 0 SigmoidSteepenedActivation
node 9165 1 0 0 SigmoidSteepenedActivation
node 9504 1 0 0 SigmoidSteepenedActivation
node 10461 1 0 0 SigmoidSteepenedActivation
node 10537 1 0 0 SigmoidSteepenedActivation
node 10786 1 0 0 SigmoidSteepenedActivation
node 10795 1 0 0 SigmoidSteepenedActivation
node 10885 1 0 0 SigmoidSteepenedActivation
node 11016 1 0 0 SigmoidSteepenedActivation
node 11084 1 0 0 SigmoidSteepenedActivation
node 11158 1 0 0 SigmoidSteepenedActivation
node 11206 1 0 0 SigmoidSteepenedActivation
node 11566 1 0 0 SigmoidSteepenedActivation
node 11679 1 0 0 SigmoidSteepenedActivation
node 11913 1 0 0 SigmoidSteepenedActivation
node 11981 1 0 0 SigmoidSteepenedActivation
node 12136 1 0 0 SigmoidSteepenedActivation
node 12265 1 0 0 SigmoidSteepenedActivation
node 12417 1 0 0 SigmoidSteepenedActivation
node 12518 1 0 0 SigmoidSteepenedActivation
node 12732 1 0 0 SigmoidSteepenedActivation
node 13055 1 0 0 SigmoidSteepenedActivation
node 13351 1 0 0 SigmoidSteepenedActivation
node 13580 1 0 0 SigmoidSteepenedActivation
node 13928 1 0 0 SigmoidSteepenedActivation
node 14086 1 0 0 SigmoidSteepenedActivation
node 14287 1 0 0 SigmoidSteepenedActivation
node 14680 1 0 0 SigmoidSteepenedActivation
node 14939 1 0 0 SigmoidSteepenedActivation
node 15184 1 0 0 SigmoidSteepenedActivation
node 15288 1 0 0 SigmoidSteepenedActivation
node 15348 1 0 0 SigmoidSteepenedActivation
node 15713 1 0 0 SigmoidSteepenedActivation
node 16091 1 0 0 SigmoidSteepenedActivation
node 16162 1 0 0 SigmoidSteepenedActivation
node 16260 1 0 0 SigmoidSteepenedActivation
node 16324 1 0 0 SigmoidSteepenedActivation
node 16454 1 0 0 SigmoidSteepenedActivation
node 16548 1 0 0 SigmoidSteepenedActivation
node 17271 1 0 0 SigmoidSteepenedActivation
node 17493 1 0 0 SigmoidSteepenedActivation
node 17599 1 0 0 SigmoidSteepenedActivation
node 17747 1 0 0 SigmoidSteepenedActivation
node 17981 1 0 0 SigmoidSteepenedActivation
node 18115 1 0 0 SigmoidSteepenedActivation
node 18216 1 0 0 SigmoidSteepenedActivation
node 18540 1 0 0 SigmoidSteepenedActivation
node 18735 1 0 0 SigmoidSteepenedActivation
node 18861 1 0 0 SigmoidSteepenedActivation
node 18953 1 0 0 SigmoidSteepenedActivation
node 19050 1 0 0 SigmoidSteepenedActivation
node 19367 1 0 0 SigmoidSteepenedActivation
node 19665 1 0 0 SigmoidSteepenedActivation
node 19868 1 0 0 SigmoidSteepenedActivation
node 20200 1 0 0 SigmoidSteepenedActivation
gene 1 1 2 0.48995773395209213 true 1 0.48995773395209213 true
gene 2 1 3 -0.0673954478429799 true 2 -0.0673954478429799 true
gene 2 1 4 0.36760788453617727 true 3 0.36760788453617727 true
gene 4 1 5 -1.205216216625025 true 4 -1.205216216625025 true
gene 1 6 2 -2.4213786953347762 true 1 -2.4213786953347762 true
gene 2 6 3 -3.485803242203873 true 2 -3.485803242203873 true
gene 3 6 4 -0.5243163630611454 true 3 -0.5243163630611454 true
gene 4 6 5 -0.7941780775223956 true 4 -0.7941780775223956 true
gene 1 7 2 -0.39369874934471205 true 1 -0.39369874934471205 true
gene 2 7 3 -0.1680922726542593 true 2 -0.1680922726542593 true
gene 3 7 4 -0.9463969449027312 true 3 -0.9463969449027312 true
gene 4 7 5 -0.0011564199849493084 true 4 -0.0011564199849493084 true
gene 1 8 2 0.6174976960811132 true 1 0.6174976960811132 true
gene 2 8 3 -0.7363292079357954 true 2 -0.7363292079357954 true
gene 3 8 4 -2.4309501364013277 true 3 -2.4309501364013277 true
gene 4 8 5 -0.16970035731977168 true 4 -0.16970035731977168 true
gene 1 9 2 1.439788562533075 true 1 1.439788562533075 true
gene 2 9 3 1.53720344886386 true 2 1.53720344886386 true
gene 3 9 4 -0.5973295378221968 true 3 -0.5973295378221968 true
gene 4 9 5 0.5752240669259502 true 4 0.5752240669259502 true
gene 1 10 2 -4.729082888859618 true 1 -4.729082888859618 true
gene 2 10 3 2.298083909281664 true 2 2.298083909281664 true
gene 3 10 4 2.9576123742526015 true 3 2.9576123742526015 true
gene 4 10 5 0.009108946517749517 true 4 0.009108946517749517 true
gene 1 11 2 0.5681236581028013 true 1 0.5681236581028013 true
gene 2 11 3 1.543537000716169 true 2 1.543537000716169 true
gene 3 11 4 2.641008535187109 true 3 2.641008535187109 true
gene 4 11 5 0.023061748836474816 true 4 0.023061748836474816 true
gene 1 12 2 5.990328034650632 true 1 5.990328034650632 true
gene 2 12 3 2.5614004456636708 true 2 2.5614004456636708 true
gene 3 12 4 1.3070130461670377 true 3 1.3070130461670377 true
gene 4 12 5 1.5933523097001667 true 4 1.5933523097001667 true
gene 1 13 2 1.8199548505034664 true 1 1.8199548505034664 true
gene 2 13 3 0.2680299276009172 true 2 0.2680299276009172 true
gene 3 13 4 1.538353915248773 true 3 1.538353915248773 true
gene 4 13 5 2.235542459008286 true 4 2.235542459008286 true
gene 2 2 2 -0.6080222474888521 true 11 -0.6080222474888521 true
gene 1 9 53 -0.9553272300239593 true 156 -0.9553272300239593 true
gene 1 53 2 1.502404687163509 false 157 1.502404687163509 true
gene 1 3 3 0.02770828979369474 true 247 0.02770828979369474 true
gene 1 6 158 3.6681864871494714 true 613 3.6681864871494714 true
gene 3 158 4 3.1064495042443627 false 614 3.1064495042443627 true
gene 2 158 158 1.1024149975976703 true 965 1.1024149975976703 true
gene 1 6 4 -5.384876866937114 false 1147 -5.384876866937114 true
gene 1 2 4 4.449683757954024 false 1329 4.449683757954024 true
gene 4 13 53 -2.7835062600666878 false 1735 -2.7835062600666878 true
gene 2 5 53 0.9012950157819318 false 2980 0.9012950157819318 true
gene 3 5 5 -0.664777069745442 true 3058 -0.664777069745442 true
gene 4 4 4 -5.83393369471328 true 3339 -5.83393369471328 true
gene 2 2 53 -5.213370320595426 true 4245 -5.213370320595426 true
gene 3 8 3 2.7261315706296076 false 5051 2.7261315706296076 true
gene 3 53 53 4.061016075705806 true 5057 4.061016075705806 true
gene 1 9 199 2.5427872205039184 true 5211 2.5427872205039184 true
gene 1 199 2 -2.3509725661191654 false 5212 -2.3509725661191654 true
gene 3 10 199 4.307429279707547 false 5443 4.307429279707547 true
gene 2 4 158 -0.3479574797189519 true 5852 -0.3479574797189519 true
gene 3 10 458 -0.3829126227855202 false 6436 -0.3829126227855202 true
gene 3 458 199 -1.1339369455566082 false 6437 -1.1339369455566082 true
gene 1 4 53 -1.1208690897262592 true 6508 -1.1208690897262592 true
gene 3 458 458 -1.4531624200551665 true 6868 -1.4531624200551665 true
gene 2 4 458 1.127110271233143 true 7367 1.127110271233143 true
gene 4 199 458 -3.9656029450426082 true 7848 -3.9656029450426082 true
gene 2 458 2 -5.378119778660996 false 8095 -5.378119778660996 true
gene 3 199 5 -0.9892758435139466 false 10371 -0.9892758435139466 true
gene 2 199 199 -0.03151730459981816 true 10711 -0.03151730459981816 true
gene 1 13 158 0.15964510602975646 false 11328 0.15964510602975646 true
gene 1 5 199 -0.9034844773590363 true 11990 -0.9034844773590363 true
gene 2 6 1462 -0.11023520883650234 true 12148 -0.11023520883650234 true
gene 2 1462 3 -2.001357135126859 false 12149 -2.001357135126859 true
gene 2 158 1472 0.06378417376814194 true 12184 0.06378417376814194 true
gene 2 1472 158 1.1648118436675774 false 12185 1.1648118436675774 true
gene 4 4 1561 0.39025249718977084 true 12557 0.39025249718977084 true
gene 4 1561 4 2.2770552943034303 false 12558 2.2770552943034303 true
gene 3 12 3 -1.397079784670459 false 12931 -1.397079784670459 true
gene 2 458 1563 6.137955974437622 false 12936 6.137955974437622 true
gene 2 1563 2 -0.30674202102594916 false 12937 -0.30674202102594916 true
gene 4 1472 1472 4.577539225419146 true 14570 4.577539225419146 true
gene 2 6 1561 -2.0150386311546193 false 14623 -2.0150386311546193 true
gene 1 8 1639 0.35844942111464984 true 14926 0.35844942111464984 true
gene 1 1639 2 -1.6745373325256578 false 14927 -1.6745373325256578 true
gene 4 2 3 -3.0368464942352538 false 15370 -3.0368464942352538 true
gene 4 5 1563 -0.08085633745158335 false 15671 -0.08085633745158335 true
gene 3 458 2013 2.9049881323897107 false 16879 2.9049881323897107 true
gene 3 2013 199 -0.28530051871519846 false 16880 -0.28530051871519846 true
gene 2 2013 2013 -0.706340778031806 true 17118 -0.706340778031806 true
gene 4 199 3 -4.118898209491051 false 17415 -4.118898209491051 true
gene 3 5 4 -3.60161443698748 false 18003 -3.60161443698748 true
gene 4 1462 1462 4.940015564883687 true 18233 4.940015564883687 true
gene 3 7 1563 6.715039043152659 false 19160 6.715039043152659 true
gene 1 7 2423 -1.6077499650788183 true 19247 -1.6077499650788183 true
gene 1 2423 2 -3.187121893464913 false 19248 -3.187121893464913 true
gene 2 1561 53 2.092715207605347 false 19812 2.092715207605347 true
gene 1 1563 1563 2.1676445332022842 true 19887 2.1676445332022842 true
gene 4 8 458 -0.8873844648390096 false 20786 -0.8873844648390096 true
gene 3 1563 199 -1.2316146723861627 true 20827 -1.2316146723861627 true
gene 3 8 2423 -0.8188523016286006 false 20988 -0.8188523016286006 true
gene 3 1639 458 -1.1537996066334393 false 21465 -1.1537996066334393 true
gene 3 1472 2 -1.8366975546147137 false 22482 -1.8366975546147137 true
gene 1 11 158 -0.9386285635773528 false 23203 -0.9386285635773528 true
gene 3 1 458 -0.3935549441717314 false 23572 -0.3935549441717314 true
gene 3 10 2981 -0.35451987718526035 true 23963 -0.35451987718526035 true
gene 3 2981 4 -1.3159924267614214 false 23964 -1.3159924267614214 true
gene 2 3 1563 3.0764278945001777 true 24671 3.0764278945001777 true
gene 3 12 3225 5.886132929020326 false 25322 5.886132929020326 true
gene 3 3225 3 3.49447499052438 false 25323 3.49447499052438 true
gene 1 3225 3225 1.49481637422569 true 25862 1.49481637422569 true
gene 1 5 2 -4.290437151329974 false 26141 -4.290437151329974 true
gene 2 2 3397 -0.4411095608685436 true 26325 -0.4411095608685436 true
gene 2 3397 2 1.0261924814196781 false 26326 1.0261924814196781 true
gene 4 2013 1563 -2.374296389965373 false 26967 -2.374296389965373 true
gene 1 3397 3397 2.4557291825508965 true 26991 2.4557291825508965 true
gene 4 5 3581 0.15632672241945497 false 27965 0.15632672241945497 true
gene 4 3581 1563 -1.4801339108109488 false 27966 -1.4801339108109488 true
gene 2 158 3665 -0.2786518935097111 true 28470 -0.2786518935097111 true
gene 2 3665 1472 -0.5366022144282923 false 28471 -0.5366022144282923 true
gene 4 1563 3225 -8.71715706422766 false 28950 -8.71715706422766 true
gene 3 1639 1639 -1.1418290684367998 true 29073 -1.1418290684367998 true
gene 1 1561 1561 0.32899137256613553 true 29441 0.32899137256613553 true
gene 4 4 3 -0.5809961451491996 false 29836 -0.5809961451491996 true
gene 2 3665 3665 -3.070526934591883 true 30194 -3.070526934591883 true
gene 3 2013 1472 3.013290341483846 false 30637 3.013290341483846 true
gene 3 12 4116 1.559054766064072 false 31047 1.559054766064072 true
gene 4 4116 3225 0.9511039194164501 false 31048 0.9511039194164501 true
gene 1 199 4211 2.059732125624364 false 31671 2.059732125624364 true
gene 1 4211 2 4.840165835003395 false 31672 4.840165835003395 true
gene 4 4211 4211 5.023715102337133 true 32118 5.023715102337133 true
gene 2 12 1639 1.5186832994733879 false 33097 1.5186832994733879 true
gene 3 3581 3581 -2.225251455808949 true 33444 -2.225251455808949 true
gene 3 2981 2981 -0.4719329473706577 true 33795 -0.4719329473706577 true
gene 2 12 4555 -0.4458081517967401 true 34024 -0.4458081517967401 true
gene 2 4555 3 3.7986666686043304 false 34025 3.7986666686043304 true
gene 1 9 53 0.533290706374876 false 34489 0.533290706374876 true
gene 3 2013 4745 0.22980215107311114 false 35106 0.22980215107311114 true
gene 3 4745 1472 3.186826715386983 false 35107 3.186826715386983 true
gene 3 2981 4555 -1.9388077422477554 false 35720 -1.9388077422477554 true
gene 3 12 4945 -0.6013299038983786 false 36308 -0.6013299038983786 true
gene 3 4945 3225 0.9485682424012256 false 36309 0.9485682424012256 true
gene 3 4555 199 -0.5437663523443803 false 37312 -0.5437663523443803 true
gene 2 12 5228 -0.4874372092620755 true 38057 -0.4874372092620755 true
gene 2 5228 3 -1.7079859912430555 false 38058 -1.7079859912430555 true
gene 1 199 5337 -0.7296473408845697 false 38691 -0.7296473408845697 true
gene 1 5337 2 2.1340833784428366 false 38692 2.1340833784428366 true
gene 4 4555 4555 -0.537040083159589 true 39012 -0.537040083159589 true
gene 1 4745 4745 0.008165932324303626 true 39552 0.008165932324303626 true
gene 1 4555 3225 -1.9343286816142689 false 39741 -1.9343286816142689 true
gene 3 6 199 -6.910749685974461 false 39852 -6.910749685974461 true
gene 2 7 5710 -0.7793970417644115 true 41008 -0.7793970417644115 true
gene 2 5710 3 6.315309054288723 false 41009 6.315309054288723 true
gene 4 11 5 -0.9671249442792605 false 41468 -0.9671249442792605 true
gene 3 5 5879 1.4211383234816453 true 41968 1.4211383234816453 true
gene 3 5879 5 2.0913099573995315 false 41969 2.0913099573995315 true
gene 4 5337 5337 0.4601225616016929 true 42225 0.4601225616016929 true
gene 3 4116 4116 -0.30793327273593535 true 42617 -0.30793327273593535 true
gene 1 8 4 2.7125866642855336 false 43136 2.7125866642855336 true
gene 2 4555 5 -0.8686003658458542 false 43537 -0.8686003658458542 true
gene 1 3225 3397 0.20095560123047507 false 43891 0.20095560123047507 true
gene 3 2 2423 -3.128157273782004 true 44542 -3.128157273782004 true
gene 1 13 4 3.389988508027278 false 45660 3.389988508027278 true
gene 2 12 6494 1.3811045737684486 true 45886 1.3811045737684486 true
gene 2 6494 4555 3.3452198879808104 false 45887 3.3452198879808104 true
gene 3 6 6584 0.5074291995700413 false 46419 0.5074291995700413 true
gene 3 6584 199 -6.627716567503158 false 46420 -6.627716567503158 true
gene 4 9 6661 0.05941763774188484 true 46966 0.05941763774188484 true
gene 4 6661 5 1.5923954369469604 false 46967 1.5923954369469604 true
gene 2 13 6722 3.1010083217788393 true 47362 3.1010083217788393 true
gene 2 6722 3 -1.4866340559459852 false 47363 -1.4866340559459852 true
gene 3 6 6776 -5.716990872183893 false 47745 -5.716990872183893 true
gene 3 6776 6584 -1.8560503078006505 false 47746 -1.8560503078006505 true
gene 4 4945 6494 -0.6181753112220805 false 48167 -0.6181753112220805 true
gene 3 1563 2013 0.19759081226426667 true 48402 0.19759081226426667 true
gene 1 6722 6722 -5.600261717138628 true 49260 -5.600261717138628 true
gene 1 5710 5710 2.398692583999032 true 49430 2.398692583999032 true
gene 4 5 7163 -0.23414566474512757 false 49974 -0.23414566474512757 true
gene 4 7163 3581 -3.6461477931928936 false 49975 -3.6461477931928936 true
gene 2 5228 5228 2.640523092660969 true 50301 2.640523092660969 true
gene 3 6584 6584 0.35356421691019224 true 50741 0.35356421691019224 true
gene 1 1462 6494 -0.5525804180739944 false 51469 -0.5525804180739944 true
gene 3 1561 199 -1.8401354852943563 false 51660 -1.8401354852943563 true
gene 3 12 7452 -4.090150304006889 false 51973 -4.090150304006889 true
gene 3 7452 4116 1.8233090676936237 false 51974 1.8233090676936237 true
gene 4 9 7512 1.5261907863508979 true 52335 1.5261907863508979 true
gene 4 7512 6661 -2.7410741935404266 false 52336 -2.7410741935404266 true
gene 1 3225 7659 0.16854538964027713 true 53228 0.16854538964027713 true
gene 1 7659 3225 -0.8032776034708587 false 53229 -0.8032776034708587 true
gene 3 458 7727 -0.8706041083392851 false 53627 -0.8706041083392851 true
gene 3 7727 199 0.18863228110421182 false 53628 0.18863228110421182 true
gene 4 2 7512 2.0731522114445182 true 54292 2.0731522114445182 true
gene 1 7452 7452 -5.499547866885508 true 54572 -5.499547866885508 true
gene 4 7163 6722 4.6583221079311885 false 54931 4.6583221079311885 true
gene 2 1561 8012 2.1243335219596995 false 55309 2.1243335219596995 true
gene 2 8012 53 -0.7050703111242212 false 55310 -0.7050703111242212 true
gene 2 5337 5879 3.8615961196147364 false 55959 3.8615961196147364 true
gene 1 2423 1639 -1.3035324271861848 false 56671 -1.3035324271861848 true
gene 2 3581 5228 1.251734086916284 false 57081 1.251734086916284 true
gene 1 4945 4945 -1.6144853007596005 true 57182 -1.6144853007596005 true
gene 1 5337 8023 0.7337975710666641 false 57245 0.7337975710666641 true
gene 1 8023 2 -0.19229530494691852 false 57246 -0.19229530494691852 true
gene 1 9 8118 -0.19506259717492805 true 57768 -0.19506259717492805 true
gene 1 8118 53 -0.9498791508297465 false 57769 -0.9498791508297465 true
gene 4 1462 7727 -6.532274202768641 false 58288 -6.532274202768641 true
gene 3 6661 6661 0.7681528642737167 true 58517 0.7681528642737167 true
gene 4 11 8344 -0.3920184507066991 true 59094 -0.3920184507066991 true
gene 4 8344 5 -1.2329080306813507 false 59095 -1.2329080306813507 true
gene 1 9 8452 -0.991708224587285 true 59720 -0.991708224587285 true
gene 1 8452 2 -3.6896721526640417 false 59721 -3.6896721526640417 true
gene 1 9 8544 -0.845108659860216 true 60236 -0.845108659860216 true
gene 1 8544 2 0.38497325572103214 false 60237 0.38497325572103214 true
gene 2 12 8629 0.25992854622734946 true 60747 0.25992854622734946 true
gene 2 8629 6494 0.31301172585569376 false 60748 0.31301172585569376 true
gene 2 3 8716 -0.25737002688062904 true 61245 -0.25737002688062904 true
gene 2 8716 1563 -6.415594182610665 false 61246 -6.415594182610665 true
gene 2 5 8763 2.3821435667168824 false 61493 2.3821435667168824 true
gene 2 8763 53 -3.4355138535681036 false 61494 -3.4355138535681036 true
gene 4 8023 8023 0.27701408177366976 true 61856 0.27701408177366976 true
gene 3 5 9112 3.179232293319867 true 63622 3.179232293319867 true
gene 3 9112 5 -1.7595746114008604 false 63623 -1.7595746114008604 true
gene 2 7163 7163 -1.4032640138811714 true 64059 -1.4032640138811714 true
gene 4 4555 9165 0.40662184478756347 true 64374 0.40662184478756347 true
gene 4 9165 4555 3.909327170025506 false 64375 3.909327170025506 true
gene 3 5879 7512 1.2642929946472152 false 64911 1.2642929946472152 true
gene 4 8452 8452 -11.863836432150984 true 65927 -11.863836432150984 true
gene 4 7163 9504 -3.3108367145425444 false 66373 -3.3108367145425444 true
gene 4 9504 6722 -8.227078700404336 false 66374 -8.227078700404336 true
gene 4 8716 8716 0.3347512870635287 true 66861 0.3347512870635287 true
gene 4 8344 8344 1.0246391415982938 true 67283 1.0246391415982938 true
gene 3 6 7659 -0.5394320573222268 false 68066 -0.5394320573222268 true
gene 1 1472 3 -0.04689595127749879 false 69577 -0.04689595127749879 true
gene 3 7727 1472 0.3122883780721585 false 70010 0.3122883780721585 true
gene 4 6494 5710 3.1686785453322877 false 70572 3.1686785453322877 true
gene 2 9165 9165 -0.5731239653128 true 70990 -0.5731239653128 true
gene 1 4 10461 4.331851797368932 true 71958 4.331851797368932 true
gene 1 10461 53 1.9330208878235542 false 71959 1.9330208878235542 true
gene 2 2013 10537 -0.016767966147617108 true 72481 -0.016767966147617108 true
gene 2 10537 2013 0.7740087328085736 false 72482 0.7740087328085736 true
gene 3 2423 2423 1.8339739525904313 true 72902 1.8339739525904313 true
gene 2 4211 7163 -0.09161887752328857 false 73379 -0.09161887752328857 true
gene 1 6 10786 1.5478929117410534 true 73984 1.5478929117410534 true
gene 1 10786 2 -5.755367090936164 false 73985 -5.755367090936164 true
gene 2 3 9504 1.759360382422839 false 74454 1.759360382422839 true
gene 2 7 10795 0.5826224830097262 true 74499 0.5826224830097262 true
gene 2 10795 3 1.9451981978187454 false 74500 1.9451981978187454 true
gene 4 1462 10885 0.3623805090386428 false 75056 0.3623805090386428 true
gene 4 10885 7727 1.2839835597804479 false 75057 1.2839835597804479 true
gene 1 9 11016 -0.2006340702309718 true 75882 -0.2006340702309718 true
gene 1 11016 8118 0.3651612909381497 false 75883 0.3651612909381497 true
gene 1 8118 199 -0.22625298628034712 false 76881 -0.22625298628034712 true
gene 1 7659 11084 -0.05888550581508761 false 77280 -0.05888550581508761 true
gene 1 11084 3225 -0.295035862571304 false 77281 -0.295035862571304 true
gene 4 11 11158 0.8512449134433877 true 77728 0.8512449134433877 true
gene 4 11158 8344 1.1900639678832952 false 77729 1.1900639678832952 true
gene 3 10 11206 1.3645322485322016 true 77973 1.3645322485322016 true
gene 3 11206 2981 -1.1609223366867356 false 77974 -1.1609223366867356 true
gene 4 5 3 1.9792403621598325 false 78687 1.9792403621598325 true
gene 3 3581 6722 -7.631688460556223 false 79276 -7.631688460556223 true
gene 4 8012 8012 -1.2937968204775876 true 79611 -1.2937968204775876 true
gene 4 10 11566 1.7874868466538152 true 80058 1.7874868466538152 true
gene 4 11566 5 0.6033924598288762 false 80059 0.6033924598288762 true
gene 2 6722 11679 2.2020824328980977 false 80706 2.2020824328980977 true
gene 2 11679 3 -2.628085595236146 false 80707 -2.628085595236146 true
gene 2 3 8012 -0.37687467663326474 true 81075 -0.37687467663326474 true
gene 3 9 8118 -1.3210527314095886 false 81984 -1.3210527314095886 true
gene 3 4 1639 -2.3063950262757946 true 82413 -2.3063950262757946 true
gene 3 6776 6776 -1.0076465225153166 true 82853 -1.0076465225153166 true
gene 4 9 11913 0.7842660320259587 true 84322 0.7842660320259587 true
gene 4 11913 7512 1.087058256435389 false 84323 1.087058256435389 true
gene 2 7 11981 1.3471838887896908 true 84723 1.3471838887896908 true
gene 2 11981 3 -0.48480226144586275 false 84724 -0.48480226144586275 true
gene 2 9 12136 0.5407790789794144 true 85709 0.5407790789794144 true
gene 2 12136 3 -0.29969006654828056 false 85710 -0.29969006654828056 true
gene 3 12 12265 1.5204022853058135 false 86545 1.5204022853058135 true
gene 3 12265 4116 -0.3967188884437063 false 86546 -0.3967188884437063 true
gene 3 4945 12417 -0.3546787567354145 false 87474 -0.3546787567354145 true
gene 3 12417 3225 -0.3895348923918964 false 87475 -0.3895348923918964 true
gene 4 11158 12518 -0.8543348604695342 false 88181 -0.8543348604695342 true
gene 4 12518 8344 1.6118411353478943 false 88182 1.6118411353478943 true
gene 2 6494 12732 -1.709513471416982 false 89379 -1.709513471416982 true
gene 2 12732 4555 -1.469503384823425 false 89380 -1.469503384823425 true
gene 4 8452 3397 2.9361543471460876 false 90319 2.9361543471460876 true
gene 1 12518 12518 1.6981433700393795 true 90524 1.6981433700393795 true
gene 3 1639 13055 0.30415109485967684 true 91404 0.30415109485967684 true
gene 3 13055 1639 -0.3563511390027509 false 91405 -0.3563511390027509 true
gene 1 11 13351 2.3963078424254105 false 93190 2.3963078424254105 true
gene 1 13351 158 -0.3497485823837859 false 93191 -0.3497485823837859 true
gene 4 11 13580 -0.9350700911158458 true 94468 -0.9350700911158458 true
gene 4 13580 8344 -0.26649693052527457 false 94469 -0.26649693052527457 true
gene 2 53 2013 0.6737304875314597 true 95329 0.6737304875314597 true
gene 1 3397 2013 -2.486640247107252 true 95776 -2.486640247107252 true
gene 3 7452 13928 -2.002027556025012 false 96621 -2.002027556025012 true
gene 3 13928 4116 -0.8822120299353531 false 96622 -0.8822120299353531 true
gene 3 8 14086 -4.001275496214752 true 97577 -4.001275496214752 true
gene 3 14086 4 -0.9365266590247446 false 97578 -0.9365266590247446 true
gene 3 12 14287 0.03406198913872745 false 98775 0.03406198913872745 true
gene 3 14287 4945 1.7727305785601946 false 98776 1.7727305785601946 true
gene 2 12 6584 0.4436161113532609 false 99653 0.4436161113532609 true
gene 1 12732 12732 -0.5014933259573782 true 100065 -0.5014933259573782 true
gene 3 2013 14680 0.8909694009241677 false 101208 0.8909694009241677 true
gene 3 14680 1472 -1.663846208639989 false 101209 -1.663846208639989 true
gene 2 13 1563 -1.260377109027756 false 101926 -1.260377109027756 true
gene 2 14287 14287 0.22613404593986997 true 102393 0.22613404593986997 true
gene 3 1639 9165 -0.9859643986197744 false 102835 -0.9859643986197744 true
gene 4 9 14939 -1.6651603770116707 true 103441 -1.6651603770116707 true
gene 4 14939 7512 0.19670043735386086 false 103442 0.19670043735386086 true
gene 1 8629 10885 0.5160575000916849 false 104052 0.5160575000916849 true
gene 1 2423 15184 -0.606851913155251 false 104820 -0.606851913155251 true
gene 1 15184 1639 -0.43955770156851837 false 104821 -0.43955770156851837 true
gene 2 9 15288 -0.813291642524458 true 105414 -0.813291642524458 true
gene 2 15288 3 1.5936265060029395 false 105415 1.5936265060029395 true
gene 4 8344 15348 0.5365359095106699 true 105790 0.5365359095106699 true
gene 4 15348 8344 0.41576851071869414 false 105791 0.41576851071869414 true
gene 4 11981 11981 0.7155717821066758 true 106051 0.7155717821066758 true
gene 2 5710 14287 10.440280846821045 true 106731 10.440280846821045 true
gene 2 7 15713 -0.5583936459427598 true 108007 -0.5583936459427598 true
gene 2 15713 11981 1.0278407366404385 false 108008 1.0278407366404385 true
gene 1 15288 15288 -0.4217997110893696 true 109820 -0.4217997110893696 true
gene 2 9 16091 -0.059581189115331556 true 110259 -0.059581189115331556 true
gene 2 16091 3 0.5514905308273809 false 110260 0.5514905308273809 true
gene 2 6776 1563 0.24804717684916877 false 110931 0.24804717684916877 true
gene 3 14086 16162 -2.6619937390523254 false 111284 -2.6619937390523254 true
gene 3 16162 4 0.5290219910028807 false 111285 0.5290219910028807 true
gene 3 10 16260 -1.202610684264452 false 111880 -1.202610684264452 true
gene 3 16260 199 0.6164654433833043 false 111881 0.6164654433833043 true
gene 4 5228 15184 -1.8491783598612073 true 112353 -1.8491783598612073 true
gene 1 8544 16324 0.18352857376458337 false 112765 0.18352857376458337 true
gene 1 16324 2 0.1969472701981982 false 112766 0.1969472701981982 true
gene 1 11913 11913 0.07700797053713669 true 112953 0.07700797053713669 true
gene 4 16091 8452 -6.387355079659541 false 112961 -6.387355079659541 true
gene 4 7512 16454 0.1245469569416165 false 113669 0.1245469569416165 true
gene 4 16454 6661 2.3278495262372063 false 113670 2.3278495262372063 true
gene 2 6494 16548 0.04600890338472907 false 114143 0.04600890338472907 true
gene 2 16548 4555 0.6387269366672553 false 114144 0.6387269366672553 true
gene 4 12136 12136 -8.845984988503623 true 114748 -8.845984988503623 true
gene 1 7659 7659 -0.13038926420666502 true 115159 -0.13038926420666502 true
gene 3 10786 53 -0.9793377662897412 false 115637 -0.9793377662897412 true
gene 1 8629 8629 8.267575222839225 true 115912 8.267575222839225 true
gene 2 14939 14939 -2.549222859219146 true 116331 -2.549222859219146 true
gene 3 12417 12417 -0.4490601845580565 true 116914 -0.4490601845580565 true
gene 4 15184 15184 0.647743778597461 true 117310 0.647743778597461 true
gene 4 11158 11158 0.04997044509514457 true 117780 0.04997044509514457 true
gene 4 11 17271 -0.027358032718863945 false 118304 -0.027358032718863945 true
gene 4 17271 5 6.194685223842227 false 118305 6.194685223842227 true
gene 4 16324 16324 -3.162754953139893 true 118847 -3.162754953139893 true
gene 2 3 17493 0.6546444118504875 true 119569 0.6546444118504875 true
gene 2 17493 8012 1.3897082621881227 false 119570 1.3897082621881227 true
gene 3 8 17599 2.491006673529835 false 120215 2.491006673529835 true
gene 3 17599 3 1.2069986229779814 false 120216 1.2069986229779814 true
gene 4 13580 13580 0.05725443910799999 true 120366 0.05725443910799999 true
gene 2 12 17747 2.9403096910986277 true 121062 2.9403096910986277 true
gene 2 17747 3 -0.07521310337314505 false 121063 -0.07521310337314505 true
gene 2 8452 11913 -0.6558584059193588 false 121703 -0.6558584059193588 true
gene 2 17747 17981 -0.7797705401345421 false 122475 -0.7797705401345421 true
gene 2 17981 3 -2.5462775066156023 false 122476 -2.5462775066156023 true
gene 3 9504 8629 0.4166550068266843 true 123133 0.4166550068266843 true
gene 3 8452 2981 0.8197069071330738 false 123539 0.8197069071330738 true
gene 1 1 17271 -4.7401153206083215 false 123984 -4.7401153206083215 true
gene 1 15348 15348 -8.52430166749116 true 124445 -8.52430166749116 true
gene 1 2 1561 -9.094310443265838 true 124512 -9.094310443265838 true
gene 2 10795 10795 0.6923087611782106 true 124950 0.6923087611782106 true
gene 4 6 18115 1 true 125676 0 true
gene 4 18115 5 -0.7941780775223956 false 125677 0 true
gene 3 199 18216 1 false 126221 0 true
gene 3 18216 5 -0.9892758435139466 false 126222 0 true
gene 2 17981 17981 -8.725804180746703 true 126880 0 true
gene 2 8452 11084 -4.364175771247228 false 127594 -4.364175771247228 true
gene 3 1472 18540 1 false 128032 0 true
gene 3 18540 2 -1.8366975546147137 false 128033 0 true
gene 1 9504 12518 4.818182760884767 true 128762 4.818182760884767 true
gene 3 12417 18735 1 false 129146 0 true
gene 3 18735 3225 -0.3895348923918964 false 129147 0 true
gene 2 9 18861 1 true 129791 0 true
gene 2 18861 16091 -0.059581189115331556 false 129792 0 true
gene 4 7 18953 1 true 130313 0 true
gene 4 18953 5 -0.0011564199849493084 false 130314 0 true
gene 2 8452 19050 1 false 130834 0 true
gene 2 19050 11084 -4.364175771247228 false 130835 0 true
gene 1 14680 8763 -9.87068599887161 false 131652 -9.87068599887161 true
gene 3 13928 7452 -6.739519437436999 true 132050 -6.739519437436999 true
gene 4 1462 19367 1 true 132707 0 true
gene 4 19367 1462 4.940015564883687 false 132708 0 true
gene 1 7163 8452 -0.15479782852609755 true 133328 -0.15479782852609755 true
gene 3 13928 13928 9.049441610049499 true 133422 0 true
gene 2 6776 19665 1 false 134515 0 true
gene 2 19665 1563 0.24804717684916877 false 134516 0 true
gene 2 199 2981 5.440061393363656 true 135249 5.440061393363656 true
gene 1 7659 19868 1 false 135678 0 true
gene 1 19868 11084 -0.05888550581508761 false 135679 0 true
gene 2 13055 2013 -9.299630525187672 false 136334 -9.299630525187672 true
gene 1 9 14086 -2.471165761413141 false 136748 -2.471165761413141 true
gene 2 1561 14939 2.5297695317879447 false 137178 2.5297695317879447 true
gene 3 13 20200 1 true 137622 0 true
gene 3 20200 4 1.538353915248773 false 137623 0 true
gene 4 11566 11566 -2.9013005955095346 true 138010 0 true
gene 2 5879 5879 -6.08580068314919 true 138598 0 true
gene 1 6 7512 2.9990140463597585 false 139179 2.9990140463597585 true
gene 2 6776 19050 7.294093431874288 false 139667 7.294093431874288 true
genomeend 156